
        <?xml version="1.0"?>
        <MethodSetup Method="BDT::bdt">
        <GeneralInfo>
        <Info name="TMVA Release" value=""/>
        <Info name="ROOT Release" value=""/>
        <Info name="Creator" value="mlglue"/>
        <Info name="Date" value=""/>
        <Info name="Host" value=""/>
        <Info name="Dir" value=""/>
        <Info name="Training events" value="-1"/>
        <Info name="TrainingTime" value="-1"/>
        <Info name="AnalysisType" value="Classification"/>
        </GeneralInfo>
        <Options>
        <Option name="NTrees" modified="Yes">10</Option>
        <Option name="MaxDepth" modified="Yes">6</Option>
        <Option name="BoostType" modified="Yes">Grad</Option>
        <Option name="Shrinkage" modified="Yes">0.3</Option>
        <Option name="UseNvars" modified="Yes">9</Option>
        </Options>

        <Variables NVar="9">
        <Variable VarIndex="0" Expression="seetot" Label="seetot" Title="seetot" Unit="" Internal="seetot" Type="F" Min="0.0000000000000000000000000000000000000000000000000000000000000000E+00" Max="0.0000000000000000000000000000000000000000000000000000000000000000E+00"/>
<Variable VarIndex="1" Expression="layer90" Label="layer90" Title="layer90" Unit="" Internal="layer90" Type="F" Min="0.0000000000000000000000000000000000000000000000000000000000000000E+00" Max="0.0000000000000000000000000000000000000000000000000000000000000000E+00"/>
<Variable VarIndex="2" Expression="meanz" Label="meanz" Title="meanz" Unit="" Internal="meanz" Type="F" Min="0.0000000000000000000000000000000000000000000000000000000000000000E+00" Max="0.0000000000000000000000000000000000000000000000000000000000000000E+00"/>
<Variable VarIndex="3" Expression="hoe" Label="hoe" Title="hoe" Unit="" Internal="hoe" Type="F" Min="0.0000000000000000000000000000000000000000000000000000000000000000E+00" Max="0.0000000000000000000000000000000000000000000000000000000000000000E+00"/>
<Variable VarIndex="4" Expression="ntc90" Label="ntc90" Title="ntc90" Unit="" Internal="ntc90" Type="F" Min="0.0000000000000000000000000000000000000000000000000000000000000000E+00" Max="0.0000000000000000000000000000000000000000000000000000000000000000E+00"/>
<Variable VarIndex="5" Expression="ntc67" Label="ntc67" Title="ntc67" Unit="" Internal="ntc67" Type="F" Min="0.0000000000000000000000000000000000000000000000000000000000000000E+00" Max="0.0000000000000000000000000000000000000000000000000000000000000000E+00"/>
<Variable VarIndex="6" Expression="spptot" Label="spptot" Title="spptot" Unit="" Internal="spptot" Type="F" Min="0.0000000000000000000000000000000000000000000000000000000000000000E+00" Max="0.0000000000000000000000000000000000000000000000000000000000000000E+00"/>
<Variable VarIndex="7" Expression="layer10" Label="layer10" Title="layer10" Unit="" Internal="layer10" Type="F" Min="0.0000000000000000000000000000000000000000000000000000000000000000E+00" Max="0.0000000000000000000000000000000000000000000000000000000000000000E+00"/>
<Variable VarIndex="8" Expression="emaxe" Label="emaxe" Title="emaxe" Unit="" Internal="emaxe" Type="F" Min="0.0000000000000000000000000000000000000000000000000000000000000000E+00" Max="0.0000000000000000000000000000000000000000000000000000000000000000E+00"/>

        </Variables>

        <Classes NClass="2">
        <Class Name="background" Index="0"/>
<Class Name="signal" Index="1"/>

        </Classes>

        <Targets NTrgt="0">
        
        </Targets>

        <Transformations NTransformations="0"/>
        <MVAPdfs/>
        <Weights NTrees="10" AnalysisType="1">
        <BinaryTree type="DecisionTree" boostWeight="0.0" itree="0">
    <Node pos="c" depth="1" NCoef="0"     IVar="0" Cut="     5.469153E-02" cType="1"     res="     0.000000E+00" rms="0.0"     purity="0.00000000E+00" nType="0">
        <Node pos="l" depth="2" NCoef="0"     IVar="3" Cut="     3.888163E-01" cType="1"     res="     0.000000E+00" rms="0.0"     purity="0.00000000E+00" nType="0">
            <Node pos="l" depth="3" NCoef="0"     IVar="6" Cut="     5.262577E-02" cType="1"     res="     0.000000E+00" rms="0.0"     purity="0.00000000E+00" nType="0">
                <Node pos="l" depth="4" NCoef="0"     IVar="4" Cut="     4.386031E+01" cType="1"     res="     0.000000E+00" rms="0.0"     purity="0.00000000E+00" nType="0">
                    <Node pos="l" depth="5" NCoef="0"     IVar="6" Cut="     4.452508E-02" cType="1"     res="     0.000000E+00" rms="0.0"     purity="0.00000000E+00" nType="0">
                        <Node pos="l" depth="6" NCoef="0"     IVar="5" Cut="     2.097494E+01" cType="1"     res="     0.000000E+00" rms="0.0"     purity="0.00000000E+00" nType="0">
                            <Node pos="l" depth="7" NCoef="0"     IVar="-1" Cut="     0.000000E+00" cType="1"     res="     4.341235E-01" rms="0.0e-00"     purity="0.00000000E+00" nType="-99">
                            </Node>
                            <Node pos="r" depth="7" NCoef="0"     IVar="-1" Cut="     0.000000E+00" cType="1"     res="    -5.998490E-01" rms="0.0e-00"     purity="0.00000000E+00" nType="-99">
                            </Node>
                        </Node>
                        <Node pos="r" depth="6" NCoef="0"     IVar="8" Cut="     1.962714E-01" cType="1"     res="     0.000000E+00" rms="0.0"     purity="0.00000000E+00" nType="0">
                            <Node pos="l" depth="7" NCoef="0"     IVar="-1" Cut="     0.000000E+00" cType="1"     res="    -6.348100E-02" rms="0.0e-00"     purity="0.00000000E+00" nType="-99">
                            </Node>
                            <Node pos="r" depth="7" NCoef="0"     IVar="-1" Cut="     0.000000E+00" cType="1"     res="    -5.999437E-01" rms="0.0e-00"     purity="0.00000000E+00" nType="-99">
                            </Node>
                        </Node>
                    </Node>
                    <Node pos="r" depth="5" NCoef="0"     IVar="7" Cut="     1.404125E+00" cType="1"     res="     0.000000E+00" rms="0.0"     purity="0.00000000E+00" nType="0">
                        <Node pos="l" depth="6" NCoef="0"     IVar="1" Cut="     1.060570E+01" cType="1"     res="     0.000000E+00" rms="0.0"     purity="0.00000000E+00" nType="0">
                            <Node pos="l" depth="7" NCoef="0"     IVar="-1" Cut="     0.000000E+00" cType="1"     res="     2.216495E-01" rms="0.0e-00"     purity="0.00000000E+00" nType="-99">
                            </Node>
                            <Node pos="r" depth="7" NCoef="0"     IVar="-1" Cut="     0.000000E+00" cType="1"     res="    -5.997275E-01" rms="0.0e-00"     purity="0.00000000E+00" nType="-99">
                            </Node>
                        </Node>
                        <Node pos="r" depth="6" NCoef="0"     IVar="1" Cut="     1.249707E+01" cType="1"     res="     0.000000E+00" rms="0.0"     purity="0.00000000E+00" nType="0">
                            <Node pos="l" depth="7" NCoef="0"     IVar="-1" Cut="     0.000000E+00" cType="1"     res="     5.818620E-01" rms="0.0e-00"     purity="0.00000000E+00" nType="-99">
                            </Node>
                            <Node pos="r" depth="7" NCoef="0"     IVar="-1" Cut="     0.000000E+00" cType="1"     res="     4.898993E-01" rms="0.0e-00"     purity="0.00000000E+00" nType="-99">
                            </Node>
                        </Node>
                    </Node>
                </Node>
                <Node pos="r" depth="4" NCoef="0"     IVar="4" Cut="     5.544108E+01" cType="1"     res="     0.000000E+00" rms="0.0"     purity="0.00000000E+00" nType="0">
                    <Node pos="l" depth="5" NCoef="0"     IVar="0" Cut="     4.635477E-02" cType="1"     res="     0.000000E+00" rms="0.0"     purity="0.00000000E+00" nType="0">
                        <Node pos="l" depth="6" NCoef="0"     IVar="7" Cut="     1.585328E+00" cType="1"     res="     0.000000E+00" rms="0.0"     purity="0.00000000E+00" nType="0">
                            <Node pos="l" depth="7" NCoef="0"     IVar="-1" Cut="     0.000000E+00" cType="1"     res="    -5.998740E-01" rms="0.0e-00"     purity="0.00000000E+00" nType="-99">
                            </Node>
                            <Node pos="r" depth="7" NCoef="0"     IVar="-1" Cut="     0.000000E+00" cType="1"     res="     1.673050E-01" rms="0.0e-00"     purity="0.00000000E+00" nType="-99">
                            </Node>
                        </Node>
                        <Node pos="r" depth="6" NCoef="0"     IVar="8" Cut="     1.362819E-01" cType="1"     res="     0.000000E+00" rms="0.0"     purity="0.00000000E+00" nType="0">
                            <Node pos="l" depth="7" NCoef="0"     IVar="-1" Cut="     0.000000E+00" cType="1"     res="    -1.891737E-01" rms="0.0e-00"     purity="0.00000000E+00" nType="-99">
                            </Node>
                            <Node pos="r" depth="7" NCoef="0"     IVar="-1" Cut="     0.000000E+00" cType="1"     res="    -5.588545E-01" rms="0.0e-00"     purity="0.00000000E+00" nType="-99">
                            </Node>
                        </Node>
                    </Node>
                    <Node pos="r" depth="5" NCoef="0"     IVar="4" Cut="     6.571266E+01" cType="1"     res="     0.000000E+00" rms="0.0"     purity="0.00000000E+00" nType="0">
                        <Node pos="l" depth="6" NCoef="0"     IVar="5" Cut="     2.768487E+01" cType="1"     res="     0.000000E+00" rms="0.0"     purity="0.00000000E+00" nType="0">
                            <Node pos="l" depth="7" NCoef="0"     IVar="-1" Cut="     0.000000E+00" cType="1"     res="     5.150093E-01" rms="0.0e-00"     purity="0.00000000E+00" nType="-99">
                            </Node>
                            <Node pos="r" depth="7" NCoef="0"     IVar="-1" Cut="     0.000000E+00" cType="1"     res="    -2.259307E-01" rms="0.0e-00"     purity="0.00000000E+00" nType="-99">
                            </Node>
                        </Node>
                        <Node pos="r" depth="6" NCoef="0"     IVar="0" Cut="     5.407126E-02" cType="1"     res="     0.000000E+00" rms="0.0"     purity="0.00000000E+00" nType="0">
                            <Node pos="l" depth="7" NCoef="0"     IVar="-1" Cut="     0.000000E+00" cType="1"     res="     5.164842E-01" rms="0.0e-00"     purity="0.00000000E+00" nType="-99">
                            </Node>
                            <Node pos="r" depth="7" NCoef="0"     IVar="-1" Cut="     0.000000E+00" cType="1"     res="    -5.993311E-01" rms="0.0e-00"     purity="0.00000000E+00" nType="-99">
                            </Node>
                        </Node>
                    </Node>
                </Node>
            </Node>
            <Node pos="r" depth="3" NCoef="0"     IVar="4" Cut="     5.001558E+01" cType="1"     res="     0.000000E+00" rms="0.0"     purity="0.00000000E+00" nType="0">
                <Node pos="l" depth="4" NCoef="0"     IVar="2" Cut="     3.477841E+02" cType="1"     res="     0.000000E+00" rms="0.0"     purity="0.00000000E+00" nType="0">
                    <Node pos="l" depth="5" NCoef="0"     IVar="6" Cut="     4.415286E-02" cType="1"     res="     0.000000E+00" rms="0.0"     purity="0.00000000E+00" nType="0">
                        <Node pos="l" depth="6" NCoef="0"     IVar="4" Cut="     4.438786E+01" cType="1"     res="     0.000000E+00" rms="0.0"     purity="0.00000000E+00" nType="0">
                            <Node pos="l" depth="7" NCoef="0"     IVar="-1" Cut="     0.000000E+00" cType="1"     res="    -2.784019E-02" rms="0.0e-00"     purity="0.00000000E+00" nType="-99">
                            </Node>
                            <Node pos="r" depth="7" NCoef="0"     IVar="-1" Cut="     0.000000E+00" cType="1"     res="     5.121176E-01" rms="0.0e-00"     purity="0.00000000E+00" nType="-99">
                            </Node>
                        </Node>
                        <Node pos="r" depth="6" NCoef="0"     IVar="8" Cut="     1.033405E-01" cType="1"     res="     0.000000E+00" rms="0.0"     purity="0.00000000E+00" nType="0">
                            <Node pos="l" depth="7" NCoef="0"     IVar="-1" Cut="     0.000000E+00" cType="1"     res="    -5.999065E-01" rms="0.0e-00"     purity="0.00000000E+00" nType="-99">
                            </Node>
                            <Node pos="r" depth="7" NCoef="0"     IVar="-1" Cut="     0.000000E+00" cType="1"     res="    -1.351643E-01" rms="0.0e-00"     purity="0.00000000E+00" nType="-99">
                            </Node>
                        </Node>
                    </Node>
                    <Node pos="r" depth="5" NCoef="0"     IVar="7" Cut="     2.632770E+00" cType="1"     res="     0.000000E+00" rms="0.0"     purity="0.00000000E+00" nType="0">
                        <Node pos="l" depth="6" NCoef="0"     IVar="8" Cut="     2.446398E-01" cType="1"     res="     0.000000E+00" rms="0.0"     purity="0.00000000E+00" nType="0">
                            <Node pos="l" depth="7" NCoef="0"     IVar="-1" Cut="     0.000000E+00" cType="1"     res="    -5.106560E-01" rms="0.0e-00"     purity="0.00000000E+00" nType="-99">
                            </Node>
                            <Node pos="r" depth="7" NCoef="0"     IVar="-1" Cut="     0.000000E+00" cType="1"     res="    -2.461864E-01" rms="0.0e-00"     purity="0.00000000E+00" nType="-99">
                            </Node>
                        </Node>
                        <Node pos="r" depth="6" NCoef="0"     IVar="3" Cut="     6.568874E-01" cType="1"     res="     0.000000E+00" rms="0.0"     purity="0.00000000E+00" nType="0">
                            <Node pos="l" depth="7" NCoef="0"     IVar="-1" Cut="     0.000000E+00" cType="1"     res="     3.233666E-01" rms="0.0e-00"     purity="0.00000000E+00" nType="-99">
                            </Node>
                            <Node pos="r" depth="7" NCoef="0"     IVar="-1" Cut="     0.000000E+00" cType="1"     res="    -4.423057E-01" rms="0.0e-00"     purity="0.00000000E+00" nType="-99">
                            </Node>
                        </Node>
                    </Node>
                </Node>
                <Node pos="r" depth="4" NCoef="0"     IVar="6" Cut="     5.471272E-02" cType="1"     res="     0.000000E+00" rms="0.0"     purity="0.00000000E+00" nType="0">
                    <Node pos="l" depth="5" NCoef="0"     IVar="2" Cut="     3.537049E+02" cType="1"     res="     0.000000E+00" rms="0.0"     purity="0.00000000E+00" nType="0">
                        <Node pos="l" depth="6" NCoef="0"     IVar="0" Cut="     4.938569E-02" cType="1"     res="     0.000000E+00" rms="0.0"     purity="0.00000000E+00" nType="0">
                            <Node pos="l" depth="7" NCoef="0"     IVar="-1" Cut="     0.000000E+00" cType="1"     res="     4.718859E-01" rms="0.0e-00"     purity="0.00000000E+00" nType="-99">
                            </Node>
                            <Node pos="r" depth="7" NCoef="0"     IVar="-1" Cut="     0.000000E+00" cType="1"     res="     1.346003E-01" rms="0.0e-00"     purity="0.00000000E+00" nType="-99">
                            </Node>
                        </Node>
                        <Node pos="r" depth="6" NCoef="0"     IVar="1" Cut="     3.231069E+01" cType="1"     res="     0.000000E+00" rms="0.0"     purity="0.00000000E+00" nType="0">
                            <Node pos="l" depth="7" NCoef="0"     IVar="-1" Cut="     0.000000E+00" cType="1"     res="    -5.998381E-01" rms="0.0e-00"     purity="0.00000000E+00" nType="-99">
                            </Node>
                            <Node pos="r" depth="7" NCoef="0"     IVar="-1" Cut="     0.000000E+00" cType="1"     res="     3.395318E-01" rms="0.0e-00"     purity="0.00000000E+00" nType="-99">
                            </Node>
                        </Node>
                    </Node>
                    <Node pos="r" depth="5" NCoef="0"     IVar="7" Cut="     1.868673E+00" cType="1"     res="     0.000000E+00" rms="0.0"     purity="0.00000000E+00" nType="0">
                        <Node pos="l" depth="6" NCoef="0"     IVar="-1" Cut="     0.000000E+00" cType="1"     res="    -5.999246E-01" rms="0.0e-00"     purity="0.00000000E+00" nType="-99">
                        </Node>
                        <Node pos="r" depth="6" NCoef="0"     IVar="1" Cut="     2.060771E+01" cType="1"     res="     0.000000E+00" rms="0.0"     purity="0.00000000E+00" nType="0">
                            <Node pos="l" depth="7" NCoef="0"     IVar="-1" Cut="     0.000000E+00" cType="1"     res="    -3.179142E-01" rms="0.0e-00"     purity="0.00000000E+00" nType="-99">
                            </Node>
                            <Node pos="r" depth="7" NCoef="0"     IVar="-1" Cut="     0.000000E+00" cType="1"     res="     2.635622E-01" rms="0.0e-00"     purity="0.00000000E+00" nType="-99">
                            </Node>
                        </Node>
                    </Node>
                </Node>
            </Node>
        </Node>
        <Node pos="r" depth="2" NCoef="0"     IVar="1" Cut="     1.139121E+01" cType="1"     res="     0.000000E+00" rms="0.0"     purity="0.00000000E+00" nType="0">
            <Node pos="l" depth="3" NCoef="0"     IVar="7" Cut="     1.830794E+00" cType="1"     res="     0.000000E+00" rms="0.0"     purity="0.00000000E+00" nType="0">
                <Node pos="l" depth="4" NCoef="0"     IVar="0" Cut="     5.787752E-02" cType="1"     res="     0.000000E+00" rms="0.0"     purity="0.00000000E+00" nType="0">
                    <Node pos="l" depth="5" NCoef="0"     IVar="4" Cut="     5.001558E+01" cType="1"     res="     0.000000E+00" rms="0.0"     purity="0.00000000E+00" nType="0">
                        <Node pos="l" depth="6" NCoef="0"     IVar="5" Cut="     2.011563E+01" cType="1"     res="     0.000000E+00" rms="0.0"     purity="0.00000000E+00" nType="0">
                            <Node pos="l" depth="7" NCoef="0"     IVar="-1" Cut="     0.000000E+00" cType="1"     res="     5.231725E-02" rms="0.0e-00"     purity="0.00000000E+00" nType="-99">
                            </Node>
                            <Node pos="r" depth="7" NCoef="0"     IVar="-1" Cut="     0.000000E+00" cType="1"     res="    -5.999171E-01" rms="0.0e-00"     purity="0.00000000E+00" nType="-99">
                            </Node>
                        </Node>
                        <Node pos="r" depth="6" NCoef="0"     IVar="6" Cut="     5.859436E-02" cType="1"     res="     0.000000E+00" rms="0.0"     purity="0.00000000E+00" nType="0">
                            <Node pos="l" depth="7" NCoef="0"     IVar="-1" Cut="     0.000000E+00" cType="1"     res="     4.351486E-01" rms="0.0e-00"     purity="0.00000000E+00" nType="-99">
                            </Node>
                            <Node pos="r" depth="7" NCoef="0"     IVar="-1" Cut="     0.000000E+00" cType="1"     res="    -5.997728E-01" rms="0.0e-00"     purity="0.00000000E+00" nType="-99">
                            </Node>
                        </Node>
                    </Node>
                    <Node pos="r" depth="5" NCoef="0"     IVar="4" Cut="     4.543450E+01" cType="1"     res="     0.000000E+00" rms="0.0"     purity="0.00000000E+00" nType="0">
                        <Node pos="l" depth="6" NCoef="0"     IVar="0" Cut="     8.012841E-02" cType="1"     res="     0.000000E+00" rms="0.0"     purity="0.00000000E+00" nType="0">
                            <Node pos="l" depth="7" NCoef="0"     IVar="-1" Cut="     0.000000E+00" cType="1"     res="    -5.715694E-01" rms="0.0e-00"     purity="0.00000000E+00" nType="-99">
                            </Node>
                            <Node pos="r" depth="7" NCoef="0"     IVar="-1" Cut="     0.000000E+00" cType="1"     res="     3.565606E-03" rms="0.0e-00"     purity="0.00000000E+00" nType="-99">
                            </Node>
                        </Node>
                        <Node pos="r" depth="6" NCoef="0"     IVar="6" Cut="     4.953487E-02" cType="1"     res="     0.000000E+00" rms="0.0"     purity="0.00000000E+00" nType="0">
                            <Node pos="l" depth="7" NCoef="0"     IVar="-1" Cut="     0.000000E+00" cType="1"     res="     7.167365E-02" rms="0.0e-00"     purity="0.00000000E+00" nType="-99">
                            </Node>
                            <Node pos="r" depth="7" NCoef="0"     IVar="-1" Cut="     0.000000E+00" cType="1"     res="    -4.858367E-01" rms="0.0e-00"     purity="0.00000000E+00" nType="-99">
                            </Node>
                        </Node>
                    </Node>
                </Node>
                <Node pos="r" depth="4" NCoef="0"     IVar="0" Cut="     6.288920E-02" cType="1"     res="     0.000000E+00" rms="0.0"     purity="0.00000000E+00" nType="0">
                    <Node pos="l" depth="5" NCoef="0"     IVar="4" Cut="     3.874774E+01" cType="1"     res="     0.000000E+00" rms="0.0"     purity="0.00000000E+00" nType="0">
                        <Node pos="l" depth="6" NCoef="0"     IVar="5" Cut="     1.084524E+01" cType="1"     res="     0.000000E+00" rms="0.0"     purity="0.00000000E+00" nType="0">
                            <Node pos="l" depth="7" NCoef="0"     IVar="-1" Cut="     0.000000E+00" cType="1"     res="     3.936981E-01" rms="0.0e-00"     purity="0.00000000E+00" nType="-99">
                            </Node>
                            <Node pos="r" depth="7" NCoef="0"     IVar="-1" Cut="     0.000000E+00" cType="1"     res="    -5.998073E-01" rms="0.0e-00"     purity="0.00000000E+00" nType="-99">
                            </Node>
                        </Node>
                        <Node pos="r" depth="6" NCoef="0"     IVar="8" Cut="     1.962714E-01" cType="1"     res="     0.000000E+00" rms="0.0"     purity="0.00000000E+00" nType="0">
                            <Node pos="l" depth="7" NCoef="0"     IVar="-1" Cut="     0.000000E+00" cType="1"     res="     4.941073E-01" rms="0.0e-00"     purity="0.00000000E+00" nType="-99">
                            </Node>
                            <Node pos="r" depth="7" NCoef="0"     IVar="-1" Cut="     0.000000E+00" cType="1"     res="    -1.235660E-01" rms="0.0e-00"     purity="0.00000000E+00" nType="-99">
                            </Node>
                        </Node>
                    </Node>
                    <Node pos="r" depth="5" NCoef="0"     IVar="6" Cut="     4.990749E-02" cType="1"     res="     0.000000E+00" rms="0.0"     purity="0.00000000E+00" nType="0">
                        <Node pos="l" depth="6" NCoef="0"     IVar="4" Cut="     6.043762E+01" cType="1"     res="     0.000000E+00" rms="0.0"     purity="0.00000000E+00" nType="0">
                            <Node pos="l" depth="7" NCoef="0"     IVar="-1" Cut="     0.000000E+00" cType="1"     res="    -8.723941E-02" rms="0.0e-00"     purity="0.00000000E+00" nType="-99">
                            </Node>
                            <Node pos="r" depth="7" NCoef="0"     IVar="-1" Cut="     0.000000E+00" cType="1"     res="     5.193133E-01" rms="0.0e-00"     purity="0.00000000E+00" nType="-99">
                            </Node>
                        </Node>
                        <Node pos="r" depth="6" NCoef="0"     IVar="0" Cut="     6.407576E-02" cType="1"     res="     0.000000E+00" rms="0.0"     purity="0.00000000E+00" nType="0">
                            <Node pos="l" depth="7" NCoef="0"     IVar="-1" Cut="     0.000000E+00" cType="1"     res="     2.611541E-02" rms="0.0e-00"     purity="0.00000000E+00" nType="-99">
                            </Node>
                            <Node pos="r" depth="7" NCoef="0"     IVar="-1" Cut="     0.000000E+00" cType="1"     res="    -5.999303E-01" rms="0.0e-00"     purity="0.00000000E+00" nType="-99">
                            </Node>
                        </Node>
                    </Node>
                </Node>
            </Node>
            <Node pos="r" depth="3" NCoef="0"     IVar="4" Cut="     6.676226E+01" cType="1"     res="     0.000000E+00" rms="0.0"     purity="0.00000000E+00" nType="0">
                <Node pos="l" depth="4" NCoef="0"     IVar="6" Cut="     4.349983E-02" cType="1"     res="     0.000000E+00" rms="0.0"     purity="0.00000000E+00" nType="0">
                    <Node pos="l" depth="5" NCoef="0"     IVar="4" Cut="     4.386031E+01" cType="1"     res="     0.000000E+00" rms="0.0"     purity="0.00000000E+00" nType="0">
                        <Node pos="l" depth="6" NCoef="0"     IVar="0" Cut="     8.391286E-02" cType="1"     res="     0.000000E+00" rms="0.0"     purity="0.00000000E+00" nType="0">
                            <Node pos="l" depth="7" NCoef="0"     IVar="-1" Cut="     0.000000E+00" cType="1"     res="    -4.776185E-01" rms="0.0e-00"     purity="0.00000000E+00" nType="-99">
                            </Node>
                            <Node pos="r" depth="7" NCoef="0"     IVar="-1" Cut="     0.000000E+00" cType="1"     res="    -2.384631E-01" rms="0.0e-00"     purity="0.00000000E+00" nType="-99">
                            </Node>
                        </Node>
                        <Node pos="r" depth="6" NCoef="0"     IVar="5" Cut="     2.356265E+01" cType="1"     res="     0.000000E+00" rms="0.0"     purity="0.00000000E+00" nType="0">
                            <Node pos="l" depth="7" NCoef="0"     IVar="-1" Cut="     0.000000E+00" cType="1"     res="     2.517698E-01" rms="0.0e-00"     purity="0.00000000E+00" nType="-99">
                            </Node>
                            <Node pos="r" depth="7" NCoef="0"     IVar="-1" Cut="     0.000000E+00" cType="1"     res="    -3.063154E-01" rms="0.0e-00"     purity="0.00000000E+00" nType="-99">
                            </Node>
                        </Node>
                    </Node>
                    <Node pos="r" depth="5" NCoef="0"     IVar="2" Cut="     3.365473E+02" cType="1"     res="     0.000000E+00" rms="0.0"     purity="0.00000000E+00" nType="0">
                        <Node pos="l" depth="6" NCoef="0"     IVar="4" Cut="     5.661782E+01" cType="1"     res="     0.000000E+00" rms="0.0"     purity="0.00000000E+00" nType="0">
                            <Node pos="l" depth="7" NCoef="0"     IVar="-1" Cut="     0.000000E+00" cType="1"     res="    -2.383437E-01" rms="0.0e-00"     purity="0.00000000E+00" nType="-99">
                            </Node>
                            <Node pos="r" depth="7" NCoef="0"     IVar="-1" Cut="     0.000000E+00" cType="1"     res="     4.371129E-01" rms="0.0e-00"     purity="0.00000000E+00" nType="-99">
                            </Node>
                        </Node>
                        <Node pos="r" depth="6" NCoef="0"     IVar="4" Cut="     4.438786E+01" cType="1"     res="     0.000000E+00" rms="0.0"     purity="0.00000000E+00" nType="0">
                            <Node pos="l" depth="7" NCoef="0"     IVar="-1" Cut="     0.000000E+00" cType="1"     res="    -5.588678E-01" rms="0.0e-00"     purity="0.00000000E+00" nType="-99">
                            </Node>
                            <Node pos="r" depth="7" NCoef="0"     IVar="-1" Cut="     0.000000E+00" cType="1"     res="    -4.526919E-01" rms="0.0e-00"     purity="0.00000000E+00" nType="-99">
                            </Node>
                        </Node>
                    </Node>
                </Node>
                <Node pos="r" depth="4" NCoef="0"     IVar="5" Cut="     3.505371E+01" cType="1"     res="     0.000000E+00" rms="0.0"     purity="0.00000000E+00" nType="0">
                    <Node pos="l" depth="5" NCoef="0"     IVar="2" Cut="     3.537049E+02" cType="1"     res="     0.000000E+00" rms="0.0"     purity="0.00000000E+00" nType="0">
                        <Node pos="l" depth="6" NCoef="0"     IVar="6" Cut="     5.586522E-02" cType="1"     res="     0.000000E+00" rms="0.0"     purity="0.00000000E+00" nType="0">
                            <Node pos="l" depth="7" NCoef="0"     IVar="-1" Cut="     0.000000E+00" cType="1"     res="     5.016330E-01" rms="0.0e-00"     purity="0.00000000E+00" nType="-99">
                            </Node>
                            <Node pos="r" depth="7" NCoef="0"     IVar="-1" Cut="     0.000000E+00" cType="1"     res="     2.103711E-01" rms="0.0e-00"     purity="0.00000000E+00" nType="-99">
                            </Node>
                        </Node>
                        <Node pos="r" depth="6" NCoef="0"     IVar="-1" Cut="     0.000000E+00" cType="1"     res="    -5.997214E-01" rms="0.0e-00"     purity="0.00000000E+00" nType="-99">
                        </Node>
                    </Node>
                    <Node pos="r" depth="5" NCoef="0"     IVar="6" Cut="     4.990749E-02" cType="1"     res="     0.000000E+00" rms="0.0"     purity="0.00000000E+00" nType="0">
                        <Node pos="l" depth="6" NCoef="0"     IVar="0" Cut="     6.640585E-02" cType="1"     res="     0.000000E+00" rms="0.0"     purity="0.00000000E+00" nType="0">
                            <Node pos="l" depth="7" NCoef="0"     IVar="-1" Cut="     0.000000E+00" cType="1"     res="     4.497942E-01" rms="0.0e-00"     purity="0.00000000E+00" nType="-99">
                            </Node>
                            <Node pos="r" depth="7" NCoef="0"     IVar="-1" Cut="     0.000000E+00" cType="1"     res="    -5.997112E-01" rms="0.0e-00"     purity="0.00000000E+00" nType="-99">
                            </Node>
                        </Node>
                        <Node pos="r" depth="6" NCoef="0"     IVar="4" Cut="     8.306985E+01" cType="1"     res="     0.000000E+00" rms="0.0"     purity="0.00000000E+00" nType="0">
                            <Node pos="l" depth="7" NCoef="0"     IVar="-1" Cut="     0.000000E+00" cType="1"     res="    -5.070802E-01" rms="0.0e-00"     purity="0.00000000E+00" nType="-99">
                            </Node>
                            <Node pos="r" depth="7" NCoef="0"     IVar="-1" Cut="     0.000000E+00" cType="1"     res="     2.366771E-01" rms="0.0e-00"     purity="0.00000000E+00" nType="-99">
                            </Node>
                        </Node>
                    </Node>
                </Node>
            </Node>
        </Node>
    </Node>
</BinaryTree>
<BinaryTree type="DecisionTree" boostWeight="0.0" itree="1">
    <Node pos="c" depth="1" NCoef="0"     IVar="0" Cut="     5.477185E-02" cType="1"     res="     0.000000E+00" rms="0.0"     purity="0.00000000E+00" nType="0">
        <Node pos="l" depth="2" NCoef="0"     IVar="2" Cut="     3.450990E+02" cType="1"     res="     0.000000E+00" rms="0.0"     purity="0.00000000E+00" nType="0">
            <Node pos="l" depth="3" NCoef="0"     IVar="7" Cut="     1.584869E+00" cType="1"     res="     0.000000E+00" rms="0.0"     purity="0.00000000E+00" nType="0">
                <Node pos="l" depth="4" NCoef="0"     IVar="1" Cut="     9.615121E+00" cType="1"     res="     0.000000E+00" rms="0.0"     purity="0.00000000E+00" nType="0">
                    <Node pos="l" depth="5" NCoef="0"     IVar="6" Cut="     5.082275E-02" cType="1"     res="     0.000000E+00" rms="0.0"     purity="0.00000000E+00" nType="0">
                        <Node pos="l" depth="6" NCoef="0"     IVar="8" Cut="     2.241489E-01" cType="1"     res="     0.000000E+00" rms="0.0"     purity="0.00000000E+00" nType="0">
                            <Node pos="l" depth="7" NCoef="0"     IVar="-1" Cut="     0.000000E+00" cType="1"     res="     3.735745E-01" rms="0.0e-00"     purity="0.00000000E+00" nType="-99">
                            </Node>
                            <Node pos="r" depth="7" NCoef="0"     IVar="-1" Cut="     0.000000E+00" cType="1"     res="    -6.414091E-01" rms="0.0e-00"     purity="0.00000000E+00" nType="-99">
                            </Node>
                        </Node>
                        <Node pos="r" depth="6" NCoef="0"     IVar="4" Cut="     5.536796E+01" cType="1"     res="     0.000000E+00" rms="0.0"     purity="0.00000000E+00" nType="0">
                            <Node pos="l" depth="7" NCoef="0"     IVar="-1" Cut="     0.000000E+00" cType="1"     res="    -5.129002E-01" rms="0.0e-00"     purity="0.00000000E+00" nType="-99">
                            </Node>
                            <Node pos="r" depth="7" NCoef="0"     IVar="-1" Cut="     0.000000E+00" cType="1"     res="     2.549687E-01" rms="0.0e-00"     purity="0.00000000E+00" nType="-99">
                            </Node>
                        </Node>
                    </Node>
                    <Node pos="r" depth="5" NCoef="0"     IVar="0" Cut="     4.584995E-02" cType="1"     res="     0.000000E+00" rms="0.0"     purity="0.00000000E+00" nType="0">
                        <Node pos="l" depth="6" NCoef="0"     IVar="7" Cut="     1.403524E+00" cType="1"     res="     0.000000E+00" rms="0.0"     purity="0.00000000E+00" nType="0">
                            <Node pos="l" depth="7" NCoef="0"     IVar="-1" Cut="     0.000000E+00" cType="1"     res="    -5.391411E-01" rms="0.0e-00"     purity="0.00000000E+00" nType="-99">
                            </Node>
                            <Node pos="r" depth="7" NCoef="0"     IVar="-1" Cut="     0.000000E+00" cType="1"     res="     2.575345E-01" rms="0.0e-00"     purity="0.00000000E+00" nType="-99">
                            </Node>
                        </Node>
                        <Node pos="r" depth="6" NCoef="0"     IVar="4" Cut="     4.261861E+01" cType="1"     res="     0.000000E+00" rms="0.0"     purity="0.00000000E+00" nType="0">
                            <Node pos="l" depth="7" NCoef="0"     IVar="-1" Cut="     0.000000E+00" cType="1"     res="    -5.625601E-01" rms="0.0e-00"     purity="0.00000000E+00" nType="-99">
                            </Node>
                            <Node pos="r" depth="7" NCoef="0"     IVar="-1" Cut="     0.000000E+00" cType="1"     res="    -2.070303E-01" rms="0.0e-00"     purity="0.00000000E+00" nType="-99">
                            </Node>
                        </Node>
                    </Node>
                </Node>
                <Node pos="r" depth="4" NCoef="0"     IVar="8" Cut="     2.241489E-01" cType="1"     res="     0.000000E+00" rms="0.0"     purity="0.00000000E+00" nType="0">
                    <Node pos="l" depth="5" NCoef="0"     IVar="6" Cut="     6.023334E-02" cType="1"     res="     0.000000E+00" rms="0.0"     purity="0.00000000E+00" nType="0">
                        <Node pos="l" depth="6" NCoef="0"     IVar="0" Cut="     4.703189E-02" cType="1"     res="     0.000000E+00" rms="0.0"     purity="0.00000000E+00" nType="0">
                            <Node pos="l" depth="7" NCoef="0"     IVar="-1" Cut="     0.000000E+00" cType="1"     res="     4.535728E-01" rms="0.0e-00"     purity="0.00000000E+00" nType="-99">
                            </Node>
                            <Node pos="r" depth="7" NCoef="0"     IVar="-1" Cut="     0.000000E+00" cType="1"     res="     3.547263E-01" rms="0.0e-00"     purity="0.00000000E+00" nType="-99">
                            </Node>
                        </Node>
                        <Node pos="r" depth="6" NCoef="0"     IVar="5" Cut="     3.507343E+01" cType="1"     res="     0.000000E+00" rms="0.0"     purity="0.00000000E+00" nType="0">
                            <Node pos="l" depth="7" NCoef="0"     IVar="-1" Cut="     0.000000E+00" cType="1"     res="    -3.565162E-01" rms="0.0e-00"     purity="0.00000000E+00" nType="-99">
                            </Node>
                            <Node pos="r" depth="7" NCoef="0"     IVar="-1" Cut="     0.000000E+00" cType="1"     res="     2.933742E-01" rms="0.0e-00"     purity="0.00000000E+00" nType="-99">
                            </Node>
                        </Node>
                    </Node>
                    <Node pos="r" depth="5" NCoef="0"     IVar="2" Cut="     3.363504E+02" cType="1"     res="     0.000000E+00" rms="0.0"     purity="0.00000000E+00" nType="0">
                        <Node pos="l" depth="6" NCoef="0"     IVar="6" Cut="     4.994937E-02" cType="1"     res="     0.000000E+00" rms="0.0"     purity="0.00000000E+00" nType="0">
                            <Node pos="l" depth="7" NCoef="0"     IVar="-1" Cut="     0.000000E+00" cType="1"     res="     3.457057E-01" rms="0.0e-00"     purity="0.00000000E+00" nType="-99">
                            </Node>
                            <Node pos="r" depth="7" NCoef="0"     IVar="-1" Cut="     0.000000E+00" cType="1"     res="    -5.550023E-01" rms="0.0e-00"     purity="0.00000000E+00" nType="-99">
                            </Node>
                        </Node>
                        <Node pos="r" depth="6" NCoef="0"     IVar="2" Cut="     3.444054E+02" cType="1"     res="     0.000000E+00" rms="0.0"     purity="0.00000000E+00" nType="0">
                            <Node pos="l" depth="7" NCoef="0"     IVar="-1" Cut="     0.000000E+00" cType="1"     res="    -6.217161E-01" rms="0.0e-00"     purity="0.00000000E+00" nType="-99">
                            </Node>
                            <Node pos="r" depth="7" NCoef="0"     IVar="-1" Cut="     0.000000E+00" cType="1"     res="    -4.597934E-03" rms="0.0e-00"     purity="0.00000000E+00" nType="-99">
                            </Node>
                        </Node>
                    </Node>
                </Node>
            </Node>
            <Node pos="r" depth="3" NCoef="0"     IVar="4" Cut="     5.715290E+01" cType="1"     res="     0.000000E+00" rms="0.0"     purity="0.00000000E+00" nType="0">
                <Node pos="l" depth="4" NCoef="0"     IVar="6" Cut="     4.587591E-02" cType="1"     res="     0.000000E+00" rms="0.0"     purity="0.00000000E+00" nType="0">
                    <Node pos="l" depth="5" NCoef="0"     IVar="2" Cut="     3.517130E+02" cType="1"     res="     0.000000E+00" rms="0.0"     purity="0.00000000E+00" nType="0">
                        <Node pos="l" depth="6" NCoef="0"     IVar="7" Cut="     1.658302E+00" cType="1"     res="     0.000000E+00" rms="0.0"     purity="0.00000000E+00" nType="0">
                            <Node pos="l" depth="7" NCoef="0"     IVar="-1" Cut="     0.000000E+00" cType="1"     res="    -6.211984E-01" rms="0.0e-00"     purity="0.00000000E+00" nType="-99">
                            </Node>
                            <Node pos="r" depth="7" NCoef="0"     IVar="-1" Cut="     0.000000E+00" cType="1"     res="     2.500000E-01" rms="0.0e-00"     purity="0.00000000E+00" nType="-99">
                            </Node>
                        </Node>
                        <Node pos="r" depth="6" NCoef="0"     IVar="7" Cut="     1.761411E+00" cType="1"     res="     0.000000E+00" rms="0.0"     purity="0.00000000E+00" nType="0">
                            <Node pos="l" depth="7" NCoef="0"     IVar="-1" Cut="     0.000000E+00" cType="1"     res="     1.080517E-01" rms="0.0e-00"     purity="0.00000000E+00" nType="-99">
                            </Node>
                            <Node pos="r" depth="7" NCoef="0"     IVar="-1" Cut="     0.000000E+00" cType="1"     res="    -3.221175E-01" rms="0.0e-00"     purity="0.00000000E+00" nType="-99">
                            </Node>
                        </Node>
                    </Node>
                    <Node pos="r" depth="5" NCoef="0"     IVar="1" Cut="     2.567159E+01" cType="1"     res="     0.000000E+00" rms="0.0"     purity="0.00000000E+00" nType="0">
                        <Node pos="l" depth="6" NCoef="0"     IVar="4" Cut="     3.799959E+01" cType="1"     res="     0.000000E+00" rms="0.0"     purity="0.00000000E+00" nType="0">
                            <Node pos="l" depth="7" NCoef="0"     IVar="-1" Cut="     0.000000E+00" cType="1"     res="    -5.136684E-01" rms="0.0e-00"     purity="0.00000000E+00" nType="-99">
                            </Node>
                            <Node pos="r" depth="7" NCoef="0"     IVar="-1" Cut="     0.000000E+00" cType="1"     res="    -2.663206E-01" rms="0.0e-00"     purity="0.00000000E+00" nType="-99">
                            </Node>
                        </Node>
                        <Node pos="r" depth="6" NCoef="0"     IVar="0" Cut="     5.183201E-02" cType="1"     res="     0.000000E+00" rms="0.0"     purity="0.00000000E+00" nType="0">
                            <Node pos="l" depth="7" NCoef="0"     IVar="-1" Cut="     0.000000E+00" cType="1"     res="     3.699396E-02" rms="0.0e-00"     purity="0.00000000E+00" nType="-99">
                            </Node>
                            <Node pos="r" depth="7" NCoef="0"     IVar="-1" Cut="     0.000000E+00" cType="1"     res="    -5.174281E-01" rms="0.0e-00"     purity="0.00000000E+00" nType="-99">
                            </Node>
                        </Node>
                    </Node>
                </Node>
                <Node pos="r" depth="4" NCoef="0"     IVar="6" Cut="     5.788770E-02" cType="1"     res="     0.000000E+00" rms="0.0"     purity="0.00000000E+00" nType="0">
                    <Node pos="l" depth="5" NCoef="0"     IVar="8" Cut="     9.708723E-02" cType="1"     res="     0.000000E+00" rms="0.0"     purity="0.00000000E+00" nType="0">
                        <Node pos="l" depth="6" NCoef="0"     IVar="4" Cut="     7.890368E+01" cType="1"     res="     0.000000E+00" rms="0.0"     purity="0.00000000E+00" nType="0">
                            <Node pos="l" depth="7" NCoef="0"     IVar="-1" Cut="     0.000000E+00" cType="1"     res="    -6.385874E-01" rms="0.0e-00"     purity="0.00000000E+00" nType="-99">
                            </Node>
                            <Node pos="r" depth="7" NCoef="0"     IVar="-1" Cut="     0.000000E+00" cType="1"     res="     4.058214E-01" rms="0.0e-00"     purity="0.00000000E+00" nType="-99">
                            </Node>
                        </Node>
                        <Node pos="r" depth="6" NCoef="0"     IVar="8" Cut="     1.795304E-01" cType="1"     res="     0.000000E+00" rms="0.0"     purity="0.00000000E+00" nType="0">
                            <Node pos="l" depth="7" NCoef="0"     IVar="-1" Cut="     0.000000E+00" cType="1"     res="     3.894304E-01" rms="0.0e-00"     purity="0.00000000E+00" nType="-99">
                            </Node>
                            <Node pos="r" depth="7" NCoef="0"     IVar="-1" Cut="     0.000000E+00" cType="1"     res="    -6.156439E-01" rms="0.0e-00"     purity="0.00000000E+00" nType="-99">
                            </Node>
                        </Node>
                    </Node>
                    <Node pos="r" depth="5" NCoef="0"     IVar="8" Cut="     1.321515E-01" cType="1"     res="     0.000000E+00" rms="0.0"     purity="0.00000000E+00" nType="0">
                        <Node pos="l" depth="6" NCoef="0"     IVar="4" Cut="     6.563067E+01" cType="1"     res="     0.000000E+00" rms="0.0"     purity="0.00000000E+00" nType="0">
                            <Node pos="l" depth="7" NCoef="0"     IVar="-1" Cut="     0.000000E+00" cType="1"     res="    -5.364554E-01" rms="0.0e-00"     purity="0.00000000E+00" nType="-99">
                            </Node>
                            <Node pos="r" depth="7" NCoef="0"     IVar="-1" Cut="     0.000000E+00" cType="1"     res="    -6.408085E-01" rms="0.0e-00"     purity="0.00000000E+00" nType="-99">
                            </Node>
                        </Node>
                        <Node pos="r" depth="6" NCoef="0"     IVar="1" Cut="     2.062411E+01" cType="1"     res="     0.000000E+00" rms="0.0"     purity="0.00000000E+00" nType="0">
                            <Node pos="l" depth="7" NCoef="0"     IVar="-1" Cut="     0.000000E+00" cType="1"     res="    -5.600817E-01" rms="0.0e-00"     purity="0.00000000E+00" nType="-99">
                            </Node>
                            <Node pos="r" depth="7" NCoef="0"     IVar="-1" Cut="     0.000000E+00" cType="1"     res="     2.921162E-01" rms="0.0e-00"     purity="0.00000000E+00" nType="-99">
                            </Node>
                        </Node>
                    </Node>
                </Node>
            </Node>
        </Node>
        <Node pos="r" depth="2" NCoef="0"     IVar="1" Cut="     1.227465E+01" cType="1"     res="     0.000000E+00" rms="0.0"     purity="0.00000000E+00" nType="0">
            <Node pos="l" depth="3" NCoef="0"     IVar="7" Cut="     1.918192E+00" cType="1"     res="     0.000000E+00" rms="0.0"     purity="0.00000000E+00" nType="0">
                <Node pos="l" depth="4" NCoef="0"     IVar="4" Cut="     5.598206E+01" cType="1"     res="     0.000000E+00" rms="0.0"     purity="0.00000000E+00" nType="0">
                    <Node pos="l" depth="5" NCoef="0"     IVar="6" Cut="     4.956378E-02" cType="1"     res="     0.000000E+00" rms="0.0"     purity="0.00000000E+00" nType="0">
                        <Node pos="l" depth="6" NCoef="0"     IVar="4" Cut="     4.380920E+01" cType="1"     res="     0.000000E+00" rms="0.0"     purity="0.00000000E+00" nType="0">
                            <Node pos="l" depth="7" NCoef="0"     IVar="-1" Cut="     0.000000E+00" cType="1"     res="    -3.633195E-01" rms="0.0e-00"     purity="0.00000000E+00" nType="-99">
                            </Node>
                            <Node pos="r" depth="7" NCoef="0"     IVar="-1" Cut="     0.000000E+00" cType="1"     res="    -1.977092E-02" rms="0.0e-00"     purity="0.00000000E+00" nType="-99">
                            </Node>
                        </Node>
                        <Node pos="r" depth="6" NCoef="0"     IVar="5" Cut="     1.642172E+01" cType="1"     res="     0.000000E+00" rms="0.0"     purity="0.00000000E+00" nType="0">
                            <Node pos="l" depth="7" NCoef="0"     IVar="-1" Cut="     0.000000E+00" cType="1"     res="     7.609180E-02" rms="0.0e-00"     purity="0.00000000E+00" nType="-99">
                            </Node>
                            <Node pos="r" depth="7" NCoef="0"     IVar="-1" Cut="     0.000000E+00" cType="1"     res="    -4.738339E-01" rms="0.0e-00"     purity="0.00000000E+00" nType="-99">
                            </Node>
                        </Node>
                    </Node>
                    <Node pos="r" depth="5" NCoef="0"     IVar="6" Cut="     4.994937E-02" cType="1"     res="     0.000000E+00" rms="0.0"     purity="0.00000000E+00" nType="0">
                        <Node pos="l" depth="6" NCoef="0"     IVar="0" Cut="     6.709444E-02" cType="1"     res="     0.000000E+00" rms="0.0"     purity="0.00000000E+00" nType="0">
                            <Node pos="l" depth="7" NCoef="0"     IVar="-1" Cut="     0.000000E+00" cType="1"     res="     4.100042E-01" rms="0.0e-00"     purity="0.00000000E+00" nType="-99">
                            </Node>
                            <Node pos="r" depth="7" NCoef="0"     IVar="-1" Cut="     0.000000E+00" cType="1"     res="    -5.767446E-01" rms="0.0e-00"     purity="0.00000000E+00" nType="-99">
                            </Node>
                        </Node>
                        <Node pos="r" depth="6" NCoef="0"     IVar="5" Cut="     2.840647E+01" cType="1"     res="     0.000000E+00" rms="0.0"     purity="0.00000000E+00" nType="0">
                            <Node pos="l" depth="7" NCoef="0"     IVar="-1" Cut="     0.000000E+00" cType="1"     res="     4.585846E-01" rms="0.0e-00"     purity="0.00000000E+00" nType="-99">
                            </Node>
                            <Node pos="r" depth="7" NCoef="0"     IVar="-1" Cut="     0.000000E+00" cType="1"     res="    -2.599480E-01" rms="0.0e-00"     purity="0.00000000E+00" nType="-99">
                            </Node>
                        </Node>
                    </Node>
                </Node>
                <Node pos="r" depth="4" NCoef="0"     IVar="0" Cut="     6.358349E-02" cType="1"     res="     0.000000E+00" rms="0.0"     purity="0.00000000E+00" nType="0">
                    <Node pos="l" depth="5" NCoef="0"     IVar="8" Cut="     1.964181E-01" cType="1"     res="     0.000000E+00" rms="0.0"     purity="0.00000000E+00" nType="0">
                        <Node pos="l" depth="6" NCoef="0"     IVar="1" Cut="     1.199811E+01" cType="1"     res="     0.000000E+00" rms="0.0"     purity="0.00000000E+00" nType="0">
                            <Node pos="l" depth="7" NCoef="0"     IVar="-1" Cut="     0.000000E+00" cType="1"     res="     3.680260E-01" rms="0.0e-00"     purity="0.00000000E+00" nType="-99">
                            </Node>
                            <Node pos="r" depth="7" NCoef="0"     IVar="-1" Cut="     0.000000E+00" cType="1"     res="    -4.997858E-01" rms="0.0e-00"     purity="0.00000000E+00" nType="-99">
                            </Node>
                        </Node>
                        <Node pos="r" depth="6" NCoef="0"     IVar="0" Cut="     6.234366E-02" cType="1"     res="     0.000000E+00" rms="0.0"     purity="0.00000000E+00" nType="0">
                            <Node pos="l" depth="7" NCoef="0"     IVar="-1" Cut="     0.000000E+00" cType="1"     res="    -5.299058E-01" rms="0.0e-00"     purity="0.00000000E+00" nType="-99">
                            </Node>
                            <Node pos="r" depth="7" NCoef="0"     IVar="-1" Cut="     0.000000E+00" cType="1"     res="     2.875538E-01" rms="0.0e-00"     purity="0.00000000E+00" nType="-99">
                            </Node>
                        </Node>
                    </Node>
                    <Node pos="r" depth="5" NCoef="0"     IVar="7" Cut="     2.005248E+00" cType="1"     res="     0.000000E+00" rms="0.0"     purity="0.00000000E+00" nType="0">
                        <Node pos="l" depth="6" NCoef="0"     IVar="3" Cut="     3.239964E-02" cType="1"     res="     0.000000E+00" rms="0.0"     purity="0.00000000E+00" nType="0">
                            <Node pos="l" depth="7" NCoef="0"     IVar="-1" Cut="     0.000000E+00" cType="1"     res="     2.290214E-01" rms="0.0e-00"     purity="0.00000000E+00" nType="-99">
                            </Node>
                            <Node pos="r" depth="7" NCoef="0"     IVar="-1" Cut="     0.000000E+00" cType="1"     res="    -5.245932E-01" rms="0.0e-00"     purity="0.00000000E+00" nType="-99">
                            </Node>
                        </Node>
                        <Node pos="r" depth="6" NCoef="0"     IVar="6" Cut="     4.994937E-02" cType="1"     res="     0.000000E+00" rms="0.0"     purity="0.00000000E+00" nType="0">
                            <Node pos="l" depth="7" NCoef="0"     IVar="-1" Cut="     0.000000E+00" cType="1"     res="     1.823203E-01" rms="0.0e-00"     purity="0.00000000E+00" nType="-99">
                            </Node>
                            <Node pos="r" depth="7" NCoef="0"     IVar="-1" Cut="     0.000000E+00" cType="1"     res="    -2.992510E-01" rms="0.0e-00"     purity="0.00000000E+00" nType="-99">
                            </Node>
                        </Node>
                    </Node>
                </Node>
            </Node>
            <Node pos="r" depth="3" NCoef="0"     IVar="4" Cut="     6.664457E+01" cType="1"     res="     0.000000E+00" rms="0.0"     purity="0.00000000E+00" nType="0">
                <Node pos="l" depth="4" NCoef="0"     IVar="7" Cut="     1.856273E+00" cType="1"     res="     0.000000E+00" rms="0.0"     purity="0.00000000E+00" nType="0">
                    <Node pos="l" depth="5" NCoef="0"     IVar="0" Cut="     8.408479E-02" cType="1"     res="     0.000000E+00" rms="0.0"     purity="0.00000000E+00" nType="0">
                        <Node pos="l" depth="6" NCoef="0"     IVar="0" Cut="     6.110232E-02" cType="1"     res="     0.000000E+00" rms="0.0"     purity="0.00000000E+00" nType="0">
                            <Node pos="l" depth="7" NCoef="0"     IVar="-1" Cut="     0.000000E+00" cType="1"     res="    -3.285757E-01" rms="0.0e-00"     purity="0.00000000E+00" nType="-99">
                            </Node>
                            <Node pos="r" depth="7" NCoef="0"     IVar="-1" Cut="     0.000000E+00" cType="1"     res="    -4.364686E-01" rms="0.0e-00"     purity="0.00000000E+00" nType="-99">
                            </Node>
                        </Node>
                        <Node pos="r" depth="6" NCoef="0"     IVar="8" Cut="     1.081963E-01" cType="1"     res="     0.000000E+00" rms="0.0"     purity="0.00000000E+00" nType="0">
                            <Node pos="l" depth="7" NCoef="0"     IVar="-1" Cut="     0.000000E+00" cType="1"     res="     2.448720E-01" rms="0.0e-00"     purity="0.00000000E+00" nType="-99">
                            </Node>
                            <Node pos="r" depth="7" NCoef="0"     IVar="-1" Cut="     0.000000E+00" cType="1"     res="    -5.130758E-01" rms="0.0e-00"     purity="0.00000000E+00" nType="-99">
                            </Node>
                        </Node>
                    </Node>
                    <Node pos="r" depth="5" NCoef="0"     IVar="4" Cut="     4.656991E+01" cType="1"     res="     0.000000E+00" rms="0.0"     purity="0.00000000E+00" nType="0">
                        <Node pos="l" depth="6" NCoef="0"     IVar="5" Cut="     1.976127E+01" cType="1"     res="     0.000000E+00" rms="0.0"     purity="0.00000000E+00" nType="0">
                            <Node pos="l" depth="7" NCoef="0"     IVar="-1" Cut="     0.000000E+00" cType="1"     res="    -3.074086E-01" rms="0.0e-00"     purity="0.00000000E+00" nType="-99">
                            </Node>
                            <Node pos="r" depth="7" NCoef="0"     IVar="-1" Cut="     0.000000E+00" cType="1"     res="    -4.282661E-01" rms="0.0e-00"     purity="0.00000000E+00" nType="-99">
                            </Node>
                        </Node>
                        <Node pos="r" depth="6" NCoef="0"     IVar="5" Cut="     2.358310E+01" cType="1"     res="     0.000000E+00" rms="0.0"     purity="0.00000000E+00" nType="0">
                            <Node pos="l" depth="7" NCoef="0"     IVar="-1" Cut="     0.000000E+00" cType="1"     res="     1.096608E-01" rms="0.0e-00"     purity="0.00000000E+00" nType="-99">
                            </Node>
                            <Node pos="r" depth="7" NCoef="0"     IVar="-1" Cut="     0.000000E+00" cType="1"     res="    -2.755610E-01" rms="0.0e-00"     purity="0.00000000E+00" nType="-99">
                            </Node>
                        </Node>
                    </Node>
                </Node>
                <Node pos="r" depth="4" NCoef="0"     IVar="5" Cut="     3.507343E+01" cType="1"     res="     0.000000E+00" rms="0.0"     purity="0.00000000E+00" nType="0">
                    <Node pos="l" depth="5" NCoef="0"     IVar="3" Cut="     3.899051E-01" cType="1"     res="     0.000000E+00" rms="0.0"     purity="0.00000000E+00" nType="0">
                        <Node pos="l" depth="6" NCoef="0"     IVar="7" Cut="     1.566726E+00" cType="1"     res="     0.000000E+00" rms="0.0"     purity="0.00000000E+00" nType="0">
                            <Node pos="l" depth="7" NCoef="0"     IVar="-1" Cut="     0.000000E+00" cType="1"     res="    -6.883102E-01" rms="0.0e-00"     purity="0.00000000E+00" nType="-99">
                            </Node>
                            <Node pos="r" depth="7" NCoef="0"     IVar="-1" Cut="     0.000000E+00" cType="1"     res="     3.548417E-01" rms="0.0e-00"     purity="0.00000000E+00" nType="-99">
                            </Node>
                        </Node>
                        <Node pos="r" depth="6" NCoef="0"     IVar="2" Cut="     3.483893E+02" cType="1"     res="     0.000000E+00" rms="0.0"     purity="0.00000000E+00" nType="0">
                            <Node pos="l" depth="7" NCoef="0"     IVar="-1" Cut="     0.000000E+00" cType="1"     res="     2.324293E-01" rms="0.0e-00"     purity="0.00000000E+00" nType="-99">
                            </Node>
                            <Node pos="r" depth="7" NCoef="0"     IVar="-1" Cut="     0.000000E+00" cType="1"     res="    -5.708584E-01" rms="0.0e-00"     purity="0.00000000E+00" nType="-99">
                            </Node>
                        </Node>
                    </Node>
                    <Node pos="r" depth="5" NCoef="0"     IVar="6" Cut="     4.994937E-02" cType="1"     res="     0.000000E+00" rms="0.0"     purity="0.00000000E+00" nType="0">
                        <Node pos="l" depth="6" NCoef="0"     IVar="2" Cut="     3.455420E+02" cType="1"     res="     0.000000E+00" rms="0.0"     purity="0.00000000E+00" nType="0">
                            <Node pos="l" depth="7" NCoef="0"     IVar="-1" Cut="     0.000000E+00" cType="1"     res="     3.548009E-01" rms="0.0e-00"     purity="0.00000000E+00" nType="-99">
                            </Node>
                            <Node pos="r" depth="7" NCoef="0"     IVar="-1" Cut="     0.000000E+00" cType="1"     res="    -5.968528E-01" rms="0.0e-00"     purity="0.00000000E+00" nType="-99">
                            </Node>
                        </Node>
                        <Node pos="r" depth="6" NCoef="0"     IVar="4" Cut="     8.308179E+01" cType="1"     res="     0.000000E+00" rms="0.0"     purity="0.00000000E+00" nType="0">
                            <Node pos="l" depth="7" NCoef="0"     IVar="-1" Cut="     0.000000E+00" cType="1"     res="    -4.014181E-01" rms="0.0e-00"     purity="0.00000000E+00" nType="-99">
                            </Node>
                            <Node pos="r" depth="7" NCoef="0"     IVar="-1" Cut="     0.000000E+00" cType="1"     res="     1.175588E-01" rms="0.0e-00"     purity="0.00000000E+00" nType="-99">
                            </Node>
                        </Node>
                    </Node>
                </Node>
            </Node>
        </Node>
    </Node>
</BinaryTree>
<BinaryTree type="DecisionTree" boostWeight="0.0" itree="2">
    <Node pos="c" depth="1" NCoef="0"     IVar="0" Cut="     5.498943E-02" cType="1"     res="     0.000000E+00" rms="0.0"     purity="0.00000000E+00" nType="0">
        <Node pos="l" depth="2" NCoef="0"     IVar="1" Cut="     1.333449E+01" cType="1"     res="     0.000000E+00" rms="0.0"     purity="0.00000000E+00" nType="0">
            <Node pos="l" depth="3" NCoef="0"     IVar="7" Cut="     1.600292E+00" cType="1"     res="     0.000000E+00" rms="0.0"     purity="0.00000000E+00" nType="0">
                <Node pos="l" depth="4" NCoef="0"     IVar="1" Cut="     9.701197E+00" cType="1"     res="     0.000000E+00" rms="0.0"     purity="0.00000000E+00" nType="0">
                    <Node pos="l" depth="5" NCoef="0"     IVar="8" Cut="     1.142696E-01" cType="1"     res="     0.000000E+00" rms="0.0"     purity="0.00000000E+00" nType="0">
                        <Node pos="l" depth="6" NCoef="0"     IVar="6" Cut="     5.094362E-02" cType="1"     res="     0.000000E+00" rms="0.0"     purity="0.00000000E+00" nType="0">
                            <Node pos="l" depth="7" NCoef="0"     IVar="-1" Cut="     0.000000E+00" cType="1"     res="    -7.729545E-01" rms="0.0e-00"     purity="0.00000000E+00" nType="-99">
                            </Node>
                            <Node pos="r" depth="7" NCoef="0"     IVar="-1" Cut="     0.000000E+00" cType="1"     res="    -5.142477E-01" rms="0.0e-00"     purity="0.00000000E+00" nType="-99">
                            </Node>
                        </Node>
                        <Node pos="r" depth="6" NCoef="0"     IVar="6" Cut="     6.028632E-02" cType="1"     res="     0.000000E+00" rms="0.0"     purity="0.00000000E+00" nType="0">
                            <Node pos="l" depth="7" NCoef="0"     IVar="-1" Cut="     0.000000E+00" cType="1"     res="     2.679970E-01" rms="0.0e-00"     purity="0.00000000E+00" nType="-99">
                            </Node>
                            <Node pos="r" depth="7" NCoef="0"     IVar="-1" Cut="     0.000000E+00" cType="1"     res="    -4.702015E-01" rms="0.0e-00"     purity="0.00000000E+00" nType="-99">
                            </Node>
                        </Node>
                    </Node>
                    <Node pos="r" depth="5" NCoef="0"     IVar="4" Cut="     4.869511E+01" cType="1"     res="     0.000000E+00" rms="0.0"     purity="0.00000000E+00" nType="0">
                        <Node pos="l" depth="6" NCoef="0"     IVar="0" Cut="     3.865782E-02" cType="1"     res="     0.000000E+00" rms="0.0"     purity="0.00000000E+00" nType="0">
                            <Node pos="l" depth="7" NCoef="0"     IVar="-1" Cut="     0.000000E+00" cType="1"     res="     2.761449E-01" rms="0.0e-00"     purity="0.00000000E+00" nType="-99">
                            </Node>
                            <Node pos="r" depth="7" NCoef="0"     IVar="-1" Cut="     0.000000E+00" cType="1"     res="    -5.105588E-01" rms="0.0e-00"     purity="0.00000000E+00" nType="-99">
                            </Node>
                        </Node>
                        <Node pos="r" depth="6" NCoef="0"     IVar="5" Cut="     2.715240E+01" cType="1"     res="     0.000000E+00" rms="0.0"     purity="0.00000000E+00" nType="0">
                            <Node pos="l" depth="7" NCoef="0"     IVar="-1" Cut="     0.000000E+00" cType="1"     res="     3.310275E-01" rms="0.0e-00"     purity="0.00000000E+00" nType="-99">
                            </Node>
                            <Node pos="r" depth="7" NCoef="0"     IVar="-1" Cut="     0.000000E+00" cType="1"     res="    -1.510027E-01" rms="0.0e-00"     purity="0.00000000E+00" nType="-99">
                            </Node>
                        </Node>
                    </Node>
                </Node>
                <Node pos="r" depth="4" NCoef="0"     IVar="8" Cut="     2.474045E-01" cType="1"     res="     0.000000E+00" rms="0.0"     purity="0.00000000E+00" nType="0">
                    <Node pos="l" depth="5" NCoef="0"     IVar="6" Cut="     5.178256E-02" cType="1"     res="     0.000000E+00" rms="0.0"     purity="0.00000000E+00" nType="0">
                        <Node pos="l" depth="6" NCoef="0"     IVar="4" Cut="     3.936318E+01" cType="1"     res="     0.000000E+00" rms="0.0"     purity="0.00000000E+00" nType="0">
                            <Node pos="l" depth="7" NCoef="0"     IVar="-1" Cut="     0.000000E+00" cType="1"     res="     2.602872E-01" rms="0.0e-00"     purity="0.00000000E+00" nType="-99">
                            </Node>
                            <Node pos="r" depth="7" NCoef="0"     IVar="-1" Cut="     0.000000E+00" cType="1"     res="     3.893908E-01" rms="0.0e-00"     purity="0.00000000E+00" nType="-99">
                            </Node>
                        </Node>
                        <Node pos="r" depth="6" NCoef="0"     IVar="4" Cut="     5.577734E+01" cType="1"     res="     0.000000E+00" rms="0.0"     purity="0.00000000E+00" nType="0">
                            <Node pos="l" depth="7" NCoef="0"     IVar="-1" Cut="     0.000000E+00" cType="1"     res="    -9.182976E-02" rms="0.0e-00"     purity="0.00000000E+00" nType="-99">
                            </Node>
                            <Node pos="r" depth="7" NCoef="0"     IVar="-1" Cut="     0.000000E+00" cType="1"     res="     3.483160E-01" rms="0.0e-00"     purity="0.00000000E+00" nType="-99">
                            </Node>
                        </Node>
                    </Node>
                    <Node pos="r" depth="5" NCoef="0"     IVar="6" Cut="     3.432477E-02" cType="1"     res="     0.000000E+00" rms="0.0"     purity="0.00000000E+00" nType="0">
                        <Node pos="l" depth="6" NCoef="0"     IVar="3" Cut="     8.820316E-02" cType="1"     res="     0.000000E+00" rms="0.0"     purity="0.00000000E+00" nType="0">
                            <Node pos="l" depth="7" NCoef="0"     IVar="-1" Cut="     0.000000E+00" cType="1"     res="     3.908222E-01" rms="0.0e-00"     purity="0.00000000E+00" nType="-99">
                            </Node>
                            <Node pos="r" depth="7" NCoef="0"     IVar="-1" Cut="     0.000000E+00" cType="1"     res="    -6.762989E-01" rms="0.0e-00"     purity="0.00000000E+00" nType="-99">
                            </Node>
                        </Node>
                        <Node pos="r" depth="6" NCoef="0"     IVar="4" Cut="     5.749830E+01" cType="1"     res="     0.000000E+00" rms="0.0"     purity="0.00000000E+00" nType="0">
                            <Node pos="l" depth="7" NCoef="0"     IVar="-1" Cut="     0.000000E+00" cType="1"     res="    -5.695053E-01" rms="0.0e-00"     purity="0.00000000E+00" nType="-99">
                            </Node>
                            <Node pos="r" depth="7" NCoef="0"     IVar="-1" Cut="     0.000000E+00" cType="1"     res="     3.000547E-01" rms="0.0e-00"     purity="0.00000000E+00" nType="-99">
                            </Node>
                        </Node>
                    </Node>
                </Node>
            </Node>
            <Node pos="r" depth="3" NCoef="0"     IVar="4" Cut="     5.209976E+01" cType="1"     res="     0.000000E+00" rms="0.0"     purity="0.00000000E+00" nType="0">
                <Node pos="l" depth="4" NCoef="0"     IVar="6" Cut="     4.381355E-02" cType="1"     res="     0.000000E+00" rms="0.0"     purity="0.00000000E+00" nType="0">
                    <Node pos="l" depth="5" NCoef="0"     IVar="4" Cut="     3.936318E+01" cType="1"     res="     0.000000E+00" rms="0.0"     purity="0.00000000E+00" nType="0">
                        <Node pos="l" depth="6" NCoef="0"     IVar="0" Cut="     4.921537E-02" cType="1"     res="     0.000000E+00" rms="0.0"     purity="0.00000000E+00" nType="0">
                            <Node pos="l" depth="7" NCoef="0"     IVar="-1" Cut="     0.000000E+00" cType="1"     res="     9.044908E-02" rms="0.0e-00"     purity="0.00000000E+00" nType="-99">
                            </Node>
                            <Node pos="r" depth="7" NCoef="0"     IVar="-1" Cut="     0.000000E+00" cType="1"     res="    -3.650297E-01" rms="0.0e-00"     purity="0.00000000E+00" nType="-99">
                            </Node>
                        </Node>
                        <Node pos="r" depth="6" NCoef="0"     IVar="3" Cut="     5.032836E-01" cType="1"     res="     0.000000E+00" rms="0.0"     purity="0.00000000E+00" nType="0">
                            <Node pos="l" depth="7" NCoef="0"     IVar="-1" Cut="     0.000000E+00" cType="1"     res="     3.091521E-01" rms="0.0e-00"     purity="0.00000000E+00" nType="-99">
                            </Node>
                            <Node pos="r" depth="7" NCoef="0"     IVar="-1" Cut="     0.000000E+00" cType="1"     res="    -2.715732E-01" rms="0.0e-00"     purity="0.00000000E+00" nType="-99">
                            </Node>
                        </Node>
                    </Node>
                    <Node pos="r" depth="5" NCoef="0"     IVar="5" Cut="     2.037967E+01" cType="1"     res="     0.000000E+00" rms="0.0"     purity="0.00000000E+00" nType="0">
                        <Node pos="l" depth="6" NCoef="0"     IVar="4" Cut="     3.999158E+01" cType="1"     res="     0.000000E+00" rms="0.0"     purity="0.00000000E+00" nType="0">
                            <Node pos="l" depth="7" NCoef="0"     IVar="-1" Cut="     0.000000E+00" cType="1"     res="    -2.914110E-01" rms="0.0e-00"     purity="0.00000000E+00" nType="-99">
                            </Node>
                            <Node pos="r" depth="7" NCoef="0"     IVar="-1" Cut="     0.000000E+00" cType="1"     res="     1.694660E-01" rms="0.0e-00"     purity="0.00000000E+00" nType="-99">
                            </Node>
                        </Node>
                        <Node pos="r" depth="6" NCoef="0"     IVar="6" Cut="     5.544135E-02" cType="1"     res="     0.000000E+00" rms="0.0"     purity="0.00000000E+00" nType="0">
                            <Node pos="l" depth="7" NCoef="0"     IVar="-1" Cut="     0.000000E+00" cType="1"     res="    -5.018612E-01" rms="0.0e-00"     purity="0.00000000E+00" nType="-99">
                            </Node>
                            <Node pos="r" depth="7" NCoef="0"     IVar="-1" Cut="     0.000000E+00" cType="1"     res="    -2.911880E-01" rms="0.0e-00"     purity="0.00000000E+00" nType="-99">
                            </Node>
                        </Node>
                    </Node>
                </Node>
                <Node pos="r" depth="4" NCoef="0"     IVar="6" Cut="     5.486455E-02" cType="1"     res="     0.000000E+00" rms="0.0"     purity="0.00000000E+00" nType="0">
                    <Node pos="l" depth="5" NCoef="0"     IVar="7" Cut="     1.474810E+00" cType="1"     res="     0.000000E+00" rms="0.0"     purity="0.00000000E+00" nType="0">
                        <Node pos="l" depth="6" NCoef="0"     IVar="7" Cut="     1.403384E+00" cType="1"     res="     0.000000E+00" rms="0.0"     purity="0.00000000E+00" nType="0">
                            <Node pos="l" depth="7" NCoef="0"     IVar="-1" Cut="     0.000000E+00" cType="1"     res="    -5.145050E-01" rms="0.0e-00"     purity="0.00000000E+00" nType="-99">
                            </Node>
                            <Node pos="r" depth="7" NCoef="0"     IVar="-1" Cut="     0.000000E+00" cType="1"     res="    -6.503214E-01" rms="0.0e-00"     purity="0.00000000E+00" nType="-99">
                            </Node>
                        </Node>
                        <Node pos="r" depth="6" NCoef="0"     IVar="5" Cut="     2.806391E+01" cType="1"     res="     0.000000E+00" rms="0.0"     purity="0.00000000E+00" nType="0">
                            <Node pos="l" depth="7" NCoef="0"     IVar="-1" Cut="     0.000000E+00" cType="1"     res="     3.716750E-01" rms="0.0e-00"     purity="0.00000000E+00" nType="-99">
                            </Node>
                            <Node pos="r" depth="7" NCoef="0"     IVar="-1" Cut="     0.000000E+00" cType="1"     res="     2.077626E-01" rms="0.0e-00"     purity="0.00000000E+00" nType="-99">
                            </Node>
                        </Node>
                    </Node>
                    <Node pos="r" depth="5" NCoef="0"     IVar="0" Cut="     4.369970E-02" cType="1"     res="     0.000000E+00" rms="0.0"     purity="0.00000000E+00" nType="0">
                        <Node pos="l" depth="6" NCoef="0"     IVar="8" Cut="     1.178165E-01" cType="1"     res="     0.000000E+00" rms="0.0"     purity="0.00000000E+00" nType="0">
                            <Node pos="l" depth="7" NCoef="0"     IVar="-1" Cut="     0.000000E+00" cType="1"     res="    -5.517311E-01" rms="0.0e-00"     purity="0.00000000E+00" nType="-99">
                            </Node>
                            <Node pos="r" depth="7" NCoef="0"     IVar="-1" Cut="     0.000000E+00" cType="1"     res="     4.144106E-01" rms="0.0e-00"     purity="0.00000000E+00" nType="-99">
                            </Node>
                        </Node>
                        <Node pos="r" depth="6" NCoef="0"     IVar="4" Cut="     7.274836E+01" cType="1"     res="     0.000000E+00" rms="0.0"     purity="0.00000000E+00" nType="0">
                            <Node pos="l" depth="7" NCoef="0"     IVar="-1" Cut="     0.000000E+00" cType="1"     res="    -2.931332E-01" rms="0.0e-00"     purity="0.00000000E+00" nType="-99">
                            </Node>
                            <Node pos="r" depth="7" NCoef="0"     IVar="-1" Cut="     0.000000E+00" cType="1"     res="     2.476352E-01" rms="0.0e-00"     purity="0.00000000E+00" nType="-99">
                            </Node>
                        </Node>
                    </Node>
                </Node>
            </Node>
        </Node>
        <Node pos="r" depth="2" NCoef="0"     IVar="4" Cut="     6.316005E+01" cType="1"     res="     0.000000E+00" rms="0.0"     purity="0.00000000E+00" nType="0">
            <Node pos="l" depth="3" NCoef="0"     IVar="6" Cut="     5.042757E-02" cType="1"     res="     0.000000E+00" rms="0.0"     purity="0.00000000E+00" nType="0">
                <Node pos="l" depth="4" NCoef="0"     IVar="4" Cut="     4.814420E+01" cType="1"     res="     0.000000E+00" rms="0.0"     purity="0.00000000E+00" nType="0">
                    <Node pos="l" depth="5" NCoef="0"     IVar="5" Cut="     1.974106E+01" cType="1"     res="     0.000000E+00" rms="0.0"     purity="0.00000000E+00" nType="0">
                        <Node pos="l" depth="6" NCoef="0"     IVar="4" Cut="     4.318781E+01" cType="1"     res="     0.000000E+00" rms="0.0"     purity="0.00000000E+00" nType="0">
                            <Node pos="l" depth="7" NCoef="0"     IVar="-1" Cut="     0.000000E+00" cType="1"     res="    -2.285267E-01" rms="0.0e-00"     purity="0.00000000E+00" nType="-99">
                            </Node>
                            <Node pos="r" depth="7" NCoef="0"     IVar="-1" Cut="     0.000000E+00" cType="1"     res="     4.030901E-01" rms="0.0e-00"     purity="0.00000000E+00" nType="-99">
                            </Node>
                        </Node>
                        <Node pos="r" depth="6" NCoef="0"     IVar="0" Cut="     5.807963E-02" cType="1"     res="     0.000000E+00" rms="0.0"     purity="0.00000000E+00" nType="0">
                            <Node pos="l" depth="7" NCoef="0"     IVar="-1" Cut="     0.000000E+00" cType="1"     res="    -1.157202E-01" rms="0.0e-00"     purity="0.00000000E+00" nType="-99">
                            </Node>
                            <Node pos="r" depth="7" NCoef="0"     IVar="-1" Cut="     0.000000E+00" cType="1"     res="    -3.584849E-01" rms="0.0e-00"     purity="0.00000000E+00" nType="-99">
                            </Node>
                        </Node>
                    </Node>
                    <Node pos="r" depth="5" NCoef="0"     IVar="5" Cut="     2.462408E+01" cType="1"     res="     0.000000E+00" rms="0.0"     purity="0.00000000E+00" nType="0">
                        <Node pos="l" depth="6" NCoef="0"     IVar="2" Cut="     3.479670E+02" cType="1"     res="     0.000000E+00" rms="0.0"     purity="0.00000000E+00" nType="0">
                            <Node pos="l" depth="7" NCoef="0"     IVar="-1" Cut="     0.000000E+00" cType="1"     res="     4.542361E-01" rms="0.0e-00"     purity="0.00000000E+00" nType="-99">
                            </Node>
                            <Node pos="r" depth="7" NCoef="0"     IVar="-1" Cut="     0.000000E+00" cType="1"     res="    -1.166813E-01" rms="0.0e-00"     purity="0.00000000E+00" nType="-99">
                            </Node>
                        </Node>
                        <Node pos="r" depth="6" NCoef="0"     IVar="1" Cut="     1.005126E+01" cType="1"     res="     0.000000E+00" rms="0.0"     purity="0.00000000E+00" nType="0">
                            <Node pos="l" depth="7" NCoef="0"     IVar="-1" Cut="     0.000000E+00" cType="1"     res="     1.908371E-01" rms="0.0e-00"     purity="0.00000000E+00" nType="-99">
                            </Node>
                            <Node pos="r" depth="7" NCoef="0"     IVar="-1" Cut="     0.000000E+00" cType="1"     res="    -1.749869E-01" rms="0.0e-00"     purity="0.00000000E+00" nType="-99">
                            </Node>
                        </Node>
                    </Node>
                </Node>
                <Node pos="r" depth="4" NCoef="0"     IVar="3" Cut="     3.061759E-01" cType="1"     res="     0.000000E+00" rms="0.0"     purity="0.00000000E+00" nType="0">
                    <Node pos="l" depth="5" NCoef="0"     IVar="2" Cut="     3.366160E+02" cType="1"     res="     0.000000E+00" rms="0.0"     purity="0.00000000E+00" nType="0">
                        <Node pos="l" depth="6" NCoef="0"     IVar="4" Cut="     5.697214E+01" cType="1"     res="     0.000000E+00" rms="0.0"     purity="0.00000000E+00" nType="0">
                            <Node pos="l" depth="7" NCoef="0"     IVar="-1" Cut="     0.000000E+00" cType="1"     res="    -3.633819E-01" rms="0.0e-00"     purity="0.00000000E+00" nType="-99">
                            </Node>
                            <Node pos="r" depth="7" NCoef="0"     IVar="-1" Cut="     0.000000E+00" cType="1"     res="     1.381926E-01" rms="0.0e-00"     purity="0.00000000E+00" nType="-99">
                            </Node>
                        </Node>
                        <Node pos="r" depth="6" NCoef="0"     IVar="4" Cut="     6.080309E+01" cType="1"     res="     0.000000E+00" rms="0.0"     purity="0.00000000E+00" nType="0">
                            <Node pos="l" depth="7" NCoef="0"     IVar="-1" Cut="     0.000000E+00" cType="1"     res="    -4.219732E-01" rms="0.0e-00"     purity="0.00000000E+00" nType="-99">
                            </Node>
                            <Node pos="r" depth="7" NCoef="0"     IVar="-1" Cut="     0.000000E+00" cType="1"     res="    -2.782446E-01" rms="0.0e-00"     purity="0.00000000E+00" nType="-99">
                            </Node>
                        </Node>
                    </Node>
                    <Node pos="r" depth="5" NCoef="0"     IVar="3" Cut="     3.242916E-01" cType="1"     res="     0.000000E+00" rms="0.0"     purity="0.00000000E+00" nType="0">
                        <Node pos="l" depth="6" NCoef="0"     IVar="1" Cut="     1.805443E+01" cType="1"     res="     0.000000E+00" rms="0.0"     purity="0.00000000E+00" nType="0">
                            <Node pos="l" depth="7" NCoef="0"     IVar="-1" Cut="     0.000000E+00" cType="1"     res="    -2.549233E-01" rms="0.0e-00"     purity="0.00000000E+00" nType="-99">
                            </Node>
                            <Node pos="r" depth="7" NCoef="0"     IVar="-1" Cut="     0.000000E+00" cType="1"     res="     3.144346E-01" rms="0.0e-00"     purity="0.00000000E+00" nType="-99">
                            </Node>
                        </Node>
                        <Node pos="r" depth="6" NCoef="0"     IVar="2" Cut="     3.485080E+02" cType="1"     res="     0.000000E+00" rms="0.0"     purity="0.00000000E+00" nType="0">
                            <Node pos="l" depth="7" NCoef="0"     IVar="-1" Cut="     0.000000E+00" cType="1"     res="    -2.746383E-01" rms="0.0e-00"     purity="0.00000000E+00" nType="-99">
                            </Node>
                            <Node pos="r" depth="7" NCoef="0"     IVar="-1" Cut="     0.000000E+00" cType="1"     res="    -3.789438E-01" rms="0.0e-00"     purity="0.00000000E+00" nType="-99">
                            </Node>
                        </Node>
                    </Node>
                </Node>
            </Node>
            <Node pos="r" depth="3" NCoef="0"     IVar="6" Cut="     5.486455E-02" cType="1"     res="     0.000000E+00" rms="0.0"     purity="0.00000000E+00" nType="0">
                <Node pos="l" depth="4" NCoef="0"     IVar="5" Cut="     3.622476E+01" cType="1"     res="     0.000000E+00" rms="0.0"     purity="0.00000000E+00" nType="0">
                    <Node pos="l" depth="5" NCoef="0"     IVar="3" Cut="     3.677997E-01" cType="1"     res="     0.000000E+00" rms="0.0"     purity="0.00000000E+00" nType="0">
                        <Node pos="l" depth="6" NCoef="0"     IVar="5" Cut="     3.060454E+01" cType="1"     res="     0.000000E+00" rms="0.0"     purity="0.00000000E+00" nType="0">
                            <Node pos="l" depth="7" NCoef="0"     IVar="-1" Cut="     0.000000E+00" cType="1"     res="     4.376109E-01" rms="0.0e-00"     purity="0.00000000E+00" nType="-99">
                            </Node>
                            <Node pos="r" depth="7" NCoef="0"     IVar="-1" Cut="     0.000000E+00" cType="1"     res="     3.114583E-01" rms="0.0e-00"     purity="0.00000000E+00" nType="-99">
                            </Node>
                        </Node>
                        <Node pos="r" depth="6" NCoef="0"     IVar="4" Cut="     6.879734E+01" cType="1"     res="     0.000000E+00" rms="0.0"     purity="0.00000000E+00" nType="0">
                            <Node pos="l" depth="7" NCoef="0"     IVar="-1" Cut="     0.000000E+00" cType="1"     res="    -4.717861E-01" rms="0.0e-00"     purity="0.00000000E+00" nType="-99">
                            </Node>
                            <Node pos="r" depth="7" NCoef="0"     IVar="-1" Cut="     0.000000E+00" cType="1"     res="     2.496738E-01" rms="0.0e-00"     purity="0.00000000E+00" nType="-99">
                            </Node>
                        </Node>
                    </Node>
                    <Node pos="r" depth="5" NCoef="0"     IVar="4" Cut="     7.890368E+01" cType="1"     res="     0.000000E+00" rms="0.0"     purity="0.00000000E+00" nType="0">
                        <Node pos="l" depth="6" NCoef="0"     IVar="4" Cut="     7.274836E+01" cType="1"     res="     0.000000E+00" rms="0.0"     purity="0.00000000E+00" nType="0">
                            <Node pos="l" depth="7" NCoef="0"     IVar="-1" Cut="     0.000000E+00" cType="1"     res="    -4.799155E-01" rms="0.0e-00"     purity="0.00000000E+00" nType="-99">
                            </Node>
                            <Node pos="r" depth="7" NCoef="0"     IVar="-1" Cut="     0.000000E+00" cType="1"     res="    -1.128307E-01" rms="0.0e-00"     purity="0.00000000E+00" nType="-99">
                            </Node>
                        </Node>
                        <Node pos="r" depth="6" NCoef="0"     IVar="3" Cut="     3.242916E-01" cType="1"     res="     0.000000E+00" rms="0.0"     purity="0.00000000E+00" nType="0">
                            <Node pos="l" depth="7" NCoef="0"     IVar="-1" Cut="     0.000000E+00" cType="1"     res="     3.645772E-01" rms="0.0e-00"     purity="0.00000000E+00" nType="-99">
                            </Node>
                            <Node pos="r" depth="7" NCoef="0"     IVar="-1" Cut="     0.000000E+00" cType="1"     res="    -5.438402E-01" rms="0.0e-00"     purity="0.00000000E+00" nType="-99">
                            </Node>
                        </Node>
                    </Node>
                </Node>
                <Node pos="r" depth="4" NCoef="0"     IVar="7" Cut="     1.892808E+00" cType="1"     res="     0.000000E+00" rms="0.0"     purity="0.00000000E+00" nType="0">
                    <Node pos="l" depth="5" NCoef="0"     IVar="3" Cut="     4.643317E-02" cType="1"     res="     0.000000E+00" rms="0.0"     purity="0.00000000E+00" nType="0">
                        <Node pos="l" depth="6" NCoef="0"     IVar="8" Cut="     1.252130E-01" cType="1"     res="     0.000000E+00" rms="0.0"     purity="0.00000000E+00" nType="0">
                            <Node pos="l" depth="7" NCoef="0"     IVar="-1" Cut="     0.000000E+00" cType="1"     res="     8.883138E-01" rms="0.0e-00"     purity="0.00000000E+00" nType="-99">
                            </Node>
                            <Node pos="r" depth="7" NCoef="0"     IVar="-1" Cut="     0.000000E+00" cType="1"     res="    -4.564548E-01" rms="0.0e-00"     purity="0.00000000E+00" nType="-99">
                            </Node>
                        </Node>
                        <Node pos="r" depth="6" NCoef="0"     IVar="0" Cut="     5.932027E-02" cType="1"     res="     0.000000E+00" rms="0.0"     purity="0.00000000E+00" nType="0">
                            <Node pos="l" depth="7" NCoef="0"     IVar="-1" Cut="     0.000000E+00" cType="1"     res="    -1.983242E-01" rms="0.0e-00"     purity="0.00000000E+00" nType="-99">
                            </Node>
                            <Node pos="r" depth="7" NCoef="0"     IVar="-1" Cut="     0.000000E+00" cType="1"     res="    -4.059883E-01" rms="0.0e-00"     purity="0.00000000E+00" nType="-99">
                            </Node>
                        </Node>
                    </Node>
                    <Node pos="r" depth="5" NCoef="0"     IVar="2" Cut="     3.420146E+02" cType="1"     res="     0.000000E+00" rms="0.0"     purity="0.00000000E+00" nType="0">
                        <Node pos="l" depth="6" NCoef="0"     IVar="4" Cut="     6.649391E+01" cType="1"     res="     0.000000E+00" rms="0.0"     purity="0.00000000E+00" nType="0">
                            <Node pos="l" depth="7" NCoef="0"     IVar="-1" Cut="     0.000000E+00" cType="1"     res="    -4.941131E-01" rms="0.0e-00"     purity="0.00000000E+00" nType="-99">
                            </Node>
                            <Node pos="r" depth="7" NCoef="0"     IVar="-1" Cut="     0.000000E+00" cType="1"     res="     3.339241E-01" rms="0.0e-00"     purity="0.00000000E+00" nType="-99">
                            </Node>
                        </Node>
                        <Node pos="r" depth="6" NCoef="0"     IVar="1" Cut="     1.210977E+01" cType="1"     res="     0.000000E+00" rms="0.0"     purity="0.00000000E+00" nType="0">
                            <Node pos="l" depth="7" NCoef="0"     IVar="-1" Cut="     0.000000E+00" cType="1"     res="     5.797225E-01" rms="0.0e-00"     purity="0.00000000E+00" nType="-99">
                            </Node>
                            <Node pos="r" depth="7" NCoef="0"     IVar="-1" Cut="     0.000000E+00" cType="1"     res="    -2.220927E-01" rms="0.0e-00"     purity="0.00000000E+00" nType="-99">
                            </Node>
                        </Node>
                    </Node>
                </Node>
            </Node>
        </Node>
    </Node>
</BinaryTree>
<BinaryTree type="DecisionTree" boostWeight="0.0" itree="3">
    <Node pos="c" depth="1" NCoef="0"     IVar="0" Cut="     5.354644E-02" cType="1"     res="     0.000000E+00" rms="0.0"     purity="0.00000000E+00" nType="0">
        <Node pos="l" depth="2" NCoef="0"     IVar="1" Cut="     1.260417E+01" cType="1"     res="     0.000000E+00" rms="0.0"     purity="0.00000000E+00" nType="0">
            <Node pos="l" depth="3" NCoef="0"     IVar="7" Cut="     1.598166E+00" cType="1"     res="     0.000000E+00" rms="0.0"     purity="0.00000000E+00" nType="0">
                <Node pos="l" depth="4" NCoef="0"     IVar="6" Cut="     4.855834E-02" cType="1"     res="     0.000000E+00" rms="0.0"     purity="0.00000000E+00" nType="0">
                    <Node pos="l" depth="5" NCoef="0"     IVar="8" Cut="     2.301449E-01" cType="1"     res="     0.000000E+00" rms="0.0"     purity="0.00000000E+00" nType="0">
                        <Node pos="l" depth="6" NCoef="0"     IVar="0" Cut="     5.247865E-02" cType="1"     res="     0.000000E+00" rms="0.0"     purity="0.00000000E+00" nType="0">
                            <Node pos="l" depth="7" NCoef="0"     IVar="-1" Cut="     0.000000E+00" cType="1"     res="     2.747542E-01" rms="0.0e-00"     purity="0.00000000E+00" nType="-99">
                            </Node>
                            <Node pos="r" depth="7" NCoef="0"     IVar="-1" Cut="     0.000000E+00" cType="1"     res="    -7.151915E-01" rms="0.0e-00"     purity="0.00000000E+00" nType="-99">
                            </Node>
                        </Node>
                        <Node pos="r" depth="6" NCoef="0"     IVar="6" Cut="     4.467133E-02" cType="1"     res="     0.000000E+00" rms="0.0"     purity="0.00000000E+00" nType="0">
                            <Node pos="l" depth="7" NCoef="0"     IVar="-1" Cut="     0.000000E+00" cType="1"     res="    -5.779817E-01" rms="0.0e-00"     purity="0.00000000E+00" nType="-99">
                            </Node>
                            <Node pos="r" depth="7" NCoef="0"     IVar="-1" Cut="     0.000000E+00" cType="1"     res="    -4.513760E-01" rms="0.0e-00"     purity="0.00000000E+00" nType="-99">
                            </Node>
                        </Node>
                    </Node>
                    <Node pos="r" depth="5" NCoef="0"     IVar="4" Cut="     6.211462E+01" cType="1"     res="     0.000000E+00" rms="0.0"     purity="0.00000000E+00" nType="0">
                        <Node pos="l" depth="6" NCoef="0"     IVar="3" Cut="     1.550213E-01" cType="1"     res="     0.000000E+00" rms="0.0"     purity="0.00000000E+00" nType="0">
                            <Node pos="l" depth="7" NCoef="0"     IVar="-1" Cut="     0.000000E+00" cType="1"     res="    -1.151460E-01" rms="0.0e-00"     purity="0.00000000E+00" nType="-99">
                            </Node>
                            <Node pos="r" depth="7" NCoef="0"     IVar="-1" Cut="     0.000000E+00" cType="1"     res="    -5.128101E-01" rms="0.0e-00"     purity="0.00000000E+00" nType="-99">
                            </Node>
                        </Node>
                        <Node pos="r" depth="6" NCoef="0"     IVar="1" Cut="     1.046164E+01" cType="1"     res="     0.000000E+00" rms="0.0"     purity="0.00000000E+00" nType="0">
                            <Node pos="l" depth="7" NCoef="0"     IVar="-1" Cut="     0.000000E+00" cType="1"     res="     3.162508E-01" rms="0.0e-00"     purity="0.00000000E+00" nType="-99">
                            </Node>
                            <Node pos="r" depth="7" NCoef="0"     IVar="-1" Cut="     0.000000E+00" cType="1"     res="    -6.006922E-01" rms="0.0e-00"     purity="0.00000000E+00" nType="-99">
                            </Node>
                        </Node>
                    </Node>
                </Node>
                <Node pos="r" depth="4" NCoef="0"     IVar="6" Cut="     6.222117E-02" cType="1"     res="     0.000000E+00" rms="0.0"     purity="0.00000000E+00" nType="0">
                    <Node pos="l" depth="5" NCoef="0"     IVar="8" Cut="     2.512211E-01" cType="1"     res="     0.000000E+00" rms="0.0"     purity="0.00000000E+00" nType="0">
                        <Node pos="l" depth="6" NCoef="0"     IVar="4" Cut="     4.685357E+01" cType="1"     res="     0.000000E+00" rms="0.0"     purity="0.00000000E+00" nType="0">
                            <Node pos="l" depth="7" NCoef="0"     IVar="-1" Cut="     0.000000E+00" cType="1"     res="     2.639514E-01" rms="0.0e-00"     purity="0.00000000E+00" nType="-99">
                            </Node>
                            <Node pos="r" depth="7" NCoef="0"     IVar="-1" Cut="     0.000000E+00" cType="1"     res="     3.533107E-01" rms="0.0e-00"     purity="0.00000000E+00" nType="-99">
                            </Node>
                        </Node>
                        <Node pos="r" depth="6" NCoef="0"     IVar="0" Cut="     3.547855E-02" cType="1"     res="     0.000000E+00" rms="0.0"     purity="0.00000000E+00" nType="0">
                            <Node pos="l" depth="7" NCoef="0"     IVar="-1" Cut="     0.000000E+00" cType="1"     res="     3.218903E-01" rms="0.0e-00"     purity="0.00000000E+00" nType="-99">
                            </Node>
                            <Node pos="r" depth="7" NCoef="0"     IVar="-1" Cut="     0.000000E+00" cType="1"     res="    -3.371881E-01" rms="0.0e-00"     purity="0.00000000E+00" nType="-99">
                            </Node>
                        </Node>
                    </Node>
                    <Node pos="r" depth="5" NCoef="0"     IVar="4" Cut="     6.540265E+01" cType="1"     res="     0.000000E+00" rms="0.0"     purity="0.00000000E+00" nType="0">
                        <Node pos="l" depth="6" NCoef="0"     IVar="4" Cut="     5.548350E+01" cType="1"     res="     0.000000E+00" rms="0.0"     purity="0.00000000E+00" nType="0">
                            <Node pos="l" depth="7" NCoef="0"     IVar="-1" Cut="     0.000000E+00" cType="1"     res="    -4.423568E-01" rms="0.0e-00"     purity="0.00000000E+00" nType="-99">
                            </Node>
                            <Node pos="r" depth="7" NCoef="0"     IVar="-1" Cut="     0.000000E+00" cType="1"     res="    -5.672238E-01" rms="0.0e-00"     purity="0.00000000E+00" nType="-99">
                            </Node>
                        </Node>
                        <Node pos="r" depth="6" NCoef="0"     IVar="5" Cut="     3.518617E+01" cType="1"     res="     0.000000E+00" rms="0.0"     purity="0.00000000E+00" nType="0">
                            <Node pos="l" depth="7" NCoef="0"     IVar="-1" Cut="     0.000000E+00" cType="1"     res="    -7.517350E-01" rms="0.0e-00"     purity="0.00000000E+00" nType="-99">
                            </Node>
                            <Node pos="r" depth="7" NCoef="0"     IVar="-1" Cut="     0.000000E+00" cType="1"     res="    -1.205354E+00" rms="0.0e-00"     purity="0.00000000E+00" nType="-99">
                            </Node>
                        </Node>
                    </Node>
                </Node>
            </Node>
            <Node pos="r" depth="3" NCoef="0"     IVar="4" Cut="     5.240512E+01" cType="1"     res="     0.000000E+00" rms="0.0"     purity="0.00000000E+00" nType="0">
                <Node pos="l" depth="4" NCoef="0"     IVar="6" Cut="     4.600041E-02" cType="1"     res="     0.000000E+00" rms="0.0"     purity="0.00000000E+00" nType="0">
                    <Node pos="l" depth="5" NCoef="0"     IVar="8" Cut="     1.876383E-01" cType="1"     res="     0.000000E+00" rms="0.0"     purity="0.00000000E+00" nType="0">
                        <Node pos="l" depth="6" NCoef="0"     IVar="7" Cut="     1.499837E+00" cType="1"     res="     0.000000E+00" rms="0.0"     purity="0.00000000E+00" nType="0">
                            <Node pos="l" depth="7" NCoef="0"     IVar="-1" Cut="     0.000000E+00" cType="1"     res="    -5.069361E-01" rms="0.0e-00"     purity="0.00000000E+00" nType="-99">
                            </Node>
                            <Node pos="r" depth="7" NCoef="0"     IVar="-1" Cut="     0.000000E+00" cType="1"     res="     2.035507E-01" rms="0.0e-00"     purity="0.00000000E+00" nType="-99">
                            </Node>
                        </Node>
                        <Node pos="r" depth="6" NCoef="0"     IVar="4" Cut="     5.011063E+01" cType="1"     res="     0.000000E+00" rms="0.0"     purity="0.00000000E+00" nType="0">
                            <Node pos="l" depth="7" NCoef="0"     IVar="-1" Cut="     0.000000E+00" cType="1"     res="    -2.107628E-01" rms="0.0e-00"     purity="0.00000000E+00" nType="-99">
                            </Node>
                            <Node pos="r" depth="7" NCoef="0"     IVar="-1" Cut="     0.000000E+00" cType="1"     res="     3.490288E-01" rms="0.0e-00"     purity="0.00000000E+00" nType="-99">
                            </Node>
                        </Node>
                    </Node>
                    <Node pos="r" depth="5" NCoef="0"     IVar="5" Cut="     2.117545E+01" cType="1"     res="     0.000000E+00" rms="0.0"     purity="0.00000000E+00" nType="0">
                        <Node pos="l" depth="6" NCoef="0"     IVar="4" Cut="     3.978527E+01" cType="1"     res="     0.000000E+00" rms="0.0"     purity="0.00000000E+00" nType="0">
                            <Node pos="l" depth="7" NCoef="0"     IVar="-1" Cut="     0.000000E+00" cType="1"     res="    -2.279280E-01" rms="0.0e-00"     purity="0.00000000E+00" nType="-99">
                            </Node>
                            <Node pos="r" depth="7" NCoef="0"     IVar="-1" Cut="     0.000000E+00" cType="1"     res="     7.829426E-02" rms="0.0e-00"     purity="0.00000000E+00" nType="-99">
                            </Node>
                        </Node>
                        <Node pos="r" depth="6" NCoef="0"     IVar="1" Cut="     1.321764E+01" cType="1"     res="     0.000000E+00" rms="0.0"     purity="0.00000000E+00" nType="0">
                            <Node pos="l" depth="7" NCoef="0"     IVar="-1" Cut="     0.000000E+00" cType="1"     res="     1.950639E-01" rms="0.0e-00"     purity="0.00000000E+00" nType="-99">
                            </Node>
                            <Node pos="r" depth="7" NCoef="0"     IVar="-1" Cut="     0.000000E+00" cType="1"     res="    -3.737748E-01" rms="0.0e-00"     purity="0.00000000E+00" nType="-99">
                            </Node>
                        </Node>
                    </Node>
                </Node>
                <Node pos="r" depth="4" NCoef="0"     IVar="6" Cut="     5.951355E-02" cType="1"     res="     0.000000E+00" rms="0.0"     purity="0.00000000E+00" nType="0">
                    <Node pos="l" depth="5" NCoef="0"     IVar="5" Cut="     2.888894E+01" cType="1"     res="     0.000000E+00" rms="0.0"     purity="0.00000000E+00" nType="0">
                        <Node pos="l" depth="6" NCoef="0"     IVar="8" Cut="     1.876383E-01" cType="1"     res="     0.000000E+00" rms="0.0"     purity="0.00000000E+00" nType="0">
                            <Node pos="l" depth="7" NCoef="0"     IVar="-1" Cut="     0.000000E+00" cType="1"     res="     3.314334E-01" rms="0.0e-00"     purity="0.00000000E+00" nType="-99">
                            </Node>
                            <Node pos="r" depth="7" NCoef="0"     IVar="-1" Cut="     0.000000E+00" cType="1"     res="    -1.355024E-01" rms="0.0e-00"     purity="0.00000000E+00" nType="-99">
                            </Node>
                        </Node>
                        <Node pos="r" depth="6" NCoef="0"     IVar="4" Cut="     6.141140E+01" cType="1"     res="     0.000000E+00" rms="0.0"     purity="0.00000000E+00" nType="0">
                            <Node pos="l" depth="7" NCoef="0"     IVar="-1" Cut="     0.000000E+00" cType="1"     res="    -5.816699E-01" rms="0.0e-00"     purity="0.00000000E+00" nType="-99">
                            </Node>
                            <Node pos="r" depth="7" NCoef="0"     IVar="-1" Cut="     0.000000E+00" cType="1"     res="     2.321361E-01" rms="0.0e-00"     purity="0.00000000E+00" nType="-99">
                            </Node>
                        </Node>
                    </Node>
                    <Node pos="r" depth="5" NCoef="0"     IVar="4" Cut="     7.263126E+01" cType="1"     res="     0.000000E+00" rms="0.0"     purity="0.00000000E+00" nType="0">
                        <Node pos="l" depth="6" NCoef="0"     IVar="0" Cut="     4.408407E-02" cType="1"     res="     0.000000E+00" rms="0.0"     purity="0.00000000E+00" nType="0">
                            <Node pos="l" depth="7" NCoef="0"     IVar="-1" Cut="     0.000000E+00" cType="1"     res="     1.534712E-01" rms="0.0e-00"     purity="0.00000000E+00" nType="-99">
                            </Node>
                            <Node pos="r" depth="7" NCoef="0"     IVar="-1" Cut="     0.000000E+00" cType="1"     res="    -4.702550E-01" rms="0.0e-00"     purity="0.00000000E+00" nType="-99">
                            </Node>
                        </Node>
                        <Node pos="r" depth="6" NCoef="0"     IVar="8" Cut="     1.293792E-01" cType="1"     res="     0.000000E+00" rms="0.0"     purity="0.00000000E+00" nType="0">
                            <Node pos="l" depth="7" NCoef="0"     IVar="-1" Cut="     0.000000E+00" cType="1"     res="    -7.487554E-01" rms="0.0e-00"     purity="0.00000000E+00" nType="-99">
                            </Node>
                            <Node pos="r" depth="7" NCoef="0"     IVar="-1" Cut="     0.000000E+00" cType="1"     res="     3.541990E-01" rms="0.0e-00"     purity="0.00000000E+00" nType="-99">
                            </Node>
                        </Node>
                    </Node>
                </Node>
            </Node>
        </Node>
