
        <?xml version="1.0"?>
        <MethodSetup Method="BDT::bdt">
        <GeneralInfo>
        <Info name="TMVA Release" value=""/>
        <Info name="ROOT Release" value=""/>
        <Info name="Creator" value="mlglue"/>
        <Info name="Date" value=""/>
        <Info name="Host" value=""/>
        <Info name="Dir" value=""/>
        <Info name="Training events" value="-1"/>
        <Info name="TrainingTime" value="-1"/>
        <Info name="AnalysisType" value="Classification"/>
        </GeneralInfo>
        <Options>
        <Option name="NTrees" modified="Yes">10</Option>
        <Option name="MaxDepth" modified="Yes">6</Option>
        <Option name="BoostType" modified="Yes">Grad</Option>
        <Option name="Shrinkage" modified="Yes">0.3</Option>
        <Option name="UseNvars" modified="Yes">20</Option>
        </Options>

        <Variables NVar="20">
        <Variable VarIndex="0" Expression="coreshowerlength" Label="coreshowerlength" Title="coreshowerlength" Unit="" Internal="coreshowerlength" Type="F" Min="0.0000000000000000000000000000000000000000000000000000000000000000E+00" Max="0.0000000000000000000000000000000000000000000000000000000000000000E+00"/>
<Variable VarIndex="1" Expression="showerlength" Label="showerlength" Title="showerlength" Unit="" Internal="showerlength" Type="F" Min="0.0000000000000000000000000000000000000000000000000000000000000000E+00" Max="0.0000000000000000000000000000000000000000000000000000000000000000E+00"/>
<Variable VarIndex="2" Expression="firstlayer" Label="firstlayer" Title="firstlayer" Unit="" Internal="firstlayer" Type="F" Min="0.0000000000000000000000000000000000000000000000000000000000000000E+00" Max="0.0000000000000000000000000000000000000000000000000000000000000000E+00"/>
<Variable VarIndex="3" Expression="maxlayer" Label="maxlayer" Title="maxlayer" Unit="" Internal="maxlayer" Type="F" Min="0.0000000000000000000000000000000000000000000000000000000000000000E+00" Max="0.0000000000000000000000000000000000000000000000000000000000000000E+00"/>
<Variable VarIndex="4" Expression="szz" Label="szz" Title="szz" Unit="" Internal="szz" Type="F" Min="0.0000000000000000000000000000000000000000000000000000000000000000E+00" Max="0.0000000000000000000000000000000000000000000000000000000000000000E+00"/>
<Variable VarIndex="5" Expression="srrmean" Label="srrmean" Title="srrmean" Unit="" Internal="srrmean" Type="F" Min="0.0000000000000000000000000000000000000000000000000000000000000000E+00" Max="0.0000000000000000000000000000000000000000000000000000000000000000E+00"/>
<Variable VarIndex="6" Expression="srrtot" Label="srrtot" Title="srrtot" Unit="" Internal="srrtot" Type="F" Min="0.0000000000000000000000000000000000000000000000000000000000000000E+00" Max="0.0000000000000000000000000000000000000000000000000000000000000000E+00"/>
<Variable VarIndex="7" Expression="seetot" Label="seetot" Title="seetot" Unit="" Internal="seetot" Type="F" Min="0.0000000000000000000000000000000000000000000000000000000000000000E+00" Max="0.0000000000000000000000000000000000000000000000000000000000000000E+00"/>
<Variable VarIndex="8" Expression="spptot" Label="spptot" Title="spptot" Unit="" Internal="spptot" Type="F" Min="0.0000000000000000000000000000000000000000000000000000000000000000E+00" Max="0.0000000000000000000000000000000000000000000000000000000000000000E+00"/>
<Variable VarIndex="9" Expression="seemax" Label="seemax" Title="seemax" Unit="" Internal="seemax" Type="F" Min="0.0000000000000000000000000000000000000000000000000000000000000000E+00" Max="0.0000000000000000000000000000000000000000000000000000000000000000E+00"/>
<Variable VarIndex="10" Expression="sppmax" Label="sppmax" Title="sppmax" Unit="" Internal="sppmax" Type="F" Min="0.0000000000000000000000000000000000000000000000000000000000000000E+00" Max="0.0000000000000000000000000000000000000000000000000000000000000000E+00"/>
<Variable VarIndex="11" Expression="srrmax" Label="srrmax" Title="srrmax" Unit="" Internal="srrmax" Type="F" Min="0.0000000000000000000000000000000000000000000000000000000000000000E+00" Max="0.0000000000000000000000000000000000000000000000000000000000000000E+00"/>
<Variable VarIndex="12" Expression="meanz" Label="meanz" Title="meanz" Unit="" Internal="meanz" Type="F" Min="0.0000000000000000000000000000000000000000000000000000000000000000E+00" Max="0.0000000000000000000000000000000000000000000000000000000000000000E+00"/>
<Variable VarIndex="13" Expression="emaxe" Label="emaxe" Title="emaxe" Unit="" Internal="emaxe" Type="F" Min="0.0000000000000000000000000000000000000000000000000000000000000000E+00" Max="0.0000000000000000000000000000000000000000000000000000000000000000E+00"/>
<Variable VarIndex="14" Expression="layer10" Label="layer10" Title="layer10" Unit="" Internal="layer10" Type="F" Min="0.0000000000000000000000000000000000000000000000000000000000000000E+00" Max="0.0000000000000000000000000000000000000000000000000000000000000000E+00"/>
<Variable VarIndex="15" Expression="layer50" Label="layer50" Title="layer50" Unit="" Internal="layer50" Type="F" Min="0.0000000000000000000000000000000000000000000000000000000000000000E+00" Max="0.0000000000000000000000000000000000000000000000000000000000000000E+00"/>
<Variable VarIndex="16" Expression="layer90" Label="layer90" Title="layer90" Unit="" Internal="layer90" Type="F" Min="0.0000000000000000000000000000000000000000000000000000000000000000E+00" Max="0.0000000000000000000000000000000000000000000000000000000000000000E+00"/>
<Variable VarIndex="17" Expression="ntc67" Label="ntc67" Title="ntc67" Unit="" Internal="ntc67" Type="F" Min="0.0000000000000000000000000000000000000000000000000000000000000000E+00" Max="0.0000000000000000000000000000000000000000000000000000000000000000E+00"/>
<Variable VarIndex="18" Expression="ntc90" Label="ntc90" Title="ntc90" Unit="" Internal="ntc90" Type="F" Min="0.0000000000000000000000000000000000000000000000000000000000000000E+00" Max="0.0000000000000000000000000000000000000000000000000000000000000000E+00"/>
<Variable VarIndex="19" Expression="hoe" Label="hoe" Title="hoe" Unit="" Internal="hoe" Type="F" Min="0.0000000000000000000000000000000000000000000000000000000000000000E+00" Max="0.0000000000000000000000000000000000000000000000000000000000000000E+00"/>

        </Variables>

        <Classes NClass="2">
        <Class Name="background" Index="0"/>
<Class Name="signal" Index="1"/>

        </Classes>

        <Targets NTrgt="0">
        
        </Targets>

        <Transformations NTransformations="0"/>
        <MVAPdfs/>
        <Weights NTrees="10" AnalysisType="1">
        <BinaryTree type="DecisionTree" boostWeight="0.0" itree="0">
    <Node pos="c" depth="1" NCoef="0"     IVar="19" Cut="     1.521762E-01" cType="1"     res="     0.000000E+00" rms="0.0"     purity="0.00000000E+00" nType="0">
        <Node pos="l" depth="2" NCoef="0"     IVar="6" Cut="     5.438294E-03" cType="1"     res="     0.000000E+00" rms="0.0"     purity="0.00000000E+00" nType="0">
            <Node pos="l" depth="3" NCoef="0"     IVar="8" Cut="     5.364688E-02" cType="1"     res="     0.000000E+00" rms="0.0"     purity="0.00000000E+00" nType="0">
                <Node pos="l" depth="4" NCoef="0"     IVar="6" Cut="     5.053313E-03" cType="1"     res="     0.000000E+00" rms="0.0"     purity="0.00000000E+00" nType="0">
                    <Node pos="l" depth="5" NCoef="0"     IVar="13" Cut="     2.585777E-01" cType="1"     res="     0.000000E+00" rms="0.0"     purity="0.00000000E+00" nType="0">
                        <Node pos="l" depth="6" NCoef="0"     IVar="17" Cut="     2.696603E+01" cType="1"     res="     0.000000E+00" rms="0.0"     purity="0.00000000E+00" nType="0">
                            <Node pos="l" depth="7" NCoef="0"     IVar="-1" Cut="     0.000000E+00" cType="1"     res="     5.985677E-01" rms="0.0e-00"     purity="0.00000000E+00" nType="-99">
                            </Node>
                            <Node pos="r" depth="7" NCoef="0"     IVar="-1" Cut="     0.000000E+00" cType="1"     res="     5.000000E-01" rms="0.0e-00"     purity="0.00000000E+00" nType="-99">
                            </Node>
                        </Node>
                        <Node pos="r" depth="6" NCoef="0"     IVar="14" Cut="     1.144737E+00" cType="1"     res="     0.000000E+00" rms="0.0"     purity="0.00000000E+00" nType="0">
                            <Node pos="l" depth="7" NCoef="0"     IVar="-1" Cut="     0.000000E+00" cType="1"     res="     5.000000E-01" rms="0.0e-00"     purity="0.00000000E+00" nType="-99">
                            </Node>
                            <Node pos="r" depth="7" NCoef="0"     IVar="-1" Cut="     0.000000E+00" cType="1"     res="    -5.714286E-01" rms="0.0e-00"     purity="0.00000000E+00" nType="-99">
                            </Node>
                        </Node>
                    </Node>
                    <Node pos="r" depth="5" NCoef="0"     IVar="8" Cut="     4.669441E-02" cType="1"     res="     0.000000E+00" rms="0.0"     purity="0.00000000E+00" nType="0">
                        <Node pos="l" depth="6" NCoef="0"     IVar="13" Cut="     2.263463E-01" cType="1"     res="     0.000000E+00" rms="0.0"     purity="0.00000000E+00" nType="0">
                            <Node pos="l" depth="7" NCoef="0"     IVar="-1" Cut="     0.000000E+00" cType="1"     res="     4.851002E-01" rms="0.0e-00"     purity="0.00000000E+00" nType="-99">
                            </Node>
                            <Node pos="r" depth="7" NCoef="0"     IVar="-1" Cut="     0.000000E+00" cType="1"     res="    -5.563636E-01" rms="0.0e-00"     purity="0.00000000E+00" nType="-99">
                            </Node>
                        </Node>
                        <Node pos="r" depth="6" NCoef="0"     IVar="18" Cut="     7.041808E+01" cType="1"     res="     0.000000E+00" rms="0.0"     purity="0.00000000E+00" nType="0">
                            <Node pos="l" depth="7" NCoef="0"     IVar="-1" Cut="     0.000000E+00" cType="1"     res="    -5.060499E-01" rms="0.0e-00"     purity="0.00000000E+00" nType="-99">
                            </Node>
                            <Node pos="r" depth="7" NCoef="0"     IVar="-1" Cut="     0.000000E+00" cType="1"     res="     3.278174E-01" rms="0.0e-00"     purity="0.00000000E+00" nType="-99">
                            </Node>
                        </Node>
                    </Node>
                </Node>
                <Node pos="r" depth="4" NCoef="0"     IVar="14" Cut="     2.263963E+00" cType="1"     res="     0.000000E+00" rms="0.0"     purity="0.00000000E+00" nType="0">
                    <Node pos="l" depth="5" NCoef="0"     IVar="14" Cut="     2.010773E+00" cType="1"     res="     0.000000E+00" rms="0.0"     purity="0.00000000E+00" nType="0">
                        <Node pos="l" depth="6" NCoef="0"     IVar="-1" Cut="     0.000000E+00" cType="1"     res="    -5.944445E-01" rms="0.0e-00"     purity="0.00000000E+00" nType="-99">
                        </Node>
                        <Node pos="r" depth="6" NCoef="0"     IVar="6" Cut="     5.031756E-03" cType="1"     res="     0.000000E+00" rms="0.0"     purity="0.00000000E+00" nType="0">
                            <Node pos="l" depth="7" NCoef="0"     IVar="-1" Cut="     0.000000E+00" cType="1"     res="     1.748032E-01" rms="0.0e-00"     purity="0.00000000E+00" nType="-99">
                            </Node>
                            <Node pos="r" depth="7" NCoef="0"     IVar="-1" Cut="     0.000000E+00" cType="1"     res="    -5.775701E-01" rms="0.0e-00"     purity="0.00000000E+00" nType="-99">
                            </Node>
                        </Node>
                    </Node>
                    <Node pos="r" depth="5" NCoef="0"     IVar="16" Cut="     1.090220E+01" cType="1"     res="     0.000000E+00" rms="0.0"     purity="0.00000000E+00" nType="0">
                        <Node pos="l" depth="6" NCoef="0"     IVar="10" Cut="     7.895691E-02" cType="1"     res="     0.000000E+00" rms="0.0"     purity="0.00000000E+00" nType="0">
                            <Node pos="l" depth="7" NCoef="0"     IVar="-1" Cut="     0.000000E+00" cType="1"     res="    -4.400000E-01" rms="0.0e-00"     purity="0.00000000E+00" nType="-99">
                            </Node>
                            <Node pos="r" depth="7" NCoef="0"     IVar="-1" Cut="     0.000000E+00" cType="1"     res="     5.653846E-01" rms="0.0e-00"     purity="0.00000000E+00" nType="-99">
                            </Node>
                        </Node>
                        <Node pos="r" depth="6" NCoef="0"     IVar="-1" Cut="     0.000000E+00" cType="1"     res="    -5.368421E-01" rms="0.0e-00"     purity="0.00000000E+00" nType="-99">
                        </Node>
                    </Node>
                </Node>
            </Node>
            <Node pos="r" depth="3" NCoef="0"     IVar="8" Cut="     4.109991E-02" cType="1"     res="     0.000000E+00" rms="0.0"     purity="0.00000000E+00" nType="0">
                <Node pos="l" depth="4" NCoef="0"     IVar="17" Cut="     1.928845E+01" cType="1"     res="     0.000000E+00" rms="0.0"     purity="0.00000000E+00" nType="0">
                    <Node pos="l" depth="5" NCoef="0"     IVar="13" Cut="     2.134412E-01" cType="1"     res="     0.000000E+00" rms="0.0"     purity="0.00000000E+00" nType="0">
                        <Node pos="l" depth="6" NCoef="0"     IVar="6" Cut="     6.702333E-03" cType="1"     res="     0.000000E+00" rms="0.0"     purity="0.00000000E+00" nType="0">
                            <Node pos="l" depth="7" NCoef="0"     IVar="-1" Cut="     0.000000E+00" cType="1"     res="     5.368421E-01" rms="0.0e-00"     purity="0.00000000E+00" nType="-99">
                            </Node>
                            <Node pos="r" depth="7" NCoef="0"     IVar="-1" Cut="     0.000000E+00" cType="1"     res="    -4.285715E-01" rms="0.0e-00"     purity="0.00000000E+00" nType="-99">
                            </Node>
                        </Node>
                        <Node pos="r" depth="6" NCoef="0"     IVar="-1" Cut="     0.000000E+00" cType="1"     res="    -5.441861E-01" rms="0.0e-00"     purity="0.00000000E+00" nType="-99">
                        </Node>
                    </Node>
                    <Node pos="r" depth="5" NCoef="0"     IVar="8" Cut="     4.079497E-02" cType="1"     res="     0.000000E+00" rms="0.0"     purity="0.00000000E+00" nType="0">
                        <Node pos="l" depth="6" NCoef="0"     IVar="5" Cut="     4.841125E-03" cType="1"     res="     0.000000E+00" rms="0.0"     purity="0.00000000E+00" nType="0">
                            <Node pos="l" depth="7" NCoef="0"     IVar="-1" Cut="     0.000000E+00" cType="1"     res="    -6.569344E-02" rms="0.0e-00"     purity="0.00000000E+00" nType="-99">
                            </Node>
                            <Node pos="r" depth="7" NCoef="0"     IVar="-1" Cut="     0.000000E+00" cType="1"     res="    -5.922330E-01" rms="0.0e-00"     purity="0.00000000E+00" nType="-99">
                            </Node>
                        </Node>
                        <Node pos="r" depth="6" NCoef="0"     IVar="6" Cut="     6.079144E-03" cType="1"     res="     0.000000E+00" rms="0.0"     purity="0.00000000E+00" nType="0">
                            <Node pos="l" depth="7" NCoef="0"     IVar="-1" Cut="     0.000000E+00" cType="1"     res="     4.468085E-01" rms="0.0e-00"     purity="0.00000000E+00" nType="-99">
                            </Node>
                            <Node pos="r" depth="7" NCoef="0"     IVar="-1" Cut="     0.000000E+00" cType="1"     res="    -4.800000E-01" rms="0.0e-00"     purity="0.00000000E+00" nType="-99">
                            </Node>
                        </Node>
                    </Node>
                </Node>
                <Node pos="r" depth="4" NCoef="0"     IVar="14" Cut="     2.129921E+00" cType="1"     res="     0.000000E+00" rms="0.0"     purity="0.00000000E+00" nType="0">
                    <Node pos="l" depth="5" NCoef="0"     IVar="19" Cut="     8.433267E-02" cType="1"     res="     0.000000E+00" rms="0.0"     purity="0.00000000E+00" nType="0">
                        <Node pos="l" depth="6" NCoef="0"     IVar="17" Cut="     3.232689E+01" cType="1"     res="     0.000000E+00" rms="0.0"     purity="0.00000000E+00" nType="0">
                            <Node pos="l" depth="7" NCoef="0"     IVar="-1" Cut="     0.000000E+00" cType="1"     res="    -2.790961E-01" rms="0.0e-00"     purity="0.00000000E+00" nType="-99">
                            </Node>
                            <Node pos="r" depth="7" NCoef="0"     IVar="-1" Cut="     0.000000E+00" cType="1"     res="    -5.741683E-01" rms="0.0e-00"     purity="0.00000000E+00" nType="-99">
                            </Node>
                        </Node>
                        <Node pos="r" depth="6" NCoef="0"     IVar="6" Cut="     5.456810E-03" cType="1"     res="     0.000000E+00" rms="0.0"     purity="0.00000000E+00" nType="0">
                            <Node pos="l" depth="7" NCoef="0"     IVar="-1" Cut="     0.000000E+00" cType="1"     res="    -1.938462E-01" rms="0.0e-00"     purity="0.00000000E+00" nType="-99">
                            </Node>
                            <Node pos="r" depth="7" NCoef="0"     IVar="-1" Cut="     0.000000E+00" cType="1"     res="    -5.931148E-01" rms="0.0e-00"     purity="0.00000000E+00" nType="-99">
                            </Node>
                        </Node>
                    </Node>
                    <Node pos="r" depth="5" NCoef="0"     IVar="6" Cut="     5.896910E-03" cType="1"     res="     0.000000E+00" rms="0.0"     purity="0.00000000E+00" nType="0">
                        <Node pos="l" depth="6" NCoef="0"     IVar="15" Cut="     5.128019E+00" cType="1"     res="     0.000000E+00" rms="0.0"     purity="0.00000000E+00" nType="0">
                            <Node pos="l" depth="7" NCoef="0"     IVar="-1" Cut="     0.000000E+00" cType="1"     res="     1.727079E-01" rms="0.0e-00"     purity="0.00000000E+00" nType="-99">
                            </Node>
                            <Node pos="r" depth="7" NCoef="0"     IVar="-1" Cut="     0.000000E+00" cType="1"     res="    -3.546135E-01" rms="0.0e-00"     purity="0.00000000E+00" nType="-99">
                            </Node>
                        </Node>
                        <Node pos="r" depth="6" NCoef="0"     IVar="16" Cut="     1.158994E+01" cType="1"     res="     0.000000E+00" rms="0.0"     purity="0.00000000E+00" nType="0">
                            <Node pos="l" depth="7" NCoef="0"     IVar="-1" Cut="     0.000000E+00" cType="1"     res="    -3.921902E-01" rms="0.0e-00"     purity="0.00000000E+00" nType="-99">
                            </Node>
                            <Node pos="r" depth="7" NCoef="0"     IVar="-1" Cut="     0.000000E+00" cType="1"     res="    -5.971831E-01" rms="0.0e-00"     purity="0.00000000E+00" nType="-99">
                            </Node>
                        </Node>
                    </Node>
                </Node>
            </Node>
        </Node>
        <Node pos="r" depth="2" NCoef="0"     IVar="6" Cut="     4.932020E-03" cType="1"     res="     0.000000E+00" rms="0.0"     purity="0.00000000E+00" nType="0">
            <Node pos="l" depth="3" NCoef="0"     IVar="19" Cut="     3.339646E-01" cType="1"     res="     0.000000E+00" rms="0.0"     purity="0.00000000E+00" nType="0">
                <Node pos="l" depth="4" NCoef="0"     IVar="8" Cut="     4.806871E-02" cType="1"     res="     0.000000E+00" rms="0.0"     purity="0.00000000E+00" nType="0">
                    <Node pos="l" depth="5" NCoef="0"     IVar="13" Cut="     2.194339E-01" cType="1"     res="     0.000000E+00" rms="0.0"     purity="0.00000000E+00" nType="0">
                        <Node pos="l" depth="6" NCoef="0"     IVar="17" Cut="     2.956332E+01" cType="1"     res="     0.000000E+00" rms="0.0"     purity="0.00000000E+00" nType="0">
                            <Node pos="l" depth="7" NCoef="0"     IVar="-1" Cut="     0.000000E+00" cType="1"     res="     5.455773E-01" rms="0.0e-00"     purity="0.00000000E+00" nType="-99">
                            </Node>
                            <Node pos="r" depth="7" NCoef="0"     IVar="-1" Cut="     0.000000E+00" cType="1"     res="    -2.117647E-02" rms="0.0e-00"     purity="0.00000000E+00" nType="-99">
                            </Node>
                        </Node>
                        <Node pos="r" depth="6" NCoef="0"     IVar="-1" Cut="     0.000000E+00" cType="1"     res="    -5.867404E-01" rms="0.0e-00"     purity="0.00000000E+00" nType="-99">
                        </Node>
                    </Node>
                    <Node pos="r" depth="5" NCoef="0"     IVar="18" Cut="     6.586751E+01" cType="1"     res="     0.000000E+00" rms="0.0"     purity="0.00000000E+00" nType="0">
                        <Node pos="l" depth="6" NCoef="0"     IVar="8" Cut="     4.973012E-02" cType="1"     res="     0.000000E+00" rms="0.0"     purity="0.00000000E+00" nType="0">
                            <Node pos="l" depth="7" NCoef="0"     IVar="-1" Cut="     0.000000E+00" cType="1"     res="    -1.077844E-02" rms="0.0e-00"     purity="0.00000000E+00" nType="-99">
                            </Node>
                            <Node pos="r" depth="7" NCoef="0"     IVar="-1" Cut="     0.000000E+00" cType="1"     res="    -5.488372E-01" rms="0.0e-00"     purity="0.00000000E+00" nType="-99">
                            </Node>
                        </Node>
                        <Node pos="r" depth="6" NCoef="0"     IVar="17" Cut="     2.873702E+01" cType="1"     res="     0.000000E+00" rms="0.0"     purity="0.00000000E+00" nType="0">
                            <Node pos="l" depth="7" NCoef="0"     IVar="-1" Cut="     0.000000E+00" cType="1"     res="     5.278397E-01" rms="0.0e-00"     purity="0.00000000E+00" nType="-99">
                            </Node>
                            <Node pos="r" depth="7" NCoef="0"     IVar="-1" Cut="     0.000000E+00" cType="1"     res="    -2.990826E-01" rms="0.0e-00"     purity="0.00000000E+00" nType="-99">
                            </Node>
                        </Node>
                    </Node>
                </Node>
                <Node pos="r" depth="4" NCoef="0"     IVar="5" Cut="     3.841695E-03" cType="1"     res="     0.000000E+00" rms="0.0"     purity="0.00000000E+00" nType="0">
                    <Node pos="l" depth="5" NCoef="0"     IVar="0" Cut="     2.800000E+01" cType="1"     res="     0.000000E+00" rms="0.0"     purity="0.00000000E+00" nType="0">
                        <Node pos="l" depth="6" NCoef="0"     IVar="4" Cut="     9.976345E+00" cType="1"     res="     0.000000E+00" rms="0.0"     purity="0.00000000E+00" nType="0">
                            <Node pos="l" depth="7" NCoef="0"     IVar="-1" Cut="     0.000000E+00" cType="1"     res="    -1.285714E-01" rms="0.0e-00"     purity="0.00000000E+00" nType="-99">
                            </Node>
                            <Node pos="r" depth="7" NCoef="0"     IVar="-1" Cut="     0.000000E+00" cType="1"     res="    -5.998034E-01" rms="0.0e-00"     purity="0.00000000E+00" nType="-99">
                            </Node>
                        </Node>
                        <Node pos="r" depth="6" NCoef="0"     IVar="-1" Cut="     0.000000E+00" cType="1"     res="     4.560000E-01" rms="0.0e-00"     purity="0.00000000E+00" nType="-99">
                        </Node>
                    </Node>
                    <Node pos="r" depth="5" NCoef="0"     IVar="8" Cut="     4.145125E-02" cType="1"     res="     0.000000E+00" rms="0.0"     purity="0.00000000E+00" nType="0">
                        <Node pos="l" depth="6" NCoef="0"     IVar="6" Cut="     4.655207E-03" cType="1"     res="     0.000000E+00" rms="0.0"     purity="0.00000000E+00" nType="0">
                            <Node pos="l" depth="7" NCoef="0"     IVar="-1" Cut="     0.000000E+00" cType="1"     res="     3.906977E-01" rms="0.0e-00"     purity="0.00000000E+00" nType="-99">
                            </Node>
                            <Node pos="r" depth="7" NCoef="0"     IVar="-1" Cut="     0.000000E+00" cType="1"     res="    -5.680000E-01" rms="0.0e-00"     purity="0.00000000E+00" nType="-99">
                            </Node>
                        </Node>
                        <Node pos="r" depth="6" NCoef="0"     IVar="16" Cut="     1.010406E+01" cType="1"     res="     0.000000E+00" rms="0.0"     purity="0.00000000E+00" nType="0">
                            <Node pos="l" depth="7" NCoef="0"     IVar="-1" Cut="     0.000000E+00" cType="1"     res="    -2.062500E-01" rms="0.0e-00"     purity="0.00000000E+00" nType="-99">
                            </Node>
                            <Node pos="r" depth="7" NCoef="0"     IVar="-1" Cut="     0.000000E+00" cType="1"     res="    -5.676074E-01" rms="0.0e-00"     purity="0.00000000E+00" nType="-99">
                            </Node>
                        </Node>
                    </Node>
                </Node>
            </Node>
            <Node pos="r" depth="3" NCoef="0"     IVar="6" Cut="     5.384784E-03" cType="1"     res="     0.000000E+00" rms="0.0"     purity="0.00000000E+00" nType="0">
                <Node pos="l" depth="4" NCoef="0"     IVar="19" Cut="     2.757942E-01" cType="1"     res="     0.000000E+00" rms="0.0"     purity="0.00000000E+00" nType="0">
                    <Node pos="l" depth="5" NCoef="0"     IVar="8" Cut="     4.879332E-02" cType="1"     res="     0.000000E+00" rms="0.0"     purity="0.00000000E+00" nType="0">
                        <Node pos="l" depth="6" NCoef="0"     IVar="13" Cut="     1.645724E-01" cType="1"     res="     0.000000E+00" rms="0.0"     purity="0.00000000E+00" nType="0">
                            <Node pos="l" depth="7" NCoef="0"     IVar="-1" Cut="     0.000000E+00" cType="1"     res="     2.318477E-01" rms="0.0e-00"     purity="0.00000000E+00" nType="-99">
                            </Node>
                            <Node pos="r" depth="7" NCoef="0"     IVar="-1" Cut="     0.000000E+00" cType="1"     res="    -4.530613E-01" rms="0.0e-00"     purity="0.00000000E+00" nType="-99">
                            </Node>
                        </Node>
                        <Node pos="r" depth="6" NCoef="0"     IVar="0" Cut="     1.850000E+01" cType="1"     res="     0.000000E+00" rms="0.0"     purity="0.00000000E+00" nType="0">
                            <Node pos="l" depth="7" NCoef="0"     IVar="-1" Cut="     0.000000E+00" cType="1"     res="    -4.984659E-01" rms="0.0e-00"     purity="0.00000000E+00" nType="-99">
                            </Node>
                            <Node pos="r" depth="7" NCoef="0"     IVar="-1" Cut="     0.000000E+00" cType="1"     res="     9.152542E-02" rms="0.0e-00"     purity="0.00000000E+00" nType="-99">
                            </Node>
                        </Node>
                    </Node>
                    <Node pos="r" depth="5" NCoef="0"     IVar="19" Cut="     3.701577E-01" cType="1"     res="     0.000000E+00" rms="0.0"     purity="0.00000000E+00" nType="0">
                        <Node pos="l" depth="6" NCoef="0"     IVar="8" Cut="     4.742933E-02" cType="1"     res="     0.000000E+00" rms="0.0"     purity="0.00000000E+00" nType="0">
                            <Node pos="l" depth="7" NCoef="0"     IVar="-1" Cut="     0.000000E+00" cType="1"     res="    -2.030668E-01" rms="0.0e-00"     purity="0.00000000E+00" nType="-99">
                            </Node>
                            <Node pos="r" depth="7" NCoef="0"     IVar="-1" Cut="     0.000000E+00" cType="1"     res="    -5.986645E-01" rms="0.0e-00"     purity="0.00000000E+00" nType="-99">
                            </Node>
                        </Node>
                        <Node pos="r" depth="6" NCoef="0"     IVar="10" Cut="     2.538274E-01" cType="1"     res="     0.000000E+00" rms="0.0"     purity="0.00000000E+00" nType="0">
                            <Node pos="l" depth="7" NCoef="0"     IVar="-1" Cut="     0.000000E+00" cType="1"     res="    -5.940040E-01" rms="0.0e-00"     purity="0.00000000E+00" nType="-99">
                            </Node>
                            <Node pos="r" depth="7" NCoef="0"     IVar="-1" Cut="     0.000000E+00" cType="1"     res="    -3.969231E-01" rms="0.0e-00"     purity="0.00000000E+00" nType="-99">
                            </Node>
                        </Node>
                    </Node>
                </Node>
                <Node pos="r" depth="4" NCoef="0"     IVar="8" Cut="     4.163415E-02" cType="1"     res="     0.000000E+00" rms="0.0"     purity="0.00000000E+00" nType="0">
                    <Node pos="l" depth="5" NCoef="0"     IVar="19" Cut="     2.140941E-01" cType="1"     res="     0.000000E+00" rms="0.0"     purity="0.00000000E+00" nType="0">
                        <Node pos="l" depth="6" NCoef="0"     IVar="17" Cut="     2.450722E+01" cType="1"     res="     0.000000E+00" rms="0.0"     purity="0.00000000E+00" nType="0">
                            <Node pos="l" depth="7" NCoef="0"     IVar="-1" Cut="     0.000000E+00" cType="1"     res="     1.287009E-01" rms="0.0e-00"     purity="0.00000000E+00" nType="-99">
                            </Node>
                            <Node pos="r" depth="7" NCoef="0"     IVar="-1" Cut="     0.000000E+00" cType="1"     res="    -5.938619E-01" rms="0.0e-00"     purity="0.00000000E+00" nType="-99">
                            </Node>
                        </Node>
                        <Node pos="r" depth="6" NCoef="0"     IVar="19" Cut="     4.013395E-01" cType="1"     res="     0.000000E+00" rms="0.0"     purity="0.00000000E+00" nType="0">
                            <Node pos="l" depth="7" NCoef="0"     IVar="-1" Cut="     0.000000E+00" cType="1"     res="    -4.844869E-01" rms="0.0e-00"     purity="0.00000000E+00" nType="-99">
                            </Node>
                            <Node pos="r" depth="7" NCoef="0"     IVar="-1" Cut="     0.000000E+00" cType="1"     res="    -5.952005E-01" rms="0.0e-00"     purity="0.00000000E+00" nType="-99">
                            </Node>
                        </Node>
                    </Node>
                    <Node pos="r" depth="5" NCoef="0"     IVar="6" Cut="     5.770147E-03" cType="1"     res="     0.000000E+00" rms="0.0"     purity="0.00000000E+00" nType="0">
                        <Node pos="l" depth="6" NCoef="0"     IVar="19" Cut="     1.972854E-01" cType="1"     res="     0.000000E+00" rms="0.0"     purity="0.00000000E+00" nType="0">
                            <Node pos="l" depth="7" NCoef="0"     IVar="-1" Cut="     0.000000E+00" cType="1"     res="    -4.650456E-01" rms="0.0e-00"     purity="0.00000000E+00" nType="-99">
                            </Node>
                            <Node pos="r" depth="7" NCoef="0"     IVar="-1" Cut="     0.000000E+00" cType="1"     res="    -5.868284E-01" rms="0.0e-00"     purity="0.00000000E+00" nType="-99">
                            </Node>
                        </Node>
                        <Node pos="r" depth="6" NCoef="0"     IVar="19" Cut="     2.819513E-01" cType="1"     res="     0.000000E+00" rms="0.0"     purity="0.00000000E+00" nType="0">
                            <Node pos="l" depth="7" NCoef="0"     IVar="-1" Cut="     0.000000E+00" cType="1"     res="    -5.926272E-01" rms="0.0e-00"     purity="0.00000000E+00" nType="-99">
                            </Node>
                            <Node pos="r" depth="7" NCoef="0"     IVar="-1" Cut="     0.000000E+00" cType="1"     res="    -5.995227E-01" rms="0.0e-00"     purity="0.00000000E+00" nType="-99">
                            </Node>
                        </Node>
                    </Node>
                </Node>
            </Node>
        </Node>
    </Node>
</BinaryTree>
<BinaryTree type="DecisionTree" boostWeight="0.0" itree="1">
    <Node pos="c" depth="1" NCoef="0"     IVar="19" Cut="     1.412316E-01" cType="1"     res="     0.000000E+00" rms="0.0"     purity="0.00000000E+00" nType="0">
        <Node pos="l" depth="2" NCoef="0"     IVar="6" Cut="     5.466829E-03" cType="1"     res="     0.000000E+00" rms="0.0"     purity="0.00000000E+00" nType="0">
            <Node pos="l" depth="3" NCoef="0"     IVar="8" Cut="     5.364688E-02" cType="1"     res="     0.000000E+00" rms="0.0"     purity="0.00000000E+00" nType="0">
                <Node pos="l" depth="4" NCoef="0"     IVar="6" Cut="     4.974955E-03" cType="1"     res="     0.000000E+00" rms="0.0"     purity="0.00000000E+00" nType="0">
                    <Node pos="l" depth="5" NCoef="0"     IVar="13" Cut="     2.585777E-01" cType="1"     res="     0.000000E+00" rms="0.0"     purity="0.00000000E+00" nType="0">
                        <Node pos="l" depth="6" NCoef="0"     IVar="17" Cut="     2.698500E+01" cType="1"     res="     0.000000E+00" rms="0.0"     purity="0.00000000E+00" nType="0">
                            <Node pos="l" depth="7" NCoef="0"     IVar="-1" Cut="     0.000000E+00" cType="1"     res="     4.636476E-01" rms="0.0e-00"     purity="0.00000000E+00" nType="-99">
                            </Node>
                            <Node pos="r" depth="7" NCoef="0"     IVar="-1" Cut="     0.000000E+00" cType="1"     res="     3.915690E-01" rms="0.0e-00"     purity="0.00000000E+00" nType="-99">
                            </Node>
                        </Node>
                        <Node pos="r" depth="6" NCoef="0"     IVar="14" Cut="     1.144737E+00" cType="1"     res="     0.000000E+00" rms="0.0"     purity="0.00000000E+00" nType="0">
                            <Node pos="l" depth="7" NCoef="0"     IVar="-1" Cut="     0.000000E+00" cType="1"     res="     3.974060E-01" rms="0.0e-00"     purity="0.00000000E+00" nType="-99">
                            </Node>
                            <Node pos="r" depth="7" NCoef="0"     IVar="-1" Cut="     0.000000E+00" cType="1"     res="    -4.356848E-01" rms="0.0e-00"     purity="0.00000000E+00" nType="-99">
                            </Node>
                        </Node>
                    </Node>
                    <Node pos="r" depth="5" NCoef="0"     IVar="8" Cut="     4.719441E-02" cType="1"     res="     0.000000E+00" rms="0.0"     purity="0.00000000E+00" nType="0">
                        <Node pos="l" depth="6" NCoef="0"     IVar="13" Cut="     2.263463E-01" cType="1"     res="     0.000000E+00" rms="0.0"     purity="0.00000000E+00" nType="0">
                            <Node pos="l" depth="7" NCoef="0"     IVar="-1" Cut="     0.000000E+00" cType="1"     res="     3.799919E-01" rms="0.0e-00"     purity="0.00000000E+00" nType="-99">
                            </Node>
                            <Node pos="r" depth="7" NCoef="0"     IVar="-1" Cut="     0.000000E+00" cType="1"     res="    -4.474680E-01" rms="0.0e-00"     purity="0.00000000E+00" nType="-99">
                            </Node>
                        </Node>
                        <Node pos="r" depth="6" NCoef="0"     IVar="18" Cut="     7.038925E+01" cType="1"     res="     0.000000E+00" rms="0.0"     purity="0.00000000E+00" nType="0">
                            <Node pos="l" depth="7" NCoef="0"     IVar="-1" Cut="     0.000000E+00" cType="1"     res="    -4.171579E-01" rms="0.0e-00"     purity="0.00000000E+00" nType="-99">
                            </Node>
                            <Node pos="r" depth="7" NCoef="0"     IVar="-1" Cut="     0.000000E+00" cType="1"     res="     2.472520E-01" rms="0.0e-00"     purity="0.00000000E+00" nType="-99">
                            </Node>
                        </Node>
                    </Node>
                </Node>
                <Node pos="r" depth="4" NCoef="0"     IVar="14" Cut="     2.269657E+00" cType="1"     res="     0.000000E+00" rms="0.0"     purity="0.00000000E+00" nType="0">
                    <Node pos="l" depth="5" NCoef="0"     IVar="17" Cut="     3.005187E+01" cType="1"     res="     0.000000E+00" rms="0.0"     purity="0.00000000E+00" nType="0">
                        <Node pos="l" depth="6" NCoef="0"     IVar="18" Cut="     7.114411E+01" cType="1"     res="     0.000000E+00" rms="0.0"     purity="0.00000000E+00" nType="0">
                            <Node pos="l" depth="7" NCoef="0"     IVar="-1" Cut="     0.000000E+00" cType="1"     res="    -3.227675E-01" rms="0.0e-00"     purity="0.00000000E+00" nType="-99">
                            </Node>
                            <Node pos="r" depth="7" NCoef="0"     IVar="-1" Cut="     0.000000E+00" cType="1"     res="     4.384052E-01" rms="0.0e-00"     purity="0.00000000E+00" nType="-99">
                            </Node>
                        </Node>
                        <Node pos="r" depth="6" NCoef="0"     IVar="-1" Cut="     0.000000E+00" cType="1"     res="    -4.762692E-01" rms="0.0e-00"     purity="0.00000000E+00" nType="-99">
                        </Node>
                    </Node>
                    <Node pos="r" depth="5" NCoef="0"     IVar="18" Cut="     8.055853E+01" cType="1"     res="     0.000000E+00" rms="0.0"     purity="0.00000000E+00" nType="0">
                        <Node pos="l" depth="6" NCoef="0"     IVar="-1" Cut="     0.000000E+00" cType="1"     res="    -4.553021E-01" rms="0.0e-00"     purity="0.00000000E+00" nType="-99">
                        </Node>
                        <Node pos="r" depth="6" NCoef="0"     IVar="10" Cut="     8.070113E-02" cType="1"     res="     0.000000E+00" rms="0.0"     purity="0.00000000E+00" nType="0">
                            <Node pos="l" depth="7" NCoef="0"     IVar="-1" Cut="     0.000000E+00" cType="1"     res="    -3.443618E-01" rms="0.0e-00"     purity="0.00000000E+00" nType="-99">
                            </Node>
                            <Node pos="r" depth="7" NCoef="0"     IVar="-1" Cut="     0.000000E+00" cType="1"     res="     4.563084E-01" rms="0.0e-00"     purity="0.00000000E+00" nType="-99">
                            </Node>
                        </Node>
                    </Node>
                </Node>
            </Node>
            <Node pos="r" depth="3" NCoef="0"     IVar="8" Cut="     4.248662E-02" cType="1"     res="     0.000000E+00" rms="0.0"     purity="0.00000000E+00" nType="0">
                <Node pos="l" depth="4" NCoef="0"     IVar="6" Cut="     6.137121E-03" cType="1"     res="     0.000000E+00" rms="0.0"     purity="0.00000000E+00" nType="0">
                    <Node pos="l" depth="5" NCoef="0"     IVar="17" Cut="     2.989495E+01" cType="1"     res="     0.000000E+00" rms="0.0"     purity="0.00000000E+00" nType="0">
                        <Node pos="l" depth="6" NCoef="0"     IVar="15" Cut="     4.183531E+00" cType="1"     res="     0.000000E+00" rms="0.0"     purity="0.00000000E+00" nType="0">
                            <Node pos="l" depth="7" NCoef="0"     IVar="-1" Cut="     0.000000E+00" cType="1"     res="    -4.663145E-01" rms="0.0e-00"     purity="0.00000000E+00" nType="-99">
                            </Node>
                            <Node pos="r" depth="7" NCoef="0"     IVar="-1" Cut="     0.000000E+00" cType="1"     res="     2.839972E-01" rms="0.0e-00"     purity="0.00000000E+00" nType="-99">
                            </Node>
                        </Node>
                        <Node pos="r" depth="6" NCoef="0"     IVar="-1" Cut="     0.000000E+00" cType="1"     res="    -4.737478E-01" rms="0.0e-00"     purity="0.00000000E+00" nType="-99">
                        </Node>
                    </Node>
                    <Node pos="r" depth="5" NCoef="0"     IVar="8" Cut="     3.181667E-02" cType="1"     res="     0.000000E+00" rms="0.0"     purity="0.00000000E+00" nType="0">
                        <Node pos="l" depth="6" NCoef="0"     IVar="16" Cut="     1.088168E+01" cType="1"     res="     0.000000E+00" rms="0.0"     purity="0.00000000E+00" nType="0">
                            <Node pos="l" depth="7" NCoef="0"     IVar="-1" Cut="     0.000000E+00" cType="1"     res="     3.770028E-01" rms="0.0e-00"     purity="0.00000000E+00" nType="-99">
                            </Node>
                            <Node pos="r" depth="7" NCoef="0"     IVar="-1" Cut="     0.000000E+00" cType="1"     res="    -3.540902E-01" rms="0.0e-00"     purity="0.00000000E+00" nType="-99">
                            </Node>
                        </Node>
                        <Node pos="r" depth="6" NCoef="0"     IVar="8" Cut="     4.244215E-02" cType="1"     res="     0.000000E+00" rms="0.0"     purity="0.00000000E+00" nType="0">
                            <Node pos="l" depth="7" NCoef="0"     IVar="-1" Cut="     0.000000E+00" cType="1"     res="    -4.864308E-01" rms="0.0e-00"     purity="0.00000000E+00" nType="-99">
                            </Node>
                            <Node pos="r" depth="7" NCoef="0"     IVar="-1" Cut="     0.000000E+00" cType="1"     res="     5.370969E-01" rms="0.0e-00"     purity="0.00000000E+00" nType="-99">
                            </Node>
                        </Node>
                    </Node>
                </Node>
                <Node pos="r" depth="4" NCoef="0"     IVar="8" Cut="     4.991987E-02" cType="1"     res="     0.000000E+00" rms="0.0"     purity="0.00000000E+00" nType="0">
                    <Node pos="l" depth="5" NCoef="0"     IVar="6" Cut="     5.998696E-03" cType="1"     res="     0.000000E+00" rms="0.0"     purity="0.00000000E+00" nType="0">
                        <Node pos="l" depth="6" NCoef="0"     IVar="18" Cut="     7.284616E+01" cType="1"     res="     0.000000E+00" rms="0.0"     purity="0.00000000E+00" nType="0">
                            <Node pos="l" depth="7" NCoef="0"     IVar="-1" Cut="     0.000000E+00" cType="1"     res="    -2.640038E-01" rms="0.0e-00"     purity="0.00000000E+00" nType="-99">
                            </Node>
                            <Node pos="r" depth="7" NCoef="0"     IVar="-1" Cut="     0.000000E+00" cType="1"     res="     1.433131E-01" rms="0.0e-00"     purity="0.00000000E+00" nType="-99">
                            </Node>
                        </Node>
                        <Node pos="r" depth="6" NCoef="0"     IVar="18" Cut="     8.325259E+01" cType="1"     res="     0.000000E+00" rms="0.0"     purity="0.00000000E+00" nType="0">
                            <Node pos="l" depth="7" NCoef="0"     IVar="-1" Cut="     0.000000E+00" cType="1"     res="    -4.738223E-01" rms="0.0e-00"     purity="0.00000000E+00" nType="-99">
                            </Node>
                            <Node pos="r" depth="7" NCoef="0"     IVar="-1" Cut="     0.000000E+00" cType="1"     res="    -7.461559E-02" rms="0.0e-00"     purity="0.00000000E+00" nType="-99">
                            </Node>
                        </Node>
                    </Node>
                    <Node pos="r" depth="5" NCoef="0"     IVar="11" Cut="     1.241995E-02" cType="1"     res="     0.000000E+00" rms="0.0"     purity="0.00000000E+00" nType="0">
                        <Node pos="l" depth="6" NCoef="0"     IVar="10" Cut="     5.856379E-02" cType="1"     res="     0.000000E+00" rms="0.0"     purity="0.00000000E+00" nType="0">
                            <Node pos="l" depth="7" NCoef="0"     IVar="-1" Cut="     0.000000E+00" cType="1"     res="    -1.280909E-01" rms="0.0e-00"     purity="0.00000000E+00" nType="-99">
                            </Node>
                            <Node pos="r" depth="7" NCoef="0"     IVar="-1" Cut="     0.000000E+00" cType="1"     res="    -4.639351E-01" rms="0.0e-00"     purity="0.00000000E+00" nType="-99">
                            </Node>
                        </Node>
                        <Node pos="r" depth="6" NCoef="0"     IVar="0" Cut="     1.750000E+01" cType="1"     res="     0.000000E+00" rms="0.0"     purity="0.00000000E+00" nType="0">
                            <Node pos="l" depth="7" NCoef="0"     IVar="-1" Cut="     0.000000E+00" cType="1"     res="    -4.071390E-01" rms="0.0e-00"     purity="0.00000000E+00" nType="-99">
                            </Node>
                            <Node pos="r" depth="7" NCoef="0"     IVar="-1" Cut="     0.000000E+00" cType="1"     res="     4.597730E-01" rms="0.0e-00"     purity="0.00000000E+00" nType="-99">
                            </Node>
                        </Node>
                    </Node>
                </Node>
            </Node>
        </Node>
        <Node pos="r" depth="2" NCoef="0"     IVar="6" Cut="     4.942931E-03" cType="1"     res="     0.000000E+00" rms="0.0"     purity="0.00000000E+00" nType="0">
            <Node pos="l" depth="3" NCoef="0"     IVar="19" Cut="     3.339646E-01" cType="1"     res="     0.000000E+00" rms="0.0"     purity="0.00000000E+00" nType="0">
                <Node pos="l" depth="4" NCoef="0"     IVar="8" Cut="     4.780862E-02" cType="1"     res="     0.000000E+00" rms="0.0"     purity="0.00000000E+00" nType="0">
                    <Node pos="l" depth="5" NCoef="0"     IVar="13" Cut="     2.194339E-01" cType="1"     res="     0.000000E+00" rms="0.0"     purity="0.00000000E+00" nType="0">
                        <Node pos="l" depth="6" NCoef="0"     IVar="17" Cut="     2.889473E+01" cType="1"     res="     0.000000E+00" rms="0.0"     purity="0.00000000E+00" nType="0">
                            <Node pos="l" depth="7" NCoef="0"     IVar="-1" Cut="     0.000000E+00" cType="1"     res="     4.237195E-01" rms="0.0e-00"     purity="0.00000000E+00" nType="-99">
                            </Node>
                            <Node pos="r" depth="7" NCoef="0"     IVar="-1" Cut="     0.000000E+00" cType="1"     res="     6.619600E-02" rms="0.0e-00"     purity="0.00000000E+00" nType="-99">
                            </Node>
                        </Node>
                        <Node pos="r" depth="6" NCoef="0"     IVar="-1" Cut="     0.000000E+00" cType="1"     res="    -4.576511E-01" rms="0.0e-00"     purity="0.00000000E+00" nType="-99">
                        </Node>
                    </Node>
                    <Node pos="r" depth="5" NCoef="0"     IVar="18" Cut="     7.223334E+01" cType="1"     res="     0.000000E+00" rms="0.0"     purity="0.00000000E+00" nType="0">
                        <Node pos="l" depth="6" NCoef="0"     IVar="6" Cut="     4.565723E-03" cType="1"     res="     0.000000E+00" rms="0.0"     purity="0.00000000E+00" nType="0">
                            <Node pos="l" depth="7" NCoef="0"     IVar="-1" Cut="     0.000000E+00" cType="1"     res="     1.875741E-02" rms="0.0e-00"     purity="0.00000000E+00" nType="-99">
                            </Node>
                            <Node pos="r" depth="7" NCoef="0"     IVar="-1" Cut="     0.000000E+00" cType="1"     res="    -4.042137E-01" rms="0.0e-00"     purity="0.00000000E+00" nType="-99">
                            </Node>
                        </Node>
                        <Node pos="r" depth="6" NCoef="0"     IVar="17" Cut="     3.159469E+01" cType="1"     res="     0.000000E+00" rms="0.0"     purity="0.00000000E+00" nType="0">
                            <Node pos="l" depth="7" NCoef="0"     IVar="-1" Cut="     0.000000E+00" cType="1"     res="     4.421229E-01" rms="0.0e-00"     purity="0.00000000E+00" nType="-99">
                            </Node>
                            <Node pos="r" depth="7" NCoef="0"     IVar="-1" Cut="     0.000000E+00" cType="1"     res="    -2.695701E-01" rms="0.0e-00"     purity="0.00000000E+00" nType="-99">
                            </Node>
                        </Node>
                    </Node>
                </Node>
                <Node pos="r" depth="4" NCoef="0"     IVar="9" Cut="     4.432783E-02" cType="1"     res="     0.000000E+00" rms="0.0"     purity="0.00000000E+00" nType="0">
                    <Node pos="l" depth="5" NCoef="0"     IVar="5" Cut="     3.864815E-03" cType="1"     res="     0.000000E+00" rms="0.0"     purity="0.00000000E+00" nType="0">
                        <Node pos="l" depth="6" NCoef="0"     IVar="-1" Cut="     0.000000E+00" cType="1"     res="    -3.410172E-01" rms="0.0e-00"     purity="0.00000000E+00" nType="-99">
                        </Node>
                        <Node pos="r" depth="6" NCoef="0"     IVar="-1" Cut="     0.000000E+00" cType="1"     res="     4.556494E-01" rms="0.0e-00"     purity="0.00000000E+00" nType="-99">
                        </Node>
                    </Node>
                    <Node pos="r" depth="5" NCoef="0"     IVar="16" Cut="     1.009598E+01" cType="1"     res="     0.000000E+00" rms="0.0"     purity="0.00000000E+00" nType="0">
                        <Node pos="l" depth="6" NCoef="0"     IVar="18" Cut="     5.624339E+01" cType="1"     res="     0.000000E+00" rms="0.0"     purity="0.00000000E+00" nType="0">
                            <Node pos="l" depth="7" NCoef="0"     IVar="-1" Cut="     0.000000E+00" cType="1"     res="    -4.928642E-01" rms="0.0e-00"     purity="0.00000000E+00" nType="-99">
                            </Node>
                            <Node pos="r" depth="7" NCoef="0"     IVar="-1" Cut="     0.000000E+00" cType="1"     res="     3.133135E-01" rms="0.0e-00"     purity="0.00000000E+00" nType="-99">
                            </Node>
                        </Node>
                        <Node pos="r" depth="6" NCoef="0"     IVar="18" Cut="     1.097230E+02" cType="1"     res="     0.000000E+00" rms="0.0"     purity="0.00000000E+00" nType="0">
                            <Node pos="l" depth="7" NCoef="0"     IVar="-1" Cut="     0.000000E+00" cType="1"     res="    -4.604442E-01" rms="0.0e-00"     purity="0.00000000E+00" nType="-99">
                            </Node>
                            <Node pos="r" depth="7" NCoef="0"     IVar="-1" Cut="     0.000000E+00" cType="1"     res="     1.160144E-01" rms="0.0e-00"     purity="0.00000000E+00" nType="-99">
                            </Node>
                        </Node>
                    </Node>
                </Node>
            </Node>
            <Node pos="r" depth="3" NCoef="0"     IVar="6" Cut="     5.512476E-03" cType="1"     res="     0.000000E+00" rms="0.0"     purity="0.00000000E+00" nType="0">
                <Node pos="l" depth="4" NCoef="0"     IVar="19" Cut="     1.912019E-01" cType="1"     res="     0.000000E+00" rms="0.0"     purity="0.00000000E+00" nType="0">
                    <Node pos="l" depth="5" NCoef="0"     IVar="8" Cut="     5.096675E-02" cType="1"     res="     0.000000E+00" rms="0.0"     purity="0.00000000E+00" nType="0">
                        <Node pos="l" depth="6" NCoef="0"     IVar="17" Cut="     2.613586E+01" cType="1"     res="     0.000000E+00" rms="0.0"     purity="0.00000000E+00" nType="0">
                            <Node pos="l" depth="7" NCoef="0"     IVar="-1" Cut="     0.000000E+00" cType="1"     res="     3.379347E-01" rms="0.0e-00"     purity="0.00000000E+00" nType="-99">
                            </Node>
                            <Node pos="r" depth="7" NCoef="0"     IVar="-1" Cut="     0.000000E+00" cType="1"     res="    -3.862548E-02" rms="0.0e-00"     purity="0.00000000E+00" nType="-99">
                            </Node>
                        </Node>
                        <Node pos="r" depth="6" NCoef="0"     IVar="18" Cut="     8.591574E+01" cType="1"     res="     0.000000E+00" rms="0.0"     purity="0.00000000E+00" nType="0">
                            <Node pos="l" depth="7" NCoef="0"     IVar="-1" Cut="     0.000000E+00" cType="1"     res="    -4.277725E-01" rms="0.0e-00"     purity="0.00000000E+00" nType="-99">
                            </Node>
                            <Node pos="r" depth="7" NCoef="0"     IVar="-1" Cut="     0.000000E+00" cType="1"     res="     7.976999E-02" rms="0.0e-00"     purity="0.00000000E+00" nType="-99">
                            </Node>
                        </Node>
                    </Node>
                    <Node pos="r" depth="5" NCoef="0"     IVar="19" Cut="     3.010204E-01" cType="1"     res="     0.000000E+00" rms="0.0"     purity="0.00000000E+00" nType="0">
                        <Node pos="l" depth="6" NCoef="0"     IVar="8" Cut="     4.580776E-02" cType="1"     res="     0.000000E+00" rms="0.0"     purity="0.00000000E+00" nType="0">
                            <Node pos="l" depth="7" NCoef="0"     IVar="-1" Cut="     0.000000E+00" cType="1"     res="     3.664690E-02" rms="0.0e-00"     purity="0.00000000E+00" nType="-99">
                            </Node>
                            <Node pos="r" depth="7" NCoef="0"     IVar="-1" Cut="     0.000000E+00" cType="1"     res="    -3.955683E-01" rms="0.0e-00"     purity="0.00000000E+00" nType="-99">
                            </Node>
                        </Node>
                        <Node pos="r" depth="6" NCoef="0"     IVar="8" Cut="     3.082546E-02" cType="1"     res="     0.000000E+00" rms="0.0"     purity="0.00000000E+00" nType="0">
                            <Node pos="l" depth="7" NCoef="0"     IVar="-1" Cut="     0.000000E+00" cType="1"     res="    -2.125024E-01" rms="0.0e-00"     purity="0.00000000E+00" nType="-99">
                            </Node>
                            <Node pos="r" depth="7" NCoef="0"     IVar="-1" Cut="     0.000000E+00" cType="1"     res="    -4.549182E-01" rms="0.0e-00"     purity="0.00000000E+00" nType="-99">
                            </Node>
                        </Node>
                    </Node>
                </Node>
                <Node pos="r" depth="4" NCoef="0"     IVar="8" Cut="     4.309157E-02" cType="1"     res="     0.000000E+00" rms="0.0"     purity="0.00000000E+00" nType="0">
                    <Node pos="l" depth="5" NCoef="0"     IVar="19" Cut="     2.786024E-01" cType="1"     res="     0.000000E+00" rms="0.0"     purity="0.00000000E+00" nType="0">
                        <Node pos="l" depth="6" NCoef="0"     IVar="17" Cut="     2.377876E+01" cType="1"     res="     0.000000E+00" rms="0.0"     purity="0.00000000E+00" nType="0">
                            <Node pos="l" depth="7" NCoef="0"     IVar="-1" Cut="     0.000000E+00" cType="1"     res="    -1.086079E-01" rms="0.0e-00"     purity="0.00000000E+00" nType="-99">
                            </Node>
                            <Node pos="r" depth="7" NCoef="0"     IVar="-1" Cut="     0.000000E+00" cType="1"     res="    -4.418240E-01" rms="0.0e-00"     purity="0.00000000E+00" nType="-99">
                            </Node>
                        </Node>
                        <Node pos="r" depth="6" NCoef="0"     IVar="4" Cut="     8.384047E+01" cType="1"     res="     0.000000E+00" rms="0.0"     purity="0.00000000E+00" nType="0">
                            <Node pos="l" depth="7" NCoef="0"     IVar="-1" Cut="     0.000000E+00" cType="1"     res="    -4.588295E-01" rms="0.0e-00"     purity="0.00000000E+00" nType="-99">
                            </Node>
                            <Node pos="r" depth="7" NCoef="0"     IVar="-1" Cut="     0.000000E+00" cType="1"     res="    -1.998684E-02" rms="0.0e-00"     purity="0.00000000E+00" nType="-99">
                            </Node>
                        </Node>
                    </Node>
                    <Node pos="r" depth="5" NCoef="0"     IVar="6" Cut="     5.855218E-03" cType="1"     res="     0.000000E+00" rms="0.0"     purity="0.00000000E+00" nType="0">
                        <Node pos="l" depth="6" NCoef="0"     IVar="6" Cut="     5.855042E-03" cType="1"     res="     0.000000E+00" rms="0.0"     purity="0.00000000E+00" nType="0">
                            <Node pos="l" depth="7" NCoef="0"     IVar="-1" Cut="     0.000000E+00" cType="1"     res="    -4.531868E-01" rms="0.0e-00"     purity="0.00000000E+00" nType="-99">
                            </Node>
                            <Node pos="r" depth="7" NCoef="0"     IVar="-1" Cut="     0.000000E+00" cType="1"     res="     7.378719E-02" rms="0.0e-00"     purity="0.00000000E+00" nType="-99">
                            </Node>
                        </Node>
                        <Node pos="r" depth="6" NCoef="0"     IVar="19" Cut="     1.450031E-01" cType="1"     res="     0.000000E+00" rms="0.0"     purity="0.00000000E+00" nType="0">
                            <Node pos="l" depth="7" NCoef="0"     IVar="-1" Cut="     0.000000E+00" cType="1"     res="    -4.216681E-01" rms="0.0e-00"     purity="0.00000000E+00" nType="-99">
                            </Node>
                            <Node pos="r" depth="7" NCoef="0"     IVar="-1" Cut="     0.000000E+00" cType="1"     res="    -4.638921E-01" rms="0.0e-00"     purity="0.00000000E+00" nType="-99">
                            </Node>
                        </Node>
                    </Node>
                </Node>
            </Node>
        </Node>
    </Node>
</BinaryTree>
<BinaryTree type="DecisionTree" boostWeight="0.0" itree="2">
    <Node pos="c" depth="1" NCoef="0"     IVar="19" Cut="     1.521762E-01" cType="1"     res="     0.000000E+00" rms="0.0"     purity="0.00000000E+00" nType="0">
        <Node pos="l" depth="2" NCoef="0"     IVar="6" Cut="     5.375069E-03" cType="1"     res="     0.000000E+00" rms="0.0"     purity="0.00000000E+00" nType="0">
            <Node pos="l" depth="3" NCoef="0"     IVar="8" Cut="     5.036163E-02" cType="1"     res="     0.000000E+00" rms="0.0"     purity="0.00000000E+00" nType="0">
                <Node pos="l" depth="4" NCoef="0"     IVar="6" Cut="     4.941241E-03" cType="1"     res="     0.000000E+00" rms="0.0"     purity="0.00000000E+00" nType="0">
                    <Node pos="l" depth="5" NCoef="0"     IVar="13" Cut="     2.585777E-01" cType="1"     res="     0.000000E+00" rms="0.0"     purity="0.00000000E+00" nType="0">
                        <Node pos="l" depth="6" NCoef="0"     IVar="17" Cut="     3.473536E+01" cType="1"     res="     0.000000E+00" rms="0.0"     purity="0.00000000E+00" nType="0">
                            <Node pos="l" depth="7" NCoef="0"     IVar="-1" Cut="     0.000000E+00" cType="1"     res="     4.019285E-01" rms="0.0e-00"     purity="0.00000000E+00" nType="-99">
                            </Node>
                            <Node pos="r" depth="7" NCoef="0"     IVar="-1" Cut="     0.000000E+00" cType="1"     res="    -6.147088E-01" rms="0.0e-00"     purity="0.00000000E+00" nType="-99">
                            </Node>
                        </Node>
                        <Node pos="r" depth="6" NCoef="0"     IVar="14" Cut="     1.152864E+00" cType="1"     res="     0.000000E+00" rms="0.0"     purity="0.00000000E+00" nType="0">
                            <Node pos="l" depth="7" NCoef="0"     IVar="-1" Cut="     0.000000E+00" cType="1"     res="     3.397210E-01" rms="0.0e-00"     purity="0.00000000E+00" nType="-99">
                            </Node>
                            <Node pos="r" depth="7" NCoef="0"     IVar="-1" Cut="     0.000000E+00" cType="1"     res="    -3.750873E-01" rms="0.0e-00"     purity="0.00000000E+00" nType="-99">
                            </Node>
                        </Node>
                    </Node>
                    <Node pos="r" depth="5" NCoef="0"     IVar="17" Cut="     3.010189E+01" cType="1"     res="     0.000000E+00" rms="0.0"     purity="0.00000000E+00" nType="0">
                        <Node pos="l" depth="6" NCoef="0"     IVar="13" Cut="     2.263463E-01" cType="1"     res="     0.000000E+00" rms="0.0"     purity="0.00000000E+00" nType="0">
                            <Node pos="l" depth="7" NCoef="0"     IVar="-1" Cut="     0.000000E+00" cType="1"     res="     3.326616E-01" rms="0.0e-00"     purity="0.00000000E+00" nType="-99">
                            </Node>
                            <Node pos="r" depth="7" NCoef="0"     IVar="-1" Cut="     0.000000E+00" cType="1"     res="    -4.225853E-01" rms="0.0e-00"     purity="0.00000000E+00" nType="-99">
                            </Node>
                        </Node>
                        <Node pos="r" depth="6" NCoef="0"     IVar="18" Cut="     8.234577E+01" cType="1"     res="     0.000000E+00" rms="0.0"     purity="0.00000000E+00" nType="0">
                            <Node pos="l" depth="7" NCoef="0"     IVar="-1" Cut="     0.000000E+00" cType="1"     res="    -6.456026E-01" rms="0.0e-00"     purity="0.00000000E+00" nType="-99">
                            </Node>
                            <Node pos="r" depth="7" NCoef="0"     IVar="-1" Cut="     0.000000E+00" cType="1"     res="     2.637679E-01" rms="0.0e-00"     purity="0.00000000E+00" nType="-99">
                            </Node>
                        </Node>
                    </Node>
                </Node>
                <Node pos="r" depth="4" NCoef="0"     IVar="18" Cut="     8.182322E+01" cType="1"     res="     0.000000E+00" rms="0.0"     purity="0.00000000E+00" nType="0">
                    <Node pos="l" depth="5" NCoef="0"     IVar="17" Cut="     3.069605E+01" cType="1"     res="     0.000000E+00" rms="0.0"     purity="0.00000000E+00" nType="0">
                        <Node pos="l" depth="6" NCoef="0"     IVar="18" Cut="     6.909401E+01" cType="1"     res="     0.000000E+00" rms="0.0"     purity="0.00000000E+00" nType="0">
                            <Node pos="l" depth="7" NCoef="0"     IVar="-1" Cut="     0.000000E+00" cType="1"     res="    -3.465054E-01" rms="0.0e-00"     purity="0.00000000E+00" nType="-99">
                            </Node>
                            <Node pos="r" depth="7" NCoef="0"     IVar="-1" Cut="     0.000000E+00" cType="1"     res="     3.312644E-01" rms="0.0e-00"     purity="0.00000000E+00" nType="-99">
                            </Node>
                        </Node>
                        <Node pos="r" depth="6" NCoef="0"     IVar="8" Cut="     5.365434E-02" cType="1"     res="     0.000000E+00" rms="0.0"     purity="0.00000000E+00" nType="0">
                            <Node pos="l" depth="7" NCoef="0"     IVar="-1" Cut="     0.000000E+00" cType="1"     res="    -7.086321E-01" rms="0.0e-00"     purity="0.00000000E+00" nType="-99">
                            </Node>
                            <Node pos="r" depth="7" NCoef="0"     IVar="-1" Cut="     0.000000E+00" cType="1"     res="    -4.127955E-01" rms="0.0e-00"     purity="0.00000000E+00" nType="-99">
                            </Node>
                        </Node>
                    </Node>
                    <Node pos="r" depth="5" NCoef="0"     IVar="17" Cut="     3.809110E+01" cType="1"     res="     0.000000E+00" rms="0.0"     purity="0.00000000E+00" nType="0">
                        <Node pos="l" depth="6" NCoef="0"     IVar="8" Cut="     5.675527E-02" cType="1"     res="     0.000000E+00" rms="0.0"     purity="0.00000000E+00" nType="0">
                            <Node pos="l" depth="7" NCoef="0"     IVar="-1" Cut="     0.000000E+00" cType="1"     res="     4.081727E-01" rms="0.0e-00"     purity="0.00000000E+00" nType="-99">
                            </Node>
                            <Node pos="r" depth="7" NCoef="0"     IVar="-1" Cut="     0.000000E+00" cType="1"     res="    -2.529400E-01" rms="0.0e-00"     purity="0.00000000E+00" nType="-99">
                            </Node>
                        </Node>
                        <Node pos="r" depth="6" NCoef="0"     IVar="18" Cut="     1.034220E+02" cType="1"     res="     0.000000E+00" rms="0.0"     purity="0.00000000E+00" nType="0">
                            <Node pos="l" depth="7" NCoef="0"     IVar="-1" Cut="     0.000000E+00" cType="1"     res="    -4.683840E-01" rms="0.0e-00"     purity="0.00000000E+00" nType="-99">
                            </Node>
                            <Node pos="r" depth="7" NCoef="0"     IVar="-1" Cut="     0.000000E+00" cType="1"     res="     2.860948E-01" rms="0.0e-00"     purity="0.00000000E+00" nType="-99">
                            </Node>
                        </Node>
                    </Node>
                </Node>
            </Node>
            <Node pos="r" depth="3" NCoef="0"     IVar="8" Cut="     4.720329E-02" cType="1"     res="     0.000000E+00" rms="0.0"     purity="0.00000000E+00" nType="0">
                <Node pos="l" depth="4" NCoef="0"     IVar="6" Cut="     6.134889E-03" cType="1"     res="     0.000000E+00" rms="0.0"     purity="0.00000000E+00" nType="0">
                    <Node pos="l" depth="5" NCoef="0"     IVar="17" Cut="     1.951788E+01" cType="1"     res="     0.000000E+00" rms="0.0"     purity="0.00000000E+00" nType="0">
                        <Node pos="l" depth="6" NCoef="0"     IVar="13" Cut="     2.118434E-01" cType="1"     res="     0.000000E+00" rms="0.0"     purity="0.00000000E+00" nType="0">
                            <Node pos="l" depth="7" NCoef="0"     IVar="-1" Cut="     0.000000E+00" cType="1"     res="     3.889676E-01" rms="0.0e-00"     purity="0.00000000E+00" nType="-99">
                            </Node>
                            <Node pos="r" depth="7" NCoef="0"     IVar="-1" Cut="     0.000000E+00" cType="1"     res="    -4.455511E-01" rms="0.0e-00"     purity="0.00000000E+00" nType="-99">
                            </Node>
                        </Node>
                        <Node pos="r" depth="6" NCoef="0"     IVar="18" Cut="     6.974515E+01" cType="1"     res="     0.000000E+00" rms="0.0"     purity="0.00000000E+00" nType="0">
                            <Node pos="l" depth="7" NCoef="0"     IVar="-1" Cut="     0.000000E+00" cType="1"     res="    -3.056976E-01" rms="0.0e-00"     purity="0.00000000E+00" nType="-99">
                            </Node>
                            <Node pos="r" depth="7" NCoef="0"     IVar="-1" Cut="     0.000000E+00" cType="1"     res="     1.778209E-01" rms="0.0e-00"     purity="0.00000000E+00" nType="-99">
                            </Node>
                        </Node>
                    </Node>
                    <Node pos="r" depth="5" NCoef="0"     IVar="8" Cut="     3.181667E-02" cType="1"     res="     0.000000E+00" rms="0.0"     purity="0.00000000E+00" nType="0">
                        <Node pos="l" depth="6" NCoef="0"     IVar="14" Cut="     2.335128E+00" cType="1"     res="     0.000000E+00" rms="0.0"     purity="0.00000000E+00" nType="0">
                            <Node pos="l" depth="7" NCoef="0"     IVar="-1" Cut="     0.000000E+00" cType="1"     res="     2.807127E-01" rms="0.0e-00"     purity="0.00000000E+00" nType="-99">
                            </Node>
                            <Node pos="r" depth="7" NCoef="0"     IVar="-1" Cut="     0.000000E+00" cType="1"     res="    -3.398798E-01" rms="0.0e-00"     purity="0.00000000E+00" nType="-99">
                            </Node>
                        </Node>
                        <Node pos="r" depth="6" NCoef="0"     IVar="1" Cut="     4.550000E+01" cType="1"     res="     0.000000E+00" rms="0.0"     purity="0.00000000E+00" nType="0">
                            <Node pos="l" depth="7" NCoef="0"     IVar="-1" Cut="     0.000000E+00" cType="1"     res="    -4.149791E-01" rms="0.0e-00"     purity="0.00000000E+00" nType="-99">
                            </Node>
                            <Node pos="r" depth="7" NCoef="0"     IVar="-1" Cut="     0.000000E+00" cType="1"     res="    -2.554778E-01" rms="0.0e-00"     purity="0.00000000E+00" nType="-99">
                            </Node>
                        </Node>
                    </Node>
                </Node>
                <Node pos="r" depth="4" NCoef="0"     IVar="19" Cut="     6.704080E-02" cType="1"     res="     0.000000E+00" rms="0.0"     purity="0.00000000E+00" nType="0">
                    <Node pos="l" depth="5" NCoef="0"     IVar="9" Cut="     8.690612E-02" cType="1"     res="     0.000000E+00" rms="0.0"     purity="0.00000000E+00" nType="0">
                        <Node pos="l" depth="6" NCoef="0"     IVar="8" Cut="     5.343521E-02" cType="1"     res="     0.000000E+00" rms="0.0"     purity="0.00000000E+00" nType="0">
                            <Node pos="l" depth="7" NCoef="0"     IVar="-1" Cut="     0.000000E+00" cType="1"     res="     2.696941E-01" rms="0.0e-00"     purity="0.00000000E+00" nType="-99">
                            </Node>
                            <Node pos="r" depth="7" NCoef="0"     IVar="-1" Cut="     0.000000E+00" cType="1"     res="    -4.014573E-01" rms="0.0e-00"     purity="0.00000000E+00" nType="-99">
                            </Node>
                        </Node>
                        <Node pos="r" depth="6" NCoef="0"     IVar="11" Cut="     1.237038E-02" cType="1"     res="     0.000000E+00" rms="0.0"     purity="0.00000000E+00" nType="0">
                            <Node pos="l" depth="7" NCoef="0"     IVar="-1" Cut="     0.000000E+00" cType="1"     res="    -4.156989E-01" rms="0.0e-00"     purity="0.00000000E+00" nType="-99">
                            </Node>
                            <Node pos="r" depth="7" NCoef="0"     IVar="-1" Cut="     0.000000E+00" cType="1"     res="     3.156736E-01" rms="0.0e-00"     purity="0.00000000E+00" nType="-99">
                            </Node>
                        </Node>
                    </Node>
                    <Node pos="r" depth="5" NCoef="0"     IVar="6" Cut="     5.460994E-03" cType="1"     res="     0.000000E+00" rms="0.0"     purity="0.00000000E+00" nType="0">
                        <Node pos="l" depth="6" NCoef="0"     IVar="5" Cut="     4.803039E-03" cType="1"     res="     0.000000E+00" rms="0.0"     purity="0.00000000E+00" nType="0">
                            <Node pos="l" depth="7" NCoef="0"     IVar="-1" Cut="     0.000000E+00" cType="1"     res="    -4.765580E-01" rms="0.0e-00"     purity="0.00000000E+00" nType="-99">
                            </Node>
                            <Node pos="r" depth="7" NCoef="0"     IVar="-1" Cut="     0.000000E+00" cType="1"     res="     1.937031E-01" rms="0.0e-00"     purity="0.00000000E+00" nType="-99">
                            </Node>
                        </Node>
                        <Node pos="r" depth="6" NCoef="0"     IVar="8" Cut="     4.825123E-02" cType="1"     res="     0.000000E+00" rms="0.0"     purity="0.00000000E+00" nType="0">
                            <Node pos="l" depth="7" NCoef="0"     IVar="-1" Cut="     0.000000E+00" cType="1"     res="    -3.018608E-01" rms="0.0e-00"     purity="0.00000000E+00" nType="-99">
                            </Node>
                            <Node pos="r" depth="7" NCoef="0"     IVar="-1" Cut="     0.000000E+00" cType="1"     res="    -3.992336E-01" rms="0.0e-00"     purity="0.00000000E+00" nType="-99">
                            </Node>
                        </Node>
                    </Node>
                </Node>
            </Node>
        </Node>
        <Node pos="r" depth="2" NCoef="0"     IVar="6" Cut="     4.964372E-03" cType="1"     res="     0.000000E+00" rms="0.0"     purity="0.00000000E+00" nType="0">
            <Node pos="l" depth="3" NCoef="0"     IVar="19" Cut="     3.339646E-01" cType="1"     res="     0.000000E+00" rms="0.0"     purity="0.00000000E+00" nType="0">
                <Node pos="l" depth="4" NCoef="0"     IVar="8" Cut="     4.360880E-02" cType="1"     res="     0.000000E+00" rms="0.0"     purity="0.00000000E+00" nType="0">
                    <Node pos="l" depth="5" NCoef="0"     IVar="13" Cut="     2.194339E-01" cType="1"     res="     0.000000E+00" rms="0.0"     purity="0.00000000E+00" nType="0">
                        <Node pos="l" depth="6" NCoef="0"     IVar="17" Cut="     2.961797E+01" cType="1"     res="     0.000000E+00" rms="0.0"     purity="0.00000000E+00" nType="0">
                            <Node pos="l" depth="7" NCoef="0"     IVar="-1" Cut="     0.000000E+00" cType="1"     res="     3.720847E-01" rms="0.0e-00"     purity="0.00000000E+00" nType="-99">
                            </Node>
                            <Node pos="r" depth="7" NCoef="0"     IVar="-1" Cut="     0.000000E+00" cType="1"     res="    -5.535700E-01" rms="0.0e-00"     purity="0.00000000E+00" nType="-99">
                            </Node>
                        </Node>
                        <Node pos="r" depth="6" NCoef="0"     IVar="-1" Cut="     0.000000E+00" cType="1"     res="    -3.908657E-01" rms="0.0e-00"     purity="0.00000000E+00" nType="-99">
                        </Node>
                    </Node>
                    <Node pos="r" depth="5" NCoef="0"     IVar="18" Cut="     6.523550E+01" cType="1"     res="     0.000000E+00" rms="0.0"     purity="0.00000000E+00" nType="0">
                        <Node pos="l" depth="6" NCoef="0"     IVar="17" Cut="     2.035471E+01" cType="1"     res="     0.000000E+00" rms="0.0"     purity="0.00000000E+00" nType="0">
                            <Node pos="l" depth="7" NCoef="0"     IVar="-1" Cut="     0.000000E+00" cType="1"     res="     3.885582E-02" rms="0.0e-00"     purity="0.00000000E+00" nType="-99">
                            </Node>
                            <Node pos="r" depth="7" NCoef="0"     IVar="-1" Cut="     0.000000E+00" cType="1"     res="    -3.971853E-01" rms="0.0e-00"     purity="0.00000000E+00" nType="-99">
                            </Node>
                        </Node>
                        <Node pos="r" depth="6" NCoef="0"     IVar="17" Cut="     3.160885E+01" cType="1"     res="     0.000000E+00" rms="0.0"     purity="0.00000000E+00" nType="0">
                            <Node pos="l" depth="7" NCoef="0"     IVar="-1" Cut="     0.000000E+00" cType="1"     res="     3.176717E-01" rms="0.0e-00"     purity="0.00000000E+00" nType="-99">
                            </Node>
                            <Node pos="r" depth="7" NCoef="0"     IVar="-1" Cut="     0.000000E+00" cType="1"     res="    -2.601445E-01" rms="0.0e-00"     purity="0.00000000E+00" nType="-99">
                            </Node>
                        </Node>
                    </Node>
                </Node>
                <Node pos="r" depth="4" NCoef="0"     IVar="18" Cut="     6.147244E+01" cType="1"     res="     0.000000E+00" rms="0.0"     purity="0.00000000E+00" nType="0">
                    <Node pos="l" depth="5" NCoef="0"     IVar="9" Cut="     4.430509E-02" cType="1"     res="     0.000000E+00" rms="0.0"     purity="0.00000000E+00" nType="0">
                        <Node pos="l" depth="6" NCoef="0"     IVar="1" Cut="     3.500000E+01" cType="1"     res="     0.000000E+00" rms="0.0"     purity="0.00000000E+00" nType="0">
                            <Node pos="l" depth="7" NCoef="0"     IVar="-1" Cut="     0.000000E+00" cType="1"     res="     3.462780E-01" rms="0.0e-00"     purity="0.00000000E+00" nType="-99">
                            </Node>
                            <Node pos="r" depth="7" NCoef="0"     IVar="-1" Cut="     0.000000E+00" cType="1"     res="    -3.013903E-01" rms="0.0e-00"     purity="0.00000000E+00" nType="-99">
                            </Node>
                        </Node>
                        <Node pos="r" depth="6" NCoef="0"     IVar="5" Cut="     4.299430E-03" cType="1"     res="     0.000000E+00" rms="0.0"     purity="0.00000000E+00" nType="0">
                            <Node pos="l" depth="7" NCoef="0"     IVar="-1" Cut="     0.000000E+00" cType="1"     res="    -4.030386E-01" rms="0.0e-00"     purity="0.00000000E+00" nType="-99">
                            </Node>
                            <Node pos="r" depth="7" NCoef="0"     IVar="-1" Cut="     0.000000E+00" cType="1"     res="    -8.860667E-02" rms="0.0e-00"     purity="0.00000000E+00" nType="-99">
                            </Node>
                        </Node>
                    </Node>
                    <Node pos="r" depth="5" NCoef="0"     IVar="8" Cut="     4.145071E-02" cType="1"     res="     0.000000E+00" rms="0.0"     purity="0.00000000E+00" nType="0">
                        <Node pos="l" depth="6" NCoef="0"     IVar="6" Cut="     4.657958E-03" cType="1"     res="     0.000000E+00" rms="0.0"     purity="0.00000000E+00" nType="0">
                            <Node pos="l" depth="7" NCoef="0"     IVar="-1" Cut="     0.000000E+00" cType="1"     res="     3.253974E-01" rms="0.0e-00"     purity="0.00000000E+00" nType="-99">
                            </Node>
                            <Node pos="r" depth="7" NCoef="0"     IVar="-1" Cut="     0.000000E+00" cType="1"     res="    -3.747309E-01" rms="0.0e-00"     purity="0.00000000E+00" nType="-99">
                            </Node>
                        </Node>
                        <Node pos="r" depth="6" NCoef="0"     IVar="16" Cut="     1.014022E+01" cType="1"     res="     0.000000E+00" rms="0.0"     purity="0.00000000E+00" nType="0">
                            <Node pos="l" depth="7" NCoef="0"     IVar="-1" Cut="     0.000000E+00" cType="1"     res="     2.571970E-01" rms="0.0e-00"     purity="0.00000000E+00" nType="-99">
                            </Node>
                            <Node pos="r" depth="7" NCoef="0"     IVar="-1" Cut="     0.000000E+00" cType="1"     res="    -4.055416E-01" rms="0.0e-00"     purity="0.00000000E+00" nType="-99">
                            </Node>
                        </Node>
                    </Node>
                </Node>
            </Node>
            <Node pos="r" depth="3" NCoef="0"     IVar="6" Cut="     5.512476E-03" cType="1"     res="     0.000000E+00" rms="0.0"     purity="0.00000000E+00" nType="0">
                <Node pos="l" depth="4" NCoef="0"     IVar="19" Cut="     3.010204E-01" cType="1"     res="     0.000000E+00" rms="0.0"     purity="0.00000000E+00" nType="0">
                    <Node pos="l" depth="5" NCoef="0"     IVar="8" Cut="     4.879332E-02" cType="1"     res="     0.000000E+00" rms="0.0"     purity="0.00000000E+00" nType="0">
                        <Node pos="l" depth="6" NCoef="0"     IVar="13" Cut="     1.901068E-01" cType="1"     res="     0.000000E+00" rms="0.0"     purity="0.00000000E+00" nType="0">
                            <Node pos="l" depth="7" NCoef="0"     IVar="-1" Cut="     0.000000E+00" cType="1"     res="     1.278110E-01" rms="0.0e-00"     purity="0.00000000E+00" nType="-99">
                            </Node>
                            <Node pos="r" depth="7" NCoef="0"     IVar="-1" Cut="     0.000000E+00" cType="1"     res="    -4.959175E-01" rms="0.0e-00"     purity="0.00000000E+00" nType="-99">
                            </Node>
                        </Node>
                        <Node pos="r" depth="6" NCoef="0"     IVar="18" Cut="     7.606769E+01" cType="1"     res="     0.000000E+00" rms="0.0"     purity="0.00000000E+00" nType="0">
                            <Node pos="l" depth="7" NCoef="0"     IVar="-1" Cut="     0.000000E+00" cType="1"     res="    -4.017770E-01" rms="0.0e-00"     purity="0.00000000E+00" nType="-99">
                            </Node>
                            <Node pos="r" depth="7" NCoef="0"     IVar="-1" Cut="     0.000000E+00" cType="1"     res="    -1.398178E-01" rms="0.0e-00"     purity="0.00000000E+00" nType="-99">
                            </Node>
                        </Node>
                    </Node>
                    <Node pos="r" depth="5" NCoef="0"     IVar="8" Cut="     3.082546E-02" cType="1"     res="     0.000000E+00" rms="0.0"     purity="0.00000000E+00" nType="0">
                        <Node pos="l" depth="6" NCoef="0"     IVar="19" Cut="     4.025795E-01" cType="1"     res="     0.000000E+00" rms="0.0"     purity="0.00000000E+00" nType="0">
                            <Node pos="l" depth="7" NCoef="0"     IVar="-1" Cut="     0.000000E+00" cType="1"     res="     5.980668E-01" rms="0.0e-00"     purity="0.00000000E+00" nType="-99">
                            </Node>
                            <Node pos="r" depth="7" NCoef="0"     IVar="-1" Cut="     0.000000E+00" cType="1"     res="    -4.204335E-01" rms="0.0e-00"     purity="0.00000000E+00" nType="-99">
                            </Node>
                        </Node>
                        <Node pos="r" depth="6" NCoef="0"     IVar="18" Cut="     9.003977E+01" cType="1"     res="     0.000000E+00" rms="0.0"     purity="0.00000000E+00" nType="0">
                            <Node pos="l" depth="7" NCoef="0"     IVar="-1" Cut="     0.000000E+00" cType="1"     res="    -3.953999E-01" rms="0.0e-00"     purity="0.00000000E+00" nType="-99">
                            </Node>
                            <Node pos="r" depth="7" NCoef="0"     IVar="-1" Cut="     0.000000E+00" cType="1"     res="    -2.394641E-01" rms="0.0e-00"     purity="0.00000000E+00" nType="-99">
                            </Node>
                        </Node>
                    </Node>
                </Node>
                <Node pos="r" depth="4" NCoef="0"     IVar="10" Cut="     5.088855E-02" cType="1"     res="     0.000000E+00" rms="0.0"     purity="0.00000000E+00" nType="0">
                    <Node pos="l" depth="5" NCoef="0"     IVar="12" Cut="     3.392264E+02" cType="1"     res="     0.000000E+00" rms="0.0"     purity="0.00000000E+00" nType="0">
                        <Node pos="l" depth="6" NCoef="0"     IVar="17" Cut="     2.051008E+01" cType="1"     res="     0.000000E+00" rms="0.0"     purity="0.00000000E+00" nType="0">
                            <Node pos="l" depth="7" NCoef="0"     IVar="-1" Cut="     0.000000E+00" cType="1"     res="     4.857673E-01" rms="0.0e-00"     purity="0.00000000E+00" nType="-99">
                            </Node>
                            <Node pos="r" depth="7" NCoef="0"     IVar="-1" Cut="     0.000000E+00" cType="1"     res="    -3.909807E-01" rms="0.0e-00"     purity="0.00000000E+00" nType="-99">
                            </Node>
                        </Node>
                        <Node pos="r" depth="6" NCoef="0"     IVar="10" Cut="     5.088105E-02" cType="1"     res="     0.000000E+00" rms="0.0"     purity="0.00000000E+00" nType="0">
                            <Node pos="l" depth="7" NCoef="0"     IVar="-1" Cut="     0.000000E+00" cType="1"     res="    -3.877061E-01" rms="0.0e-00"     purity="0.00000000E+00" nType="-99">
                            </Node>
                            <Node pos="r" depth="7" NCoef="0"     IVar="-1" Cut="     0.000000E+00" cType="1"     res="     6.919525E-01" rms="0.0e-00"     purity="0.00000000E+00" nType="-99">
                            </Node>
                        </Node>
                    </Node>
                    <Node pos="r" depth="5" NCoef="0"     IVar="19" Cut="     2.952600E-01" cType="1"     res="     0.000000E+00" rms="0.0"     purity="0.00000000E+00" nType="0">
                        <Node pos="l" depth="6" NCoef="0"     IVar="17" Cut="     2.483288E+01" cType="1"     res="     0.000000E+00" rms="0.0"     purity="0.00000000E+00" nType="0">
                            <Node pos="l" depth="7" NCoef="0"     IVar="-1" Cut="     0.000000E+00" cType="1"     res="    -2.856336E-01" rms="0.0e-00"     purity="0.00000000E+00" nType="-99">
                            </Node>
                            <Node pos="r" depth="7" NCoef="0"     IVar="-1" Cut="     0.000000E+00" cType="1"     res="    -3.975422E-01" rms="0.0e-00"     purity="0.00000000E+00" nType="-99">
                            </Node>
                        </Node>
                        <Node pos="r" depth="6" NCoef="0"     IVar="4" Cut="     8.384047E+01" cType="1"     res="     0.000000E+00" rms="0.0"     purity="0.00000000E+00" nType="0">
                            <Node pos="l" depth="7" NCoef="0"     IVar="-1" Cut="     0.000000E+00" cType="1"     res="    -4.021927E-01" rms="0.0e-00"     purity="0.00000000E+00" nType="-99">
                            </Node>
                            <Node pos="r" depth="7" NCoef="0"     IVar="-1" Cut="     0.000000E+00" cType="1"     res="    -2.422481E-01" rms="0.0e-00"     purity="0.00000000E+00" nType="-99">
                            </Node>
                        </Node>
                    </Node>
                </Node>
            </Node>
        </Node>
    </Node>
</BinaryTree>
<BinaryTree type="DecisionTree" boostWeight="0.0" itree="3">
    <Node pos="c" depth="1" NCoef="0"     IVar="19" Cut="     1.392922E-01" cType="1"     res="     0.000000E+00" rms="0.0"     purity="0.00000000E+00" nType="0">
        <Node pos="l" depth="2" NCoef="0"     IVar="6" Cut="     5.304194E-03" cType="1"     res="     0.000000E+00" rms="0.0"     purity="0.00000000E+00" nType="0">
            <Node pos="l" depth="3" NCoef="0"     IVar="17" Cut="     2.697580E+01" cType="1"     res="     0.000000E+00" rms="0.0"     purity="0.00000000E+00" nType="0">
                <Node pos="l" depth="4" NCoef="0"     IVar="13" Cut="     2.589474E-01" cType="1"     res="     0.000000E+00" rms="0.0"     purity="0.00000000E+00" nType="0">
                    <Node pos="l" depth="5" NCoef="0"     IVar="14" Cut="     1.888882E+00" cType="1"     res="     0.000000E+00" rms="0.0"     purity="0.00000000E+00" nType="0">
                        <Node pos="l" depth="6" NCoef="0"     IVar="13" Cut="     1.381687E-01" cType="1"     res="     0.000000E+00" rms="0.0"     purity="0.00000000E+00" nType="0">
                            <Node pos="l" depth="7" NCoef="0"     IVar="-1" Cut="     0.000000E+00" cType="1"     res="    -8.087198E-01" rms="0.0e-00"     purity="0.00000000E+00" nType="-99">
                            </Node>
                            <Node pos="r" depth="7" NCoef="0"     IVar="-1" Cut="     0.000000E+00" cType="1"     res="     2.654427E-01" rms="0.0e-00"     purity="0.00000000E+00" nType="-99">
                            </Node>
                        </Node>
                        <Node pos="r" depth="6" NCoef="0"     IVar="6" Cut="     4.909354E-03" cType="1"     res="     0.000000E+00" rms="0.0"     purity="0.00000000E+00" nType="0">
                            <Node pos="l" depth="7" NCoef="0"     IVar="-1" Cut="     0.000000E+00" cType="1"     res="     3.681206E-01" rms="0.0e-00"     purity="0.00000000E+00" nType="-99">
                            </Node>
                            <Node pos="r" depth="7" NCoef="0"     IVar="-1" Cut="     0.000000E+00" cType="1"     res="     3.173205E-01" rms="0.0e-00"     purity="0.00000000E+00" nType="-99">
                            </Node>
                        </Node>
                    </Node>
                    <Node pos="r" depth="5" NCoef="0"     IVar="-1" Cut="     0.000000E+00" cType="1"     res="    -3.586009E-01" rms="0.0e-00"     purity="0.00000000E+00" nType="-99">
                    </Node>
                </Node>
                <Node pos="r" depth="4" NCoef="0"     IVar="18" Cut="     7.310228E+01" cType="1"     res="     0.000000E+00" rms="0.0"     purity="0.00000000E+00" nType="0">
                    <Node pos="l" depth="5" NCoef="0"     IVar="17" Cut="     2.772542E+01" cType="1"     res="     0.000000E+00" rms="0.0"     purity="0.00000000E+00" nType="0">
                        <Node pos="l" depth="6" NCoef="0"     IVar="18" Cut="     6.881017E+01" cType="1"     res="     0.000000E+00" rms="0.0"     purity="0.00000000E+00" nType="0">
                            <Node pos="l" depth="7" NCoef="0"     IVar="-1" Cut="     0.000000E+00" cType="1"     res="    -5.269845E-01" rms="0.0e-00"     purity="0.00000000E+00" nType="-99">
                            </Node>
                            <Node pos="r" depth="7" NCoef="0"     IVar="-1" Cut="     0.000000E+00" cType="1"     res="     3.087234E-01" rms="0.0e-00"     purity="0.00000000E+00" nType="-99">
                            </Node>
                        </Node>
                        <Node pos="r" depth="6" NCoef="0"     IVar="8" Cut="     5.356103E-02" cType="1"     res="     0.000000E+00" rms="0.0"     purity="0.00000000E+00" nType="0">
                            <Node pos="l" depth="7" NCoef="0"     IVar="-1" Cut="     0.000000E+00" cType="1"     res="    -7.923595E-01" rms="0.0e-00"     purity="0.00000000E+00" nType="-99">
                            </Node>
                            <Node pos="r" depth="7" NCoef="0"     IVar="-1" Cut="     0.000000E+00" cType="1"     res="    -2.501145E-01" rms="0.0e-00"     purity="0.00000000E+00" nType="-99">
                            </Node>
                        </Node>
                    </Node>
                    <Node pos="r" depth="5" NCoef="0"     IVar="17" Cut="     3.510316E+01" cType="1"     res="     0.000000E+00" rms="0.0"     purity="0.00000000E+00" nType="0">
                        <Node pos="l" depth="6" NCoef="0"     IVar="12" Cut="     3.456694E+02" cType="1"     res="     0.000000E+00" rms="0.0"     purity="0.00000000E+00" nType="0">
                            <Node pos="l" depth="7" NCoef="0"     IVar="-1" Cut="     0.000000E+00" cType="1"     res="     3.291778E-01" rms="0.0e-00"     purity="0.00000000E+00" nType="-99">
                            </Node>
                            <Node pos="r" depth="7" NCoef="0"     IVar="-1" Cut="     0.000000E+00" cType="1"     res="    -5.750852E-01" rms="0.0e-00"     purity="0.00000000E+00" nType="-99">
                            </Node>
                        </Node>
                        <Node pos="r" depth="6" NCoef="0"     IVar="18" Cut="     9.003138E+01" cType="1"     res="     0.000000E+00" rms="0.0"     purity="0.00000000E+00" nType="0">
                            <Node pos="l" depth="7" NCoef="0"     IVar="-1" Cut="     0.000000E+00" cType="1"     res="    -4.906039E-01" rms="0.0e-00"     purity="0.00000000E+00" nType="-99">
                            </Node>
                            <Node pos="r" depth="7" NCoef="0"     IVar="-1" Cut="     0.000000E+00" cType="1"     res="     1.935598E-01" rms="0.0e-00"     purity="0.00000000E+00" nType="-99">
                            </Node>
                        </Node>
                    </Node>
                </Node>
            </Node>
            <Node pos="r" depth="3" NCoef="0"     IVar="17" Cut="     2.872874E+01" cType="1"     res="     0.000000E+00" rms="0.0"     purity="0.00000000E+00" nType="0">
                <Node pos="l" depth="4" NCoef="0"     IVar="18" Cut="     6.593756E+01" cType="1"     res="     0.000000E+00" rms="0.0"     purity="0.00000000E+00" nType="0">
                    <Node pos="l" depth="5" NCoef="0"     IVar="17" Cut="     1.946415E+01" cType="1"     res="     0.000000E+00" rms="0.0"     purity="0.00000000E+00" nType="0">
                        <Node pos="l" depth="6" NCoef="0"     IVar="13" Cut="     2.108042E-01" cType="1"     res="     0.000000E+00" rms="0.0"     purity="0.00000000E+00" nType="0">
                            <Node pos="l" depth="7" NCoef="0"     IVar="-1" Cut="     0.000000E+00" cType="1"     res="     2.846080E-01" rms="0.0e-00"     purity="0.00000000E+00" nType="-99">
                            </Node>
                            <Node pos="r" depth="7" NCoef="0"     IVar="-1" Cut="     0.000000E+00" cType="1"     res="    -3.769101E-01" rms="0.0e-00"     purity="0.00000000E+00" nType="-99">
                            </Node>
                        </Node>
                        <Node pos="r" depth="6" NCoef="0"     IVar="13" Cut="     1.626003E-01" cType="1"     res="     0.000000E+00" rms="0.0"     purity="0.00000000E+00" nType="0">
                            <Node pos="l" depth="7" NCoef="0"     IVar="-1" Cut="     0.000000E+00" cType="1"     res="    -1.295315E-01" rms="0.0e-00"     purity="0.00000000E+00" nType="-99">
                            </Node>
                            <Node pos="r" depth="7" NCoef="0"     IVar="-1" Cut="     0.000000E+00" cType="1"     res="    -4.322259E-01" rms="0.0e-00"     purity="0.00000000E+00" nType="-99">
                            </Node>
                        </Node>
                    </Node>
                    <Node pos="r" depth="5" NCoef="0"     IVar="17" Cut="     2.715446E+01" cType="1"     res="     0.000000E+00" rms="0.0"     purity="0.00000000E+00" nType="0">
                        <Node pos="l" depth="6" NCoef="0"     IVar="13" Cut="     1.876898E-01" cType="1"     res="     0.000000E+00" rms="0.0"     purity="0.00000000E+00" nType="0">
                            <Node pos="l" depth="7" NCoef="0"     IVar="-1" Cut="     0.000000E+00" cType="1"     res="     4.411363E-01" rms="0.0e-00"     purity="0.00000000E+00" nType="-99">
                            </Node>
                            <Node pos="r" depth="7" NCoef="0"     IVar="-1" Cut="     0.000000E+00" cType="1"     res="    -3.651301E-01" rms="0.0e-00"     purity="0.00000000E+00" nType="-99">
                            </Node>
                        </Node>
                        <Node pos="r" depth="6" NCoef="0"     IVar="18" Cut="     6.975005E+01" cType="1"     res="     0.000000E+00" rms="0.0"     purity="0.00000000E+00" nType="0">
                            <Node pos="l" depth="7" NCoef="0"     IVar="-1" Cut="     0.000000E+00" cType="1"     res="    -3.854854E-01" rms="0.0e-00"     purity="0.00000000E+00" nType="-99">
                            </Node>
                            <Node pos="r" depth="7" NCoef="0"     IVar="-1" Cut="     0.000000E+00" cType="1"     res="     1.921493E-01" rms="0.0e-00"     purity="0.00000000E+00" nType="-99">
                            </Node>
                        </Node>
                    </Node>
                </Node>
                <Node pos="r" depth="4" NCoef="0"     IVar="14" Cut="     2.306295E+00" cType="1"     res="     0.000000E+00" rms="0.0"     purity="0.00000000E+00" nType="0">
                    <Node pos="l" depth="5" NCoef="0"     IVar="19" Cut="     7.276863E-02" cType="1"     res="     0.000000E+00" rms="0.0"     purity="0.00000000E+00" nType="0">
                        <Node pos="l" depth="6" NCoef="0"     IVar="0" Cut="     1.650000E+01" cType="1"     res="     0.000000E+00" rms="0.0"     purity="0.00000000E+00" nType="0">
                            <Node pos="l" depth="7" NCoef="0"     IVar="-1" Cut="     0.000000E+00" cType="1"     res="    -2.643860E-01" rms="0.0e-00"     purity="0.00000000E+00" nType="-99">
                            </Node>
                            <Node pos="r" depth="7" NCoef="0"     IVar="-1" Cut="     0.000000E+00" cType="1"     res="     3.175947E-01" rms="0.0e-00"     purity="0.00000000E+00" nType="-99">
                            </Node>
                        </Node>
                        <Node pos="r" depth="6" NCoef="0"     IVar="11" Cut="     6.781378E-03" cType="1"     res="     0.000000E+00" rms="0.0"     purity="0.00000000E+00" nType="0">
                            <Node pos="l" depth="7" NCoef="0"     IVar="-1" Cut="     0.000000E+00" cType="1"     res="    -2.796471E-01" rms="0.0e-00"     purity="0.00000000E+00" nType="-99">
                            </Node>
                            <Node pos="r" depth="7" NCoef="0"     IVar="-1" Cut="     0.000000E+00" cType="1"     res="    -3.796532E-01" rms="0.0e-00"     purity="0.00000000E+00" nType="-99">
                            </Node>
                        </Node>
                    </Node>
                    <Node pos="r" depth="5" NCoef="0"     IVar="15" Cut="     5.414341E+00" cType="1"     res="     0.000000E+00" rms="0.0"     purity="0.00000000E+00" nType="0">
                        <Node pos="l" depth="6" NCoef="0"     IVar="18" Cut="     8.326439E+01" cType="1"     res="     0.000000E+00" rms="0.0"     purity="0.00000000E+00" nType="0">
                            <Node pos="l" depth="7" NCoef="0"     IVar="-1" Cut="     0.000000E+00" cType="1"     res="    -1.740584E-01" rms="0.0e-00"     purity="0.00000000E+00" nType="-99">
                            </Node>
                            <Node pos="r" depth="7" NCoef="0"     IVar="-1" Cut="     0.000000E+00" cType="1"     res="     5.261374E-01" rms="0.0e-00"     purity="0.00000000E+00" nType="-99">
                            </Node>
                        </Node>
                        <Node pos="r" depth="6" NCoef="0"     IVar="13" Cut="     8.358908E-02" cType="1"     res="     0.000000E+00" rms="0.0"     purity="0.00000000E+00" nType="0">
                            <Node pos="l" depth="7" NCoef="0"     IVar="-1" Cut="     0.000000E+00" cType="1"     res="     3.037965E-01" rms="0.0e-00"     purity="0.00000000E+00" nType="-99">
                            </Node>
                            <Node pos="r" depth="7" NCoef="0"     IVar="-1" Cut="     0.000000E+00" cType="1"     res="    -3.326582E-01" rms="0.0e-00"     purity="0.00000000E+00" nType="-99">
                            </Node>
                        </Node>
                    </Node>
                </Node>
            </Node>
        </Node>
        <Node pos="r" depth="2" NCoef="0"     IVar="6" Cut="     5.078096E-03" cType="1"     res="     0.000000E+00" rms="0.0"     purity="0.00000000E+00" nType="0">
            <Node pos="l" depth="3" NCoef="0"     IVar="19" Cut="     2.513943E-01" cType="1"     res="     0.000000E+00" rms="0.0"     purity="0.00000000E+00" nType="0">
                <Node pos="l" depth="4" NCoef="0"     IVar="8" Cut="     5.327065E-02" cType="1"     res="     0.000000E+00" rms="0.0"     purity="0.00000000E+00" nType="0">
                    <Node pos="l" depth="5" NCoef="0"     IVar="13" Cut="     2.198889E-01" cType="1"     res="     0.000000E+00" rms="0.0"     purity="0.00000000E+00" nType="0">
                        <Node pos="l" depth="6" NCoef="0"     IVar="0" Cut="     1.050000E+01" cType="1"     res="     0.000000E+00" rms="0.0"     purity="0.00000000E+00" nType="0">
                            <Node pos="l" depth="7" NCoef="0"     IVar="-1" Cut="     0.000000E+00" cType="1"     res="    -4.159883E-01" rms="0.0e-00"     purity="0.00000000E+00" nType="-99">
                            </Node>
                            <Node pos="r" depth="7" NCoef="0"     IVar="-1" Cut="     0.000000E+00" cType="1"     res="     3.071278E-01" rms="0.0e-00"     purity="0.00000000E+00" nType="-99">
                            </Node>
                        </Node>
                        <Node pos="r" depth="6" NCoef="0"     IVar="13" Cut="     6.060512E-01" cType="1"     res="     0.000000E+00" rms="0.0"     purity="0.00000000E+00" nType="0">
                            <Node pos="l" depth="7" NCoef="0"     IVar="-1" Cut="     0.000000E+00" cType="1"     res="    -4.075375E-01" rms="0.0e-00"     purity="0.00000000E+00" nType="-99">
                            </Node>
                            <Node pos="r" depth="7" NCoef="0"     IVar="-1" Cut="     0.000000E+00" cType="1"     res="     2.783076E-01" rms="0.0e-00"     purity="0.00000000E+00" nType="-99">
                            </Node>
                        </Node>
                    </Node>
                    <Node pos="r" depth="5" NCoef="0"     IVar="18" Cut="     8.148981E+01" cType="1"     res="     0.000000E+00" rms="0.0"     purity="0.00000000E+00" nType="0">
                        <Node pos="l" depth="6" NCoef="0"     IVar="1" Cut="     4.650000E+01" cType="1"     res="     0.000000E+00" rms="0.0"     purity="0.00000000E+00" nType="0">
                            <Node pos="l" depth="7" NCoef="0"     IVar="-1" Cut="     0.000000E+00" cType="1"     res="    -4.093890E-01" rms="0.0e-00"     purity="0.00000000E+00" nType="-99">
                            </Node>
