
        <?xml version="1.0"?>
        <MethodSetup Method="BDT::bdt">
        <GeneralInfo>
        <Info name="TMVA Release" value=""/>
        <Info name="ROOT Release" value=""/>
        <Info name="Creator" value="mlglue"/>
        <Info name="Date" value=""/>
        <Info name="Host" value=""/>
        <Info name="Dir" value=""/>
        <Info name="Training events" value="-1"/>
        <Info name="TrainingTime" value="-1"/>
        <Info name="AnalysisType" value="Classification"/>
        </GeneralInfo>
        <Options>
        <Option name="NTrees" modified="Yes">10</Option>
        <Option name="MaxDepth" modified="Yes">6</Option>
        <Option name="BoostType" modified="Yes">Grad</Option>
        <Option name="Shrinkage" modified="Yes">0.3</Option>
        <Option name="UseNvars" modified="Yes">20</Option>
        </Options>

        <Variables NVar="20">
        <Variable VarIndex="0" Expression="coreshowerlength" Label="coreshowerlength" Title="coreshowerlength" Unit="" Internal="coreshowerlength" Type="F" Min="0.0000000000000000000000000000000000000000000000000000000000000000E+00" Max="0.0000000000000000000000000000000000000000000000000000000000000000E+00"/>
<Variable VarIndex="1" Expression="showerlength" Label="showerlength" Title="showerlength" Unit="" Internal="showerlength" Type="F" Min="0.0000000000000000000000000000000000000000000000000000000000000000E+00" Max="0.0000000000000000000000000000000000000000000000000000000000000000E+00"/>
<Variable VarIndex="2" Expression="firstlayer" Label="firstlayer" Title="firstlayer" Unit="" Internal="firstlayer" Type="F" Min="0.0000000000000000000000000000000000000000000000000000000000000000E+00" Max="0.0000000000000000000000000000000000000000000000000000000000000000E+00"/>
<Variable VarIndex="3" Expression="maxlayer" Label="maxlayer" Title="maxlayer" Unit="" Internal="maxlayer" Type="F" Min="0.0000000000000000000000000000000000000000000000000000000000000000E+00" Max="0.0000000000000000000000000000000000000000000000000000000000000000E+00"/>
<Variable VarIndex="4" Expression="szz" Label="szz" Title="szz" Unit="" Internal="szz" Type="F" Min="0.0000000000000000000000000000000000000000000000000000000000000000E+00" Max="0.0000000000000000000000000000000000000000000000000000000000000000E+00"/>
<Variable VarIndex="5" Expression="srrmean" Label="srrmean" Title="srrmean" Unit="" Internal="srrmean" Type="F" Min="0.0000000000000000000000000000000000000000000000000000000000000000E+00" Max="0.0000000000000000000000000000000000000000000000000000000000000000E+00"/>
<Variable VarIndex="6" Expression="srrtot" Label="srrtot" Title="srrtot" Unit="" Internal="srrtot" Type="F" Min="0.0000000000000000000000000000000000000000000000000000000000000000E+00" Max="0.0000000000000000000000000000000000000000000000000000000000000000E+00"/>
<Variable VarIndex="7" Expression="seetot" Label="seetot" Title="seetot" Unit="" Internal="seetot" Type="F" Min="0.0000000000000000000000000000000000000000000000000000000000000000E+00" Max="0.0000000000000000000000000000000000000000000000000000000000000000E+00"/>
<Variable VarIndex="8" Expression="spptot" Label="spptot" Title="spptot" Unit="" Internal="spptot" Type="F" Min="0.0000000000000000000000000000000000000000000000000000000000000000E+00" Max="0.0000000000000000000000000000000000000000000000000000000000000000E+00"/>
<Variable VarIndex="9" Expression="seemax" Label="seemax" Title="seemax" Unit="" Internal="seemax" Type="F" Min="0.0000000000000000000000000000000000000000000000000000000000000000E+00" Max="0.0000000000000000000000000000000000000000000000000000000000000000E+00"/>
<Variable VarIndex="10" Expression="sppmax" Label="sppmax" Title="sppmax" Unit="" Internal="sppmax" Type="F" Min="0.0000000000000000000000000000000000000000000000000000000000000000E+00" Max="0.0000000000000000000000000000000000000000000000000000000000000000E+00"/>
<Variable VarIndex="11" Expression="srrmax" Label="srrmax" Title="srrmax" Unit="" Internal="srrmax" Type="F" Min="0.0000000000000000000000000000000000000000000000000000000000000000E+00" Max="0.0000000000000000000000000000000000000000000000000000000000000000E+00"/>
<Variable VarIndex="12" Expression="meanz" Label="meanz" Title="meanz" Unit="" Internal="meanz" Type="F" Min="0.0000000000000000000000000000000000000000000000000000000000000000E+00" Max="0.0000000000000000000000000000000000000000000000000000000000000000E+00"/>
<Variable VarIndex="13" Expression="emaxe" Label="emaxe" Title="emaxe" Unit="" Internal="emaxe" Type="F" Min="0.0000000000000000000000000000000000000000000000000000000000000000E+00" Max="0.0000000000000000000000000000000000000000000000000000000000000000E+00"/>
<Variable VarIndex="14" Expression="layer10" Label="layer10" Title="layer10" Unit="" Internal="layer10" Type="F" Min="0.0000000000000000000000000000000000000000000000000000000000000000E+00" Max="0.0000000000000000000000000000000000000000000000000000000000000000E+00"/>
<Variable VarIndex="15" Expression="layer50" Label="layer50" Title="layer50" Unit="" Internal="layer50" Type="F" Min="0.0000000000000000000000000000000000000000000000000000000000000000E+00" Max="0.0000000000000000000000000000000000000000000000000000000000000000E+00"/>
<Variable VarIndex="16" Expression="layer90" Label="layer90" Title="layer90" Unit="" Internal="layer90" Type="F" Min="0.0000000000000000000000000000000000000000000000000000000000000000E+00" Max="0.0000000000000000000000000000000000000000000000000000000000000000E+00"/>
<Variable VarIndex="17" Expression="ntc67" Label="ntc67" Title="ntc67" Unit="" Internal="ntc67" Type="F" Min="0.0000000000000000000000000000000000000000000000000000000000000000E+00" Max="0.0000000000000000000000000000000000000000000000000000000000000000E+00"/>
<Variable VarIndex="18" Expression="ntc90" Label="ntc90" Title="ntc90" Unit="" Internal="ntc90" Type="F" Min="0.0000000000000000000000000000000000000000000000000000000000000000E+00" Max="0.0000000000000000000000000000000000000000000000000000000000000000E+00"/>
<Variable VarIndex="19" Expression="hoe" Label="hoe" Title="hoe" Unit="" Internal="hoe" Type="F" Min="0.0000000000000000000000000000000000000000000000000000000000000000E+00" Max="0.0000000000000000000000000000000000000000000000000000000000000000E+00"/>

        </Variables>

        <Classes NClass="2">
        <Class Name="background" Index="0"/>
<Class Name="signal" Index="1"/>

        </Classes>

        <Targets NTrgt="0">
        
        </Targets>

        <Transformations NTransformations="0"/>
        <MVAPdfs/>
        <Weights NTrees="10" AnalysisType="1">
        <BinaryTree type="DecisionTree" boostWeight="0.0" itree="0">
    <Node pos="c" depth="1" NCoef="0"     IVar="19" Cut="     1.716501E-01" cType="1"     res="     0.000000E+00" rms="0.0"     purity="0.00000000E+00" nType="0">
        <Node pos="l" depth="2" NCoef="0"     IVar="6" Cut="     4.794909E-03" cType="1"     res="     0.000000E+00" rms="0.0"     purity="0.00000000E+00" nType="0">
            <Node pos="l" depth="3" NCoef="0"     IVar="17" Cut="     2.933009E+00" cType="1"     res="     0.000000E+00" rms="0.0"     purity="0.00000000E+00" nType="0">
                <Node pos="l" depth="4" NCoef="0"     IVar="14" Cut="     1.057107E+00" cType="1"     res="     0.000000E+00" rms="0.0"     purity="0.00000000E+00" nType="0">
                    <Node pos="l" depth="5" NCoef="0"     IVar="-1" Cut="     0.000000E+00" cType="1"     res="     4.560000E-01" rms="0.0e-00"     purity="0.00000000E+00" nType="-99">
                    </Node>
                    <Node pos="r" depth="5" NCoef="0"     IVar="17" Cut="     2.063926E+00" cType="1"     res="     0.000000E+00" rms="0.0"     purity="0.00000000E+00" nType="0">
                        <Node pos="l" depth="6" NCoef="0"     IVar="-1" Cut="     0.000000E+00" cType="1"     res="    -5.968505E-01" rms="0.0e-00"     purity="0.00000000E+00" nType="-99">
                        </Node>
                        <Node pos="r" depth="6" NCoef="0"     IVar="8" Cut="     1.088033E-02" cType="1"     res="     0.000000E+00" rms="0.0"     purity="0.00000000E+00" nType="0">
                            <Node pos="l" depth="7" NCoef="0"     IVar="-1" Cut="     0.000000E+00" cType="1"     res="     4.378378E-01" rms="0.0e-00"     purity="0.00000000E+00" nType="-99">
                            </Node>
                            <Node pos="r" depth="7" NCoef="0"     IVar="-1" Cut="     0.000000E+00" cType="1"     res="    -5.684211E-01" rms="0.0e-00"     purity="0.00000000E+00" nType="-99">
                            </Node>
                        </Node>
                    </Node>
                </Node>
                <Node pos="r" depth="4" NCoef="0"     IVar="6" Cut="     4.339026E-03" cType="1"     res="     0.000000E+00" rms="0.0"     purity="0.00000000E+00" nType="0">
                    <Node pos="l" depth="5" NCoef="0"     IVar="19" Cut="     9.789164E-02" cType="1"     res="     0.000000E+00" rms="0.0"     purity="0.00000000E+00" nType="0">
                        <Node pos="l" depth="6" NCoef="0"     IVar="0" Cut="     1.150000E+01" cType="1"     res="     0.000000E+00" rms="0.0"     purity="0.00000000E+00" nType="0">
                            <Node pos="l" depth="7" NCoef="0"     IVar="-1" Cut="     0.000000E+00" cType="1"     res="     5.752783E-01" rms="0.0e-00"     purity="0.00000000E+00" nType="-99">
                            </Node>
                            <Node pos="r" depth="7" NCoef="0"     IVar="-1" Cut="     0.000000E+00" cType="1"     res="     5.979303E-01" rms="0.0e-00"     purity="0.00000000E+00" nType="-99">
                            </Node>
                        </Node>
                        <Node pos="r" depth="6" NCoef="0"     IVar="13" Cut="     2.422152E-01" cType="1"     res="     0.000000E+00" rms="0.0"     purity="0.00000000E+00" nType="0">
                            <Node pos="l" depth="7" NCoef="0"     IVar="-1" Cut="     0.000000E+00" cType="1"     res="     5.368523E-01" rms="0.0e-00"     purity="0.00000000E+00" nType="-99">
                            </Node>
                            <Node pos="r" depth="7" NCoef="0"     IVar="-1" Cut="     0.000000E+00" cType="1"     res="    -2.268908E-01" rms="0.0e-00"     purity="0.00000000E+00" nType="-99">
                            </Node>
                        </Node>
                    </Node>
                    <Node pos="r" depth="5" NCoef="0"     IVar="15" Cut="     6.909326E+00" cType="1"     res="     0.000000E+00" rms="0.0"     purity="0.00000000E+00" nType="0">
                        <Node pos="l" depth="6" NCoef="0"     IVar="17" Cut="     2.168048E+01" cType="1"     res="     0.000000E+00" rms="0.0"     purity="0.00000000E+00" nType="0">
                            <Node pos="l" depth="7" NCoef="0"     IVar="-1" Cut="     0.000000E+00" cType="1"     res="     4.060908E-01" rms="0.0e-00"     purity="0.00000000E+00" nType="-99">
                            </Node>
                            <Node pos="r" depth="7" NCoef="0"     IVar="-1" Cut="     0.000000E+00" cType="1"     res="     7.022222E-02" rms="0.0e-00"     purity="0.00000000E+00" nType="-99">
                            </Node>
                        </Node>
                        <Node pos="r" depth="6" NCoef="0"     IVar="-1" Cut="     0.000000E+00" cType="1"     res="    -5.744681E-01" rms="0.0e-00"     purity="0.00000000E+00" nType="-99">
                        </Node>
                    </Node>
                </Node>
            </Node>
            <Node pos="r" depth="3" NCoef="0"     IVar="6" Cut="     5.221641E-03" cType="1"     res="     0.000000E+00" rms="0.0"     purity="0.00000000E+00" nType="0">
                <Node pos="l" depth="4" NCoef="0"     IVar="17" Cut="     2.505410E+01" cType="1"     res="     0.000000E+00" rms="0.0"     purity="0.00000000E+00" nType="0">
                    <Node pos="l" depth="5" NCoef="0"     IVar="18" Cut="     5.792594E+01" cType="1"     res="     0.000000E+00" rms="0.0"     purity="0.00000000E+00" nType="0">
                        <Node pos="l" depth="6" NCoef="0"     IVar="17" Cut="     1.823594E+01" cType="1"     res="     0.000000E+00" rms="0.0"     purity="0.00000000E+00" nType="0">
                            <Node pos="l" depth="7" NCoef="0"     IVar="-1" Cut="     0.000000E+00" cType="1"     res="    -1.591695E-02" rms="0.0e-00"     purity="0.00000000E+00" nType="-99">
                            </Node>
                            <Node pos="r" depth="7" NCoef="0"     IVar="-1" Cut="     0.000000E+00" cType="1"     res="    -4.075724E-01" rms="0.0e-00"     purity="0.00000000E+00" nType="-99">
                            </Node>
                        </Node>
                        <Node pos="r" depth="6" NCoef="0"     IVar="10" Cut="     4.379434E-02" cType="1"     res="     0.000000E+00" rms="0.0"     purity="0.00000000E+00" nType="0">
                            <Node pos="l" depth="7" NCoef="0"     IVar="-1" Cut="     0.000000E+00" cType="1"     res="    -4.666667E-01" rms="0.0e-00"     purity="0.00000000E+00" nType="-99">
                            </Node>
                            <Node pos="r" depth="7" NCoef="0"     IVar="-1" Cut="     0.000000E+00" cType="1"     res="     4.091644E-01" rms="0.0e-00"     purity="0.00000000E+00" nType="-99">
                            </Node>
                        </Node>
                    </Node>
                    <Node pos="r" depth="5" NCoef="0"     IVar="10" Cut="     1.704800E-01" cType="1"     res="     0.000000E+00" rms="0.0"     purity="0.00000000E+00" nType="0">
                        <Node pos="l" depth="6" NCoef="0"     IVar="9" Cut="     1.943065E-01" cType="1"     res="     0.000000E+00" rms="0.0"     purity="0.00000000E+00" nType="0">
                            <Node pos="l" depth="7" NCoef="0"     IVar="-1" Cut="     0.000000E+00" cType="1"     res="    -5.303755E-01" rms="0.0e-00"     purity="0.00000000E+00" nType="-99">
                            </Node>
                            <Node pos="r" depth="7" NCoef="0"     IVar="-1" Cut="     0.000000E+00" cType="1"     res="     1.000000E-01" rms="0.0e-00"     purity="0.00000000E+00" nType="-99">
                            </Node>
                        </Node>
                        <Node pos="r" depth="6" NCoef="0"     IVar="18" Cut="     7.118465E+01" cType="1"     res="     0.000000E+00" rms="0.0"     purity="0.00000000E+00" nType="0">
                            <Node pos="l" depth="7" NCoef="0"     IVar="-1" Cut="     0.000000E+00" cType="1"     res="    -3.600000E-01" rms="0.0e-00"     purity="0.00000000E+00" nType="-99">
                            </Node>
                            <Node pos="r" depth="7" NCoef="0"     IVar="-1" Cut="     0.000000E+00" cType="1"     res="     3.000000E-01" rms="0.0e-00"     purity="0.00000000E+00" nType="-99">
                            </Node>
                        </Node>
                    </Node>
                </Node>
                <Node pos="r" depth="4" NCoef="0"     IVar="8" Cut="     3.180818E-02" cType="1"     res="     0.000000E+00" rms="0.0"     purity="0.00000000E+00" nType="0">
                    <Node pos="l" depth="5" NCoef="0"     IVar="6" Cut="     5.597048E-03" cType="1"     res="     0.000000E+00" rms="0.0"     purity="0.00000000E+00" nType="0">
                        <Node pos="l" depth="6" NCoef="0"     IVar="5" Cut="     4.292934E-03" cType="1"     res="     0.000000E+00" rms="0.0"     purity="0.00000000E+00" nType="0">
                            <Node pos="l" depth="7" NCoef="0"     IVar="-1" Cut="     0.000000E+00" cType="1"     res="    -1.136213E-01" rms="0.0e-00"     purity="0.00000000E+00" nType="-99">
                            </Node>
                            <Node pos="r" depth="7" NCoef="0"     IVar="-1" Cut="     0.000000E+00" cType="1"     res="    -4.702703E-01" rms="0.0e-00"     purity="0.00000000E+00" nType="-99">
                            </Node>
                        </Node>
                        <Node pos="r" depth="6" NCoef="0"     IVar="19" Cut="     3.699267E-02" cType="1"     res="     0.000000E+00" rms="0.0"     purity="0.00000000E+00" nType="0">
                            <Node pos="l" depth="7" NCoef="0"     IVar="-1" Cut="     0.000000E+00" cType="1"     res="    -2.360656E-01" rms="0.0e-00"     purity="0.00000000E+00" nType="-99">
                            </Node>
                            <Node pos="r" depth="7" NCoef="0"     IVar="-1" Cut="     0.000000E+00" cType="1"     res="    -5.367253E-01" rms="0.0e-00"     purity="0.00000000E+00" nType="-99">
                            </Node>
                        </Node>
                    </Node>
                    <Node pos="r" depth="5" NCoef="0"     IVar="16" Cut="     2.553298E+01" cType="1"     res="     0.000000E+00" rms="0.0"     purity="0.00000000E+00" nType="0">
                        <Node pos="l" depth="6" NCoef="0"     IVar="19" Cut="     3.321975E-02" cType="1"     res="     0.000000E+00" rms="0.0"     purity="0.00000000E+00" nType="0">
                            <Node pos="l" depth="7" NCoef="0"     IVar="-1" Cut="     0.000000E+00" cType="1"     res="    -1.333333E-01" rms="0.0e-00"     purity="0.00000000E+00" nType="-99">
                            </Node>
                            <Node pos="r" depth="7" NCoef="0"     IVar="-1" Cut="     0.000000E+00" cType="1"     res="    -5.853043E-01" rms="0.0e-00"     purity="0.00000000E+00" nType="-99">
                            </Node>
                        </Node>
                        <Node pos="r" depth="6" NCoef="0"     IVar="0" Cut="     1.500000E+01" cType="1"     res="     0.000000E+00" rms="0.0"     purity="0.00000000E+00" nType="0">
                            <Node pos="l" depth="7" NCoef="0"     IVar="-1" Cut="     0.000000E+00" cType="1"     res="    -3.000000E-01" rms="0.0e-00"     purity="0.00000000E+00" nType="-99">
                            </Node>
                            <Node pos="r" depth="7" NCoef="0"     IVar="-1" Cut="     0.000000E+00" cType="1"     res="     3.333334E-01" rms="0.0e-00"     purity="0.00000000E+00" nType="-99">
                            </Node>
                        </Node>
                    </Node>
                </Node>
            </Node>
        </Node>
        <Node pos="r" depth="2" NCoef="0"     IVar="19" Cut="     2.563094E-01" cType="1"     res="     0.000000E+00" rms="0.0"     purity="0.00000000E+00" nType="0">
            <Node pos="l" depth="3" NCoef="0"     IVar="6" Cut="     4.593943E-03" cType="1"     res="     0.000000E+00" rms="0.0"     purity="0.00000000E+00" nType="0">
                <Node pos="l" depth="4" NCoef="0"     IVar="13" Cut="     2.181084E-01" cType="1"     res="     0.000000E+00" rms="0.0"     purity="0.00000000E+00" nType="0">
                    <Node pos="l" depth="5" NCoef="0"     IVar="6" Cut="     4.313016E-03" cType="1"     res="     0.000000E+00" rms="0.0"     purity="0.00000000E+00" nType="0">
                        <Node pos="l" depth="6" NCoef="0"     IVar="15" Cut="     6.376067E+00" cType="1"     res="     0.000000E+00" rms="0.0"     purity="0.00000000E+00" nType="0">
                            <Node pos="l" depth="7" NCoef="0"     IVar="-1" Cut="     0.000000E+00" cType="1"     res="     4.356744E-01" rms="0.0e-00"     purity="0.00000000E+00" nType="-99">
                            </Node>
                            <Node pos="r" depth="7" NCoef="0"     IVar="-1" Cut="     0.000000E+00" cType="1"     res="    -2.659794E-01" rms="0.0e-00"     purity="0.00000000E+00" nType="-99">
                            </Node>
                        </Node>
                        <Node pos="r" depth="6" NCoef="0"     IVar="17" Cut="     1.851968E+01" cType="1"     res="     0.000000E+00" rms="0.0"     purity="0.00000000E+00" nType="0">
                            <Node pos="l" depth="7" NCoef="0"     IVar="-1" Cut="     0.000000E+00" cType="1"     res="     2.270567E-01" rms="0.0e-00"     purity="0.00000000E+00" nType="-99">
                            </Node>
                            <Node pos="r" depth="7" NCoef="0"     IVar="-1" Cut="     0.000000E+00" cType="1"     res="    -8.804348E-02" rms="0.0e-00"     purity="0.00000000E+00" nType="-99">
                            </Node>
                        </Node>
                    </Node>
                    <Node pos="r" depth="5" NCoef="0"     IVar="13" Cut="     2.225432E-01" cType="1"     res="     0.000000E+00" rms="0.0"     purity="0.00000000E+00" nType="0">
                        <Node pos="l" depth="6" NCoef="0"     IVar="13" Cut="     2.221222E-01" cType="1"     res="     0.000000E+00" rms="0.0"     purity="0.00000000E+00" nType="0">
                            <Node pos="l" depth="7" NCoef="0"     IVar="-1" Cut="     0.000000E+00" cType="1"     res="    -4.000000E-01" rms="0.0e-00"     purity="0.00000000E+00" nType="-99">
                            </Node>
                            <Node pos="r" depth="7" NCoef="0"     IVar="-1" Cut="     0.000000E+00" cType="1"     res="     3.333334E-01" rms="0.0e-00"     purity="0.00000000E+00" nType="-99">
                            </Node>
                        </Node>
                        <Node pos="r" depth="6" NCoef="0"     IVar="-1" Cut="     0.000000E+00" cType="1"     res="    -5.964654E-01" rms="0.0e-00"     purity="0.00000000E+00" nType="-99">
                        </Node>
                    </Node>
                </Node>
                <Node pos="r" depth="4" NCoef="0"     IVar="6" Cut="     5.210595E-03" cType="1"     res="     0.000000E+00" rms="0.0"     purity="0.00000000E+00" nType="0">
                    <Node pos="l" depth="5" NCoef="0"     IVar="13" Cut="     2.021171E-01" cType="1"     res="     0.000000E+00" rms="0.0"     purity="0.00000000E+00" nType="0">
                        <Node pos="l" depth="6" NCoef="0"     IVar="17" Cut="     1.802242E+01" cType="1"     res="     0.000000E+00" rms="0.0"     purity="0.00000000E+00" nType="0">
                            <Node pos="l" depth="7" NCoef="0"     IVar="-1" Cut="     0.000000E+00" cType="1"     res="    -1.824324E-02" rms="0.0e-00"     purity="0.00000000E+00" nType="-99">
                            </Node>
                            <Node pos="r" depth="7" NCoef="0"     IVar="-1" Cut="     0.000000E+00" cType="1"     res="    -3.584352E-01" rms="0.0e-00"     purity="0.00000000E+00" nType="-99">
                            </Node>
                        </Node>
                        <Node pos="r" depth="6" NCoef="0"     IVar="-1" Cut="     0.000000E+00" cType="1"     res="    -5.948164E-01" rms="0.0e-00"     purity="0.00000000E+00" nType="-99">
                        </Node>
                    </Node>
                    <Node pos="r" depth="5" NCoef="0"     IVar="11" Cut="     5.230865E-03" cType="1"     res="     0.000000E+00" rms="0.0"     purity="0.00000000E+00" nType="0">
                        <Node pos="l" depth="6" NCoef="0"     IVar="18" Cut="     3.054566E+01" cType="1"     res="     0.000000E+00" rms="0.0"     purity="0.00000000E+00" nType="0">
                            <Node pos="l" depth="7" NCoef="0"     IVar="-1" Cut="     0.000000E+00" cType="1"     res="    -4.909091E-01" rms="0.0e-00"     purity="0.00000000E+00" nType="-99">
                            </Node>
                            <Node pos="r" depth="7" NCoef="0"     IVar="-1" Cut="     0.000000E+00" cType="1"     res="     2.727273E-01" rms="0.0e-00"     purity="0.00000000E+00" nType="-99">
                            </Node>
                        </Node>
                        <Node pos="r" depth="6" NCoef="0"     IVar="10" Cut="     2.934235E-01" cType="1"     res="     0.000000E+00" rms="0.0"     purity="0.00000000E+00" nType="0">
                            <Node pos="l" depth="7" NCoef="0"     IVar="-1" Cut="     0.000000E+00" cType="1"     res="    -5.831960E-01" rms="0.0e-00"     purity="0.00000000E+00" nType="-99">
                            </Node>
                            <Node pos="r" depth="7" NCoef="0"     IVar="-1" Cut="     0.000000E+00" cType="1"     res="     2.400000E-01" rms="0.0e-00"     purity="0.00000000E+00" nType="-99">
                            </Node>
                        </Node>
                    </Node>
                </Node>
            </Node>
            <Node pos="r" depth="3" NCoef="0"     IVar="19" Cut="     3.667540E-01" cType="1"     res="     0.000000E+00" rms="0.0"     purity="0.00000000E+00" nType="0">
                <Node pos="l" depth="4" NCoef="0"     IVar="6" Cut="     4.608938E-03" cType="1"     res="     0.000000E+00" rms="0.0"     purity="0.00000000E+00" nType="0">
                    <Node pos="l" depth="5" NCoef="0"     IVar="13" Cut="     2.059957E-01" cType="1"     res="     0.000000E+00" rms="0.0"     purity="0.00000000E+00" nType="0">
                        <Node pos="l" depth="6" NCoef="0"     IVar="6" Cut="     4.075527E-03" cType="1"     res="     0.000000E+00" rms="0.0"     purity="0.00000000E+00" nType="0">
                            <Node pos="l" depth="7" NCoef="0"     IVar="-1" Cut="     0.000000E+00" cType="1"     res="     2.194757E-01" rms="0.0e-00"     purity="0.00000000E+00" nType="-99">
                            </Node>
                            <Node pos="r" depth="7" NCoef="0"     IVar="-1" Cut="     0.000000E+00" cType="1"     res="    -1.243681E-01" rms="0.0e-00"     purity="0.00000000E+00" nType="-99">
                            </Node>
                        </Node>
                        <Node pos="r" depth="6" NCoef="0"     IVar="7" Cut="     9.512112E-03" cType="1"     res="     0.000000E+00" rms="0.0"     purity="0.00000000E+00" nType="0">
                            <Node pos="l" depth="7" NCoef="0"     IVar="-1" Cut="     0.000000E+00" cType="1"     res="    -2.655738E-01" rms="0.0e-00"     purity="0.00000000E+00" nType="-99">
                            </Node>
                            <Node pos="r" depth="7" NCoef="0"     IVar="-1" Cut="     0.000000E+00" cType="1"     res="    -5.974843E-01" rms="0.0e-00"     purity="0.00000000E+00" nType="-99">
                            </Node>
                        </Node>
                    </Node>
                    <Node pos="r" depth="5" NCoef="0"     IVar="6" Cut="     5.019331E-03" cType="1"     res="     0.000000E+00" rms="0.0"     purity="0.00000000E+00" nType="0">
                        <Node pos="l" depth="6" NCoef="0"     IVar="18" Cut="     4.770671E+01" cType="1"     res="     0.000000E+00" rms="0.0"     purity="0.00000000E+00" nType="0">
                            <Node pos="l" depth="7" NCoef="0"     IVar="-1" Cut="     0.000000E+00" cType="1"     res="    -5.379105E-01" rms="0.0e-00"     purity="0.00000000E+00" nType="-99">
                            </Node>
                            <Node pos="r" depth="7" NCoef="0"     IVar="-1" Cut="     0.000000E+00" cType="1"     res="    -2.979253E-01" rms="0.0e-00"     purity="0.00000000E+00" nType="-99">
                            </Node>
                        </Node>
                        <Node pos="r" depth="6" NCoef="0"     IVar="3" Cut="     3.250000E+01" cType="1"     res="     0.000000E+00" rms="0.0"     purity="0.00000000E+00" nType="0">
                            <Node pos="l" depth="7" NCoef="0"     IVar="-1" Cut="     0.000000E+00" cType="1"     res="    -5.930051E-01" rms="0.0e-00"     purity="0.00000000E+00" nType="-99">
                            </Node>
                            <Node pos="r" depth="7" NCoef="0"     IVar="-1" Cut="     0.000000E+00" cType="1"     res="    -3.878453E-01" rms="0.0e-00"     purity="0.00000000E+00" nType="-99">
                            </Node>
                        </Node>
                    </Node>
                </Node>
                <Node pos="r" depth="4" NCoef="0"     IVar="0" Cut="     3.050000E+01" cType="1"     res="     0.000000E+00" rms="0.0"     purity="0.00000000E+00" nType="0">
                    <Node pos="l" depth="5" NCoef="0"     IVar="16" Cut="     8.496035E+00" cType="1"     res="     0.000000E+00" rms="0.0"     purity="0.00000000E+00" nType="0">
                        <Node pos="l" depth="6" NCoef="0"     IVar="6" Cut="     4.313326E-03" cType="1"     res="     0.000000E+00" rms="0.0"     purity="0.00000000E+00" nType="0">
                            <Node pos="l" depth="7" NCoef="0"     IVar="-1" Cut="     0.000000E+00" cType="1"     res="    -4.386811E-01" rms="0.0e-00"     purity="0.00000000E+00" nType="-99">
                            </Node>
                            <Node pos="r" depth="7" NCoef="0"     IVar="-1" Cut="     0.000000E+00" cType="1"     res="    -5.909976E-01" rms="0.0e-00"     purity="0.00000000E+00" nType="-99">
                            </Node>
                        </Node>
                        <Node pos="r" depth="6" NCoef="0"     IVar="18" Cut="     1.155819E+02" cType="1"     res="     0.000000E+00" rms="0.0"     purity="0.00000000E+00" nType="0">
                            <Node pos="l" depth="7" NCoef="0"     IVar="-1" Cut="     0.000000E+00" cType="1"     res="    -5.986467E-01" rms="0.0e-00"     purity="0.00000000E+00" nType="-99">
                            </Node>
                            <Node pos="r" depth="7" NCoef="0"     IVar="-1" Cut="     0.000000E+00" cType="1"     res="    -4.327869E-01" rms="0.0e-00"     purity="0.00000000E+00" nType="-99">
                            </Node>
                        </Node>
                    </Node>
                    <Node pos="r" depth="5" NCoef="0"     IVar="12" Cut="     3.676120E+02" cType="1"     res="     0.000000E+00" rms="0.0"     purity="0.00000000E+00" nType="0">
                        <Node pos="l" depth="6" NCoef="0"     IVar="5" Cut="     3.723016E-03" cType="1"     res="     0.000000E+00" rms="0.0"     purity="0.00000000E+00" nType="0">
                            <Node pos="l" depth="7" NCoef="0"     IVar="-1" Cut="     0.000000E+00" cType="1"     res="     4.736843E-01" rms="0.0e-00"     purity="0.00000000E+00" nType="-99">
                            </Node>
                            <Node pos="r" depth="7" NCoef="0"     IVar="-1" Cut="     0.000000E+00" cType="1"     res="     1.636364E-01" rms="0.0e-00"     purity="0.00000000E+00" nType="-99">
                            </Node>
                        </Node>
                        <Node pos="r" depth="6" NCoef="0"     IVar="-1" Cut="     0.000000E+00" cType="1"     res="    -4.666667E-01" rms="0.0e-00"     purity="0.00000000E+00" nType="-99">
                        </Node>
                    </Node>
                </Node>
            </Node>
        </Node>
    </Node>
</BinaryTree>
<BinaryTree type="DecisionTree" boostWeight="0.0" itree="1">
    <Node pos="c" depth="1" NCoef="0"     IVar="19" Cut="     1.724292E-01" cType="1"     res="     0.000000E+00" rms="0.0"     purity="0.00000000E+00" nType="0">
        <Node pos="l" depth="2" NCoef="0"     IVar="6" Cut="     4.709290E-03" cType="1"     res="     0.000000E+00" rms="0.0"     purity="0.00000000E+00" nType="0">
            <Node pos="l" depth="3" NCoef="0"     IVar="17" Cut="     2.693758E+00" cType="1"     res="     0.000000E+00" rms="0.0"     purity="0.00000000E+00" nType="0">
                <Node pos="l" depth="4" NCoef="0"     IVar="14" Cut="     1.057107E+00" cType="1"     res="     0.000000E+00" rms="0.0"     purity="0.00000000E+00" nType="0">
                    <Node pos="l" depth="5" NCoef="0"     IVar="-1" Cut="     0.000000E+00" cType="1"     res="     3.254987E-01" rms="0.0e-00"     purity="0.00000000E+00" nType="-99">
                    </Node>
                    <Node pos="r" depth="5" NCoef="0"     IVar="17" Cut="     2.063926E+00" cType="1"     res="     0.000000E+00" rms="0.0"     purity="0.00000000E+00" nType="0">
                        <Node pos="l" depth="6" NCoef="0"     IVar="-1" Cut="     0.000000E+00" cType="1"     res="    -4.624845E-01" rms="0.0e-00"     purity="0.00000000E+00" nType="-99">
                        </Node>
                        <Node pos="r" depth="6" NCoef="0"     IVar="5" Cut="     1.800511E-03" cType="1"     res="     0.000000E+00" rms="0.0"     purity="0.00000000E+00" nType="0">
                            <Node pos="l" depth="7" NCoef="0"     IVar="-1" Cut="     0.000000E+00" cType="1"     res="     2.732728E-01" rms="0.0e-00"     purity="0.00000000E+00" nType="-99">
                            </Node>
                            <Node pos="r" depth="7" NCoef="0"     IVar="-1" Cut="     0.000000E+00" cType="1"     res="    -4.492213E-01" rms="0.0e-00"     purity="0.00000000E+00" nType="-99">
                            </Node>
                        </Node>
                    </Node>
                </Node>
                <Node pos="r" depth="4" NCoef="0"     IVar="6" Cut="     4.227397E-03" cType="1"     res="     0.000000E+00" rms="0.0"     purity="0.00000000E+00" nType="0">
                    <Node pos="l" depth="5" NCoef="0"     IVar="19" Cut="     8.762845E-02" cType="1"     res="     0.000000E+00" rms="0.0"     purity="0.00000000E+00" nType="0">
                        <Node pos="l" depth="6" NCoef="0"     IVar="18" Cut="     3.696683E+01" cType="1"     res="     0.000000E+00" rms="0.0"     purity="0.00000000E+00" nType="0">
                            <Node pos="l" depth="7" NCoef="0"     IVar="-1" Cut="     0.000000E+00" cType="1"     res="     4.461296E-01" rms="0.0e-00"     purity="0.00000000E+00" nType="-99">
                            </Node>
                            <Node pos="r" depth="7" NCoef="0"     IVar="-1" Cut="     0.000000E+00" cType="1"     res="     4.634976E-01" rms="0.0e-00"     purity="0.00000000E+00" nType="-99">
                            </Node>
                        </Node>
                        <Node pos="r" depth="6" NCoef="0"     IVar="18" Cut="     3.735972E+01" cType="1"     res="     0.000000E+00" rms="0.0"     purity="0.00000000E+00" nType="0">
                            <Node pos="l" depth="7" NCoef="0"     IVar="-1" Cut="     0.000000E+00" cType="1"     res="     2.962993E-01" rms="0.0e-00"     purity="0.00000000E+00" nType="-99">
                            </Node>
                            <Node pos="r" depth="7" NCoef="0"     IVar="-1" Cut="     0.000000E+00" cType="1"     res="     4.370802E-01" rms="0.0e-00"     purity="0.00000000E+00" nType="-99">
                            </Node>
                        </Node>
                    </Node>
                    <Node pos="r" depth="5" NCoef="0"     IVar="18" Cut="     5.155928E+01" cType="1"     res="     0.000000E+00" rms="0.0"     purity="0.00000000E+00" nType="0">
                        <Node pos="l" depth="6" NCoef="0"     IVar="17" Cut="     1.661063E+01" cType="1"     res="     0.000000E+00" rms="0.0"     purity="0.00000000E+00" nType="0">
                            <Node pos="l" depth="7" NCoef="0"     IVar="-1" Cut="     0.000000E+00" cType="1"     res="     2.817508E-01" rms="0.0e-00"     purity="0.00000000E+00" nType="-99">
                            </Node>
                            <Node pos="r" depth="7" NCoef="0"     IVar="-1" Cut="     0.000000E+00" cType="1"     res="    -9.833270E-02" rms="0.0e-00"     purity="0.00000000E+00" nType="-99">
                            </Node>
                        </Node>
                        <Node pos="r" depth="6" NCoef="0"     IVar="17" Cut="     2.518760E+01" cType="1"     res="     0.000000E+00" rms="0.0"     purity="0.00000000E+00" nType="0">
                            <Node pos="l" depth="7" NCoef="0"     IVar="-1" Cut="     0.000000E+00" cType="1"     res="     4.278252E-01" rms="0.0e-00"     purity="0.00000000E+00" nType="-99">
                            </Node>
                            <Node pos="r" depth="7" NCoef="0"     IVar="-1" Cut="     0.000000E+00" cType="1"     res="    -1.695228E-01" rms="0.0e-00"     purity="0.00000000E+00" nType="-99">
                            </Node>
                        </Node>
                    </Node>
                </Node>
            </Node>
            <Node pos="r" depth="3" NCoef="0"     IVar="6" Cut="     5.178097E-03" cType="1"     res="     0.000000E+00" rms="0.0"     purity="0.00000000E+00" nType="0">
                <Node pos="l" depth="4" NCoef="0"     IVar="13" Cut="     2.309424E-01" cType="1"     res="     0.000000E+00" rms="0.0"     purity="0.00000000E+00" nType="0">
                    <Node pos="l" depth="5" NCoef="0"     IVar="17" Cut="     1.745619E+01" cType="1"     res="     0.000000E+00" rms="0.0"     purity="0.00000000E+00" nType="0">
                        <Node pos="l" depth="6" NCoef="0"     IVar="18" Cut="     4.438983E+01" cType="1"     res="     0.000000E+00" rms="0.0"     purity="0.00000000E+00" nType="0">
                            <Node pos="l" depth="7" NCoef="0"     IVar="-1" Cut="     0.000000E+00" cType="1"     res="     3.861575E-02" rms="0.0e-00"     purity="0.00000000E+00" nType="-99">
                            </Node>
                            <Node pos="r" depth="7" NCoef="0"     IVar="-1" Cut="     0.000000E+00" cType="1"     res="     4.276033E-01" rms="0.0e-00"     purity="0.00000000E+00" nType="-99">
                            </Node>
                        </Node>
                        <Node pos="r" depth="6" NCoef="0"     IVar="18" Cut="     5.610064E+01" cType="1"     res="     0.000000E+00" rms="0.0"     purity="0.00000000E+00" nType="0">
                            <Node pos="l" depth="7" NCoef="0"     IVar="-1" Cut="     0.000000E+00" cType="1"     res="    -3.227049E-01" rms="0.0e-00"     purity="0.00000000E+00" nType="-99">
                            </Node>
                            <Node pos="r" depth="7" NCoef="0"     IVar="-1" Cut="     0.000000E+00" cType="1"     res="     2.646357E-02" rms="0.0e-00"     purity="0.00000000E+00" nType="-99">
                            </Node>
                        </Node>
                    </Node>
                    <Node pos="r" depth="5" NCoef="0"     IVar="9" Cut="     1.969140E-02" cType="1"     res="     0.000000E+00" rms="0.0"     purity="0.00000000E+00" nType="0">
                        <Node pos="l" depth="6" NCoef="0"     IVar="11" Cut="     6.166915E-03" cType="1"     res="     0.000000E+00" rms="0.0"     purity="0.00000000E+00" nType="0">
                            <Node pos="l" depth="7" NCoef="0"     IVar="-1" Cut="     0.000000E+00" cType="1"     res="    -4.464400E-01" rms="0.0e-00"     purity="0.00000000E+00" nType="-99">
                            </Node>
                            <Node pos="r" depth="7" NCoef="0"     IVar="-1" Cut="     0.000000E+00" cType="1"     res="     3.753133E-01" rms="0.0e-00"     purity="0.00000000E+00" nType="-99">
                            </Node>
                        </Node>
                        <Node pos="r" depth="6" NCoef="0"     IVar="-1" Cut="     0.000000E+00" cType="1"     res="    -5.761217E-01" rms="0.0e-00"     purity="0.00000000E+00" nType="-99">
                        </Node>
                    </Node>
                </Node>
                <Node pos="r" depth="4" NCoef="0"     IVar="17" Cut="     2.286567E+01" cType="1"     res="     0.000000E+00" rms="0.0"     purity="0.00000000E+00" nType="0">
                    <Node pos="l" depth="5" NCoef="0"     IVar="18" Cut="     5.567429E+01" cType="1"     res="     0.000000E+00" rms="0.0"     purity="0.00000000E+00" nType="0">
                        <Node pos="l" depth="6" NCoef="0"     IVar="6" Cut="     5.884883E-03" cType="1"     res="     0.000000E+00" rms="0.0"     purity="0.00000000E+00" nType="0">
                            <Node pos="l" depth="7" NCoef="0"     IVar="-1" Cut="     0.000000E+00" cType="1"     res="    -2.843578E-01" rms="0.0e-00"     purity="0.00000000E+00" nType="-99">
                            </Node>
                            <Node pos="r" depth="7" NCoef="0"     IVar="-1" Cut="     0.000000E+00" cType="1"     res="    -4.382528E-01" rms="0.0e-00"     purity="0.00000000E+00" nType="-99">
                            </Node>
                        </Node>
                        <Node pos="r" depth="6" NCoef="0"     IVar="8" Cut="     3.206789E-02" cType="1"     res="     0.000000E+00" rms="0.0"     purity="0.00000000E+00" nType="0">
                            <Node pos="l" depth="7" NCoef="0"     IVar="-1" Cut="     0.000000E+00" cType="1"     res="     2.852269E-01" rms="0.0e-00"     purity="0.00000000E+00" nType="-99">
                            </Node>
                            <Node pos="r" depth="7" NCoef="0"     IVar="-1" Cut="     0.000000E+00" cType="1"     res="    -4.079016E-01" rms="0.0e-00"     purity="0.00000000E+00" nType="-99">
                            </Node>
                        </Node>
                    </Node>
                    <Node pos="r" depth="5" NCoef="0"     IVar="4" Cut="     3.512032E+01" cType="1"     res="     0.000000E+00" rms="0.0"     purity="0.00000000E+00" nType="0">
                        <Node pos="l" depth="6" NCoef="0"     IVar="16" Cut="     6.585331E+00" cType="1"     res="     0.000000E+00" rms="0.0"     purity="0.00000000E+00" nType="0">
                            <Node pos="l" depth="7" NCoef="0"     IVar="-1" Cut="     0.000000E+00" cType="1"     res="    -1.622741E-01" rms="0.0e-00"     purity="0.00000000E+00" nType="-99">
                            </Node>
                            <Node pos="r" depth="7" NCoef="0"     IVar="-1" Cut="     0.000000E+00" cType="1"     res="    -4.568128E-01" rms="0.0e-00"     purity="0.00000000E+00" nType="-99">
                            </Node>
                        </Node>
                        <Node pos="r" depth="6" NCoef="0"     IVar="5" Cut="     4.363838E-03" cType="1"     res="     0.000000E+00" rms="0.0"     purity="0.00000000E+00" nType="0">
                            <Node pos="l" depth="7" NCoef="0"     IVar="-1" Cut="     0.000000E+00" cType="1"     res="     3.586549E-01" rms="0.0e-00"     purity="0.00000000E+00" nType="-99">
                            </Node>
                            <Node pos="r" depth="7" NCoef="0"     IVar="-1" Cut="     0.000000E+00" cType="1"     res="    -3.537490E-01" rms="0.0e-00"     purity="0.00000000E+00" nType="-99">
                            </Node>
                        </Node>
                    </Node>
                </Node>
            </Node>
        </Node>
        <Node pos="r" depth="2" NCoef="0"     IVar="19" Cut="     2.544664E-01" cType="1"     res="     0.000000E+00" rms="0.0"     purity="0.00000000E+00" nType="0">
            <Node pos="l" depth="3" NCoef="0"     IVar="6" Cut="     4.593943E-03" cType="1"     res="     0.000000E+00" rms="0.0"     purity="0.00000000E+00" nType="0">
                <Node pos="l" depth="4" NCoef="0"     IVar="13" Cut="     2.181084E-01" cType="1"     res="     0.000000E+00" rms="0.0"     purity="0.00000000E+00" nType="0">
                    <Node pos="l" depth="5" NCoef="0"     IVar="6" Cut="     3.961311E-03" cType="1"     res="     0.000000E+00" rms="0.0"     purity="0.00000000E+00" nType="0">
                        <Node pos="l" depth="6" NCoef="0"     IVar="14" Cut="     4.226795E+00" cType="1"     res="     0.000000E+00" rms="0.0"     purity="0.00000000E+00" nType="0">
                            <Node pos="l" depth="7" NCoef="0"     IVar="-1" Cut="     0.000000E+00" cType="1"     res="     3.828424E-01" rms="0.0e-00"     purity="0.00000000E+00" nType="-99">
                            </Node>
                            <Node pos="r" depth="7" NCoef="0"     IVar="-1" Cut="     0.000000E+00" cType="1"     res="    -4.364234E-01" rms="0.0e-00"     purity="0.00000000E+00" nType="-99">
                            </Node>
                        </Node>
                        <Node pos="r" depth="6" NCoef="0"     IVar="18" Cut="     4.168767E+01" cType="1"     res="     0.000000E+00" rms="0.0"     purity="0.00000000E+00" nType="0">
                            <Node pos="l" depth="7" NCoef="0"     IVar="-1" Cut="     0.000000E+00" cType="1"     res="    -1.576332E-01" rms="0.0e-00"     purity="0.00000000E+00" nType="-99">
                            </Node>
                            <Node pos="r" depth="7" NCoef="0"     IVar="-1" Cut="     0.000000E+00" cType="1"     res="     2.349626E-01" rms="0.0e-00"     purity="0.00000000E+00" nType="-99">
                            </Node>
                        </Node>
                    </Node>
                    <Node pos="r" depth="5" NCoef="0"     IVar="13" Cut="     2.225432E-01" cType="1"     res="     0.000000E+00" rms="0.0"     purity="0.00000000E+00" nType="0">
                        <Node pos="l" depth="6" NCoef="0"     IVar="13" Cut="     2.221222E-01" cType="1"     res="     0.000000E+00" rms="0.0"     purity="0.00000000E+00" nType="0">
                            <Node pos="l" depth="7" NCoef="0"     IVar="-1" Cut="     0.000000E+00" cType="1"     res="    -3.296103E-01" rms="0.0e-00"     purity="0.00000000E+00" nType="-99">
                            </Node>
                            <Node pos="r" depth="7" NCoef="0"     IVar="-1" Cut="     0.000000E+00" cType="1"     res="     2.825677E-01" rms="0.0e-00"     purity="0.00000000E+00" nType="-99">
                            </Node>
                        </Node>
                        <Node pos="r" depth="6" NCoef="0"     IVar="-1" Cut="     0.000000E+00" cType="1"     res="    -4.621174E-01" rms="0.0e-00"     purity="0.00000000E+00" nType="-99">
                        </Node>
                    </Node>
                </Node>
                <Node pos="r" depth="4" NCoef="0"     IVar="6" Cut="     4.985514E-03" cType="1"     res="     0.000000E+00" rms="0.0"     purity="0.00000000E+00" nType="0">
                    <Node pos="l" depth="5" NCoef="0"     IVar="18" Cut="     4.995686E+01" cType="1"     res="     0.000000E+00" rms="0.0"     purity="0.00000000E+00" nType="0">
                        <Node pos="l" depth="6" NCoef="0"     IVar="11" Cut="     5.459759E-03" cType="1"     res="     0.000000E+00" rms="0.0"     purity="0.00000000E+00" nType="0">
                            <Node pos="l" depth="7" NCoef="0"     IVar="-1" Cut="     0.000000E+00" cType="1"     res="     7.748944E-02" rms="0.0e-00"     purity="0.00000000E+00" nType="-99">
                            </Node>
                            <Node pos="r" depth="7" NCoef="0"     IVar="-1" Cut="     0.000000E+00" cType="1"     res="    -3.884750E-01" rms="0.0e-00"     purity="0.00000000E+00" nType="-99">
                            </Node>
                        </Node>
                        <Node pos="r" depth="6" NCoef="0"     IVar="17" Cut="     2.131055E+01" cType="1"     res="     0.000000E+00" rms="0.0"     purity="0.00000000E+00" nType="0">
                            <Node pos="l" depth="7" NCoef="0"     IVar="-1" Cut="     0.000000E+00" cType="1"     res="     3.273417E-01" rms="0.0e-00"     purity="0.00000000E+00" nType="-99">
                            </Node>
                            <Node pos="r" depth="7" NCoef="0"     IVar="-1" Cut="     0.000000E+00" cType="1"     res="    -2.570144E-01" rms="0.0e-00"     purity="0.00000000E+00" nType="-99">
                            </Node>
                        </Node>
                    </Node>
                    <Node pos="r" depth="5" NCoef="0"     IVar="11" Cut="     5.706994E-03" cType="1"     res="     0.000000E+00" rms="0.0"     purity="0.00000000E+00" nType="0">
                        <Node pos="l" depth="6" NCoef="0"     IVar="8" Cut="     2.798040E-02" cType="1"     res="     0.000000E+00" rms="0.0"     purity="0.00000000E+00" nType="0">
                            <Node pos="l" depth="7" NCoef="0"     IVar="-1" Cut="     0.000000E+00" cType="1"     res="     1.296662E-01" rms="0.0e-00"     purity="0.00000000E+00" nType="-99">
                            </Node>
                            <Node pos="r" depth="7" NCoef="0"     IVar="-1" Cut="     0.000000E+00" cType="1"     res="    -4.320147E-01" rms="0.0e-00"     purity="0.00000000E+00" nType="-99">
                            </Node>
                        </Node>
                        <Node pos="r" depth="6" NCoef="0"     IVar="6" Cut="     5.661462E-03" cType="1"     res="     0.000000E+00" rms="0.0"     purity="0.00000000E+00" nType="0">
                            <Node pos="l" depth="7" NCoef="0"     IVar="-1" Cut="     0.000000E+00" cType="1"     res="    -3.868897E-01" rms="0.0e-00"     purity="0.00000000E+00" nType="-99">
                            </Node>
                            <Node pos="r" depth="7" NCoef="0"     IVar="-1" Cut="     0.000000E+00" cType="1"     res="    -4.634786E-01" rms="0.0e-00"     purity="0.00000000E+00" nType="-99">
                            </Node>
                        </Node>
                    </Node>
                </Node>
            </Node>
            <Node pos="r" depth="3" NCoef="0"     IVar="19" Cut="     3.224183E-01" cType="1"     res="     0.000000E+00" rms="0.0"     purity="0.00000000E+00" nType="0">
                <Node pos="l" depth="4" NCoef="0"     IVar="6" Cut="     4.896645E-03" cType="1"     res="     0.000000E+00" rms="0.0"     purity="0.00000000E+00" nType="0">
                    <Node pos="l" depth="5" NCoef="0"     IVar="13" Cut="     2.073112E-01" cType="1"     res="     0.000000E+00" rms="0.0"     purity="0.00000000E+00" nType="0">
                        <Node pos="l" depth="6" NCoef="0"     IVar="13" Cut="     1.161209E-01" cType="1"     res="     0.000000E+00" rms="0.0"     purity="0.00000000E+00" nType="0">
                            <Node pos="l" depth="7" NCoef="0"     IVar="-1" Cut="     0.000000E+00" cType="1"     res="    -4.013045E-01" rms="0.0e-00"     purity="0.00000000E+00" nType="-99">
                            </Node>
                            <Node pos="r" depth="7" NCoef="0"     IVar="-1" Cut="     0.000000E+00" cType="1"     res="     6.288796E-02" rms="0.0e-00"     purity="0.00000000E+00" nType="-99">
                            </Node>
                        </Node>
                        <Node pos="r" depth="6" NCoef="0"     IVar="7" Cut="     9.512112E-03" cType="1"     res="     0.000000E+00" rms="0.0"     purity="0.00000000E+00" nType="0">
                            <Node pos="l" depth="7" NCoef="0"     IVar="-1" Cut="     0.000000E+00" cType="1"     res="    -1.983110E-01" rms="0.0e-00"     purity="0.00000000E+00" nType="-99">
                            </Node>
                            <Node pos="r" depth="7" NCoef="0"     IVar="-1" Cut="     0.000000E+00" cType="1"     res="    -4.656473E-01" rms="0.0e-00"     purity="0.00000000E+00" nType="-99">
                            </Node>
                        </Node>
                    </Node>
                    <Node pos="r" depth="5" NCoef="0"     IVar="11" Cut="     3.938749E-03" cType="1"     res="     0.000000E+00" rms="0.0"     purity="0.00000000E+00" nType="0">
                        <Node pos="l" depth="6" NCoef="0"     IVar="-1" Cut="     0.000000E+00" cType="1"     res="     2.278523E-01" rms="0.0e-00"     purity="0.00000000E+00" nType="-99">
                        </Node>
                        <Node pos="r" depth="6" NCoef="0"     IVar="12" Cut="     3.680422E+02" cType="1"     res="     0.000000E+00" rms="0.0"     purity="0.00000000E+00" nType="0">
                            <Node pos="l" depth="7" NCoef="0"     IVar="-1" Cut="     0.000000E+00" cType="1"     res="    -4.504289E-01" rms="0.0e-00"     purity="0.00000000E+00" nType="-99">
                            </Node>
                            <Node pos="r" depth="7" NCoef="0"     IVar="-1" Cut="     0.000000E+00" cType="1"     res="     2.424243E-01" rms="0.0e-00"     purity="0.00000000E+00" nType="-99">
                            </Node>
                        </Node>
                    </Node>
                </Node>
                <Node pos="r" depth="4" NCoef="0"     IVar="19" Cut="     4.343413E-01" cType="1"     res="     0.000000E+00" rms="0.0"     purity="0.00000000E+00" nType="0">
                    <Node pos="l" depth="5" NCoef="0"     IVar="6" Cut="     4.600648E-03" cType="1"     res="     0.000000E+00" rms="0.0"     purity="0.00000000E+00" nType="0">
                        <Node pos="l" depth="6" NCoef="0"     IVar="13" Cut="     2.059406E-01" cType="1"     res="     0.000000E+00" rms="0.0"     purity="0.00000000E+00" nType="0">
                            <Node pos="l" depth="7" NCoef="0"     IVar="-1" Cut="     0.000000E+00" cType="1"     res="    -2.902151E-02" rms="0.0e-00"     purity="0.00000000E+00" nType="-99">
                            </Node>
                            <Node pos="r" depth="7" NCoef="0"     IVar="-1" Cut="     0.000000E+00" cType="1"     res="    -4.560746E-01" rms="0.0e-00"     purity="0.00000000E+00" nType="-99">
                            </Node>
                        </Node>
                        <Node pos="r" depth="6" NCoef="0"     IVar="11" Cut="     5.213689E-03" cType="1"     res="     0.000000E+00" rms="0.0"     purity="0.00000000E+00" nType="0">
                            <Node pos="l" depth="7" NCoef="0"     IVar="-1" Cut="     0.000000E+00" cType="1"     res="    -2.699249E-01" rms="0.0e-00"     purity="0.00000000E+00" nType="-99">
                            </Node>
                            <Node pos="r" depth="7" NCoef="0"     IVar="-1" Cut="     0.000000E+00" cType="1"     res="    -4.575278E-01" rms="0.0e-00"     purity="0.00000000E+00" nType="-99">
                            </Node>
                        </Node>
                    </Node>
                    <Node pos="r" depth="5" NCoef="0"     IVar="0" Cut="     3.050000E+01" cType="1"     res="     0.000000E+00" rms="0.0"     purity="0.00000000E+00" nType="0">
                        <Node pos="l" depth="6" NCoef="0"     IVar="18" Cut="     1.055674E+02" cType="1"     res="     0.000000E+00" rms="0.0"     purity="0.00000000E+00" nType="0">
                            <Node pos="l" depth="7" NCoef="0"     IVar="-1" Cut="     0.000000E+00" cType="1"     res="    -4.638288E-01" rms="0.0e-00"     purity="0.00000000E+00" nType="-99">
                            </Node>
                            <Node pos="r" depth="7" NCoef="0"     IVar="-1" Cut="     0.000000E+00" cType="1"     res="    -3.672034E-01" rms="0.0e-00"     purity="0.00000000E+00" nType="-99">
                            </Node>
                        </Node>
                        <Node pos="r" depth="6" NCoef="0"     IVar="12" Cut="     3.676120E+02" cType="1"     res="     0.000000E+00" rms="0.0"     purity="0.00000000E+00" nType="0">
                            <Node pos="l" depth="7" NCoef="0"     IVar="-1" Cut="     0.000000E+00" cType="1"     res="     3.326859E-01" rms="0.0e-00"     purity="0.00000000E+00" nType="-99">
                            </Node>
                            <Node pos="r" depth="7" NCoef="0"     IVar="-1" Cut="     0.000000E+00" cType="1"     res="    -3.750337E-01" rms="0.0e-00"     purity="0.00000000E+00" nType="-99">
                            </Node>
                        </Node>
                    </Node>
                </Node>
            </Node>
        </Node>
    </Node>
</BinaryTree>
<BinaryTree type="DecisionTree" boostWeight="0.0" itree="2">
    <Node pos="c" depth="1" NCoef="0"     IVar="19" Cut="     1.560235E-01" cType="1"     res="     0.000000E+00" rms="0.0"     purity="0.00000000E+00" nType="0">
        <Node pos="l" depth="2" NCoef="0"     IVar="6" Cut="     4.584250E-03" cType="1"     res="     0.000000E+00" rms="0.0"     purity="0.00000000E+00" nType="0">
            <Node pos="l" depth="3" NCoef="0"     IVar="17" Cut="     3.054969E+00" cType="1"     res="     0.000000E+00" rms="0.0"     purity="0.00000000E+00" nType="0">
                <Node pos="l" depth="4" NCoef="0"     IVar="14" Cut="     1.077549E+00" cType="1"     res="     0.000000E+00" rms="0.0"     purity="0.00000000E+00" nType="0">
                    <Node pos="l" depth="5" NCoef="0"     IVar="6" Cut="     3.591875E-03" cType="1"     res="     0.000000E+00" rms="0.0"     purity="0.00000000E+00" nType="0">
                        <Node pos="l" depth="6" NCoef="0"     IVar="-1" Cut="     0.000000E+00" cType="1"     res="     3.599850E-01" rms="0.0e-00"     purity="0.00000000E+00" nType="-99">
                        </Node>
                        <Node pos="r" depth="6" NCoef="0"     IVar="-1" Cut="     0.000000E+00" cType="1"     res="     8.741684E-02" rms="0.0e-00"     purity="0.00000000E+00" nType="-99">
                        </Node>
                    </Node>
                    <Node pos="r" depth="5" NCoef="0"     IVar="14" Cut="     2.052054E+00" cType="1"     res="     0.000000E+00" rms="0.0"     purity="0.00000000E+00" nType="0">
                        <Node pos="l" depth="6" NCoef="0"     IVar="17" Cut="     2.058244E+00" cType="1"     res="     0.000000E+00" rms="0.0"     purity="0.00000000E+00" nType="0">
                            <Node pos="l" depth="7" NCoef="0"     IVar="-1" Cut="     0.000000E+00" cType="1"     res="    -3.855047E-01" rms="0.0e-00"     purity="0.00000000E+00" nType="-99">
                            </Node>
                            <Node pos="r" depth="7" NCoef="0"     IVar="-1" Cut="     0.000000E+00" cType="1"     res="     1.896622E-01" rms="0.0e-00"     purity="0.00000000E+00" nType="-99">
                            </Node>
                        </Node>
                        <Node pos="r" depth="6" NCoef="0"     IVar="-1" Cut="     0.000000E+00" cType="1"     res="    -4.119582E-01" rms="0.0e-00"     purity="0.00000000E+00" nType="-99">
                        </Node>
                    </Node>
                </Node>
                <Node pos="r" depth="4" NCoef="0"     IVar="6" Cut="     4.120056E-03" cType="1"     res="     0.000000E+00" rms="0.0"     purity="0.00000000E+00" nType="0">
                    <Node pos="l" depth="5" NCoef="0"     IVar="15" Cut="     9.212543E+00" cType="1"     res="     0.000000E+00" rms="0.0"     purity="0.00000000E+00" nType="0">
                        <Node pos="l" depth="6" NCoef="0"     IVar="19" Cut="     6.796555E-02" cType="1"     res="     0.000000E+00" rms="0.0"     purity="0.00000000E+00" nType="0">
                            <Node pos="l" depth="7" NCoef="0"     IVar="-1" Cut="     0.000000E+00" cType="1"     res="     4.013327E-01" rms="0.0e-00"     purity="0.00000000E+00" nType="-99">
                            </Node>
                            <Node pos="r" depth="7" NCoef="0"     IVar="-1" Cut="     0.000000E+00" cType="1"     res="     3.715923E-01" rms="0.0e-00"     purity="0.00000000E+00" nType="-99">
                            </Node>
                        </Node>
                        <Node pos="r" depth="6" NCoef="0"     IVar="0" Cut="     1.450000E+01" cType="1"     res="     0.000000E+00" rms="0.0"     purity="0.00000000E+00" nType="0">
                            <Node pos="l" depth="7" NCoef="0"     IVar="-1" Cut="     0.000000E+00" cType="1"     res="    -7.245477E-01" rms="0.0e-00"     purity="0.00000000E+00" nType="-99">
                            </Node>
                            <Node pos="r" depth="7" NCoef="0"     IVar="-1" Cut="     0.000000E+00" cType="1"     res="     2.114664E-01" rms="0.0e-00"     purity="0.00000000E+00" nType="-99">
                            </Node>
                        </Node>
                    </Node>
                    <Node pos="r" depth="5" NCoef="0"     IVar="3" Cut="     1.400000E+01" cType="1"     res="     0.000000E+00" rms="0.0"     purity="0.00000000E+00" nType="0">
                        <Node pos="l" depth="6" NCoef="0"     IVar="18" Cut="     4.230706E+01" cType="1"     res="     0.000000E+00" rms="0.0"     purity="0.00000000E+00" nType="0">
                            <Node pos="l" depth="7" NCoef="0"     IVar="-1" Cut="     0.000000E+00" cType="1"     res="     1.794791E-01" rms="0.0e-00"     purity="0.00000000E+00" nType="-99">
                            </Node>
                            <Node pos="r" depth="7" NCoef="0"     IVar="-1" Cut="     0.000000E+00" cType="1"     res="     3.464436E-01" rms="0.0e-00"     purity="0.00000000E+00" nType="-99">
                            </Node>
                        </Node>
                        <Node pos="r" depth="6" NCoef="0"     IVar="5" Cut="     3.954342E-03" cType="1"     res="     0.000000E+00" rms="0.0"     purity="0.00000000E+00" nType="0">
                            <Node pos="l" depth="7" NCoef="0"     IVar="-1" Cut="     0.000000E+00" cType="1"     res="    -6.172714E-01" rms="0.0e-00"     purity="0.00000000E+00" nType="-99">
                            </Node>
                            <Node pos="r" depth="7" NCoef="0"     IVar="-1" Cut="     0.000000E+00" cType="1"     res="     1.452482E-01" rms="0.0e-00"     purity="0.00000000E+00" nType="-99">
                            </Node>
                        </Node>
                    </Node>
                </Node>
            </Node>
            <Node pos="r" depth="3" NCoef="0"     IVar="6" Cut="     5.169972E-03" cType="1"     res="     0.000000E+00" rms="0.0"     purity="0.00000000E+00" nType="0">
                <Node pos="l" depth="4" NCoef="0"     IVar="17" Cut="     2.395341E+01" cType="1"     res="     0.000000E+00" rms="0.0"     purity="0.00000000E+00" nType="0">
                    <Node pos="l" depth="5" NCoef="0"     IVar="18" Cut="     5.577719E+01" cType="1"     res="     0.000000E+00" rms="0.0"     purity="0.00000000E+00" nType="0">
                        <Node pos="l" depth="6" NCoef="0"     IVar="17" Cut="     1.655424E+01" cType="1"     res="     0.000000E+00" rms="0.0"     purity="0.00000000E+00" nType="0">
                            <Node pos="l" depth="7" NCoef="0"     IVar="-1" Cut="     0.000000E+00" cType="1"     res="     7.936941E-02" rms="0.0e-00"     purity="0.00000000E+00" nType="-99">
                            </Node>
                            <Node pos="r" depth="7" NCoef="0"     IVar="-1" Cut="     0.000000E+00" cType="1"     res="    -2.113288E-01" rms="0.0e-00"     purity="0.00000000E+00" nType="-99">
                            </Node>
                        </Node>
                        <Node pos="r" depth="6" NCoef="0"     IVar="7" Cut="     2.443279E-02" cType="1"     res="     0.000000E+00" rms="0.0"     purity="0.00000000E+00" nType="0">
                            <Node pos="l" depth="7" NCoef="0"     IVar="-1" Cut="     0.000000E+00" cType="1"     res="    -3.277517E-01" rms="0.0e-00"     purity="0.00000000E+00" nType="-99">
                            </Node>
                            <Node pos="r" depth="7" NCoef="0"     IVar="-1" Cut="     0.000000E+00" cType="1"     res="     3.408416E-01" rms="0.0e-00"     purity="0.00000000E+00" nType="-99">
                            </Node>
                        </Node>
                    </Node>
                    <Node pos="r" depth="5" NCoef="0"     IVar="7" Cut="     2.972884E-02" cType="1"     res="     0.000000E+00" rms="0.0"     purity="0.00000000E+00" nType="0">
                        <Node pos="l" depth="6" NCoef="0"     IVar="13" Cut="     2.153787E-01" cType="1"     res="     0.000000E+00" rms="0.0"     purity="0.00000000E+00" nType="0">
                            <Node pos="l" depth="7" NCoef="0"     IVar="-1" Cut="     0.000000E+00" cType="1"     res="    -4.904273E-01" rms="0.0e-00"     purity="0.00000000E+00" nType="-99">
                            </Node>
                            <Node pos="r" depth="7" NCoef="0"     IVar="-1" Cut="     0.000000E+00" cType="1"     res="     1.566606E-01" rms="0.0e-00"     purity="0.00000000E+00" nType="-99">
                            </Node>
                        </Node>
                        <Node pos="r" depth="6" NCoef="0"     IVar="6" Cut="     4.860814E-03" cType="1"     res="     0.000000E+00" rms="0.0"     purity="0.00000000E+00" nType="0">
                            <Node pos="l" depth="7" NCoef="0"     IVar="-1" Cut="     0.000000E+00" cType="1"     res="     9.722254E-02" rms="0.0e-00"     purity="0.00000000E+00" nType="-99">
                            </Node>
                            <Node pos="r" depth="7" NCoef="0"     IVar="-1" Cut="     0.000000E+00" cType="1"     res="    -3.407385E-01" rms="0.0e-00"     purity="0.00000000E+00" nType="-99">
                            </Node>
                        </Node>
                    </Node>
                </Node>
                <Node pos="r" depth="4" NCoef="0"     IVar="17" Cut="     1.689385E+01" cType="1"     res="     0.000000E+00" rms="0.0"     purity="0.00000000E+00" nType="0">
                    <Node pos="l" depth="5" NCoef="0"     IVar="18" Cut="     5.007770E+01" cType="1"     res="     0.000000E+00" rms="0.0"     purity="0.00000000E+00" nType="0">
                        <Node pos="l" depth="6" NCoef="0"     IVar="13" Cut="     1.670671E-01" cType="1"     res="     0.000000E+00" rms="0.0"     purity="0.00000000E+00" nType="0">
                            <Node pos="l" depth="7" NCoef="0"     IVar="-1" Cut="     0.000000E+00" cType="1"     res="     2.252395E-02" rms="0.0e-00"     purity="0.00000000E+00" nType="-99">
                            </Node>
                            <Node pos="r" depth="7" NCoef="0"     IVar="-1" Cut="     0.000000E+00" cType="1"     res="    -3.194353E-01" rms="0.0e-00"     purity="0.00000000E+00" nType="-99">
                            </Node>
                        </Node>
                        <Node pos="r" depth="6" NCoef="0"     IVar="7" Cut="     3.799512E-02" cType="1"     res="     0.000000E+00" rms="0.0"     purity="0.00000000E+00" nType="0">
                            <Node pos="l" depth="7" NCoef="0"     IVar="-1" Cut="     0.000000E+00" cType="1"     res="     6.579451E-01" rms="0.0e-00"     purity="0.00000000E+00" nType="-99">
                            </Node>
                            <Node pos="r" depth="7" NCoef="0"     IVar="-1" Cut="     0.000000E+00" cType="1"     res="    -2.409438E-01" rms="0.0e-00"     purity="0.00000000E+00" nType="-99">
                            </Node>
                        </Node>
                    </Node>
                    <Node pos="r" depth="5" NCoef="0"     IVar="6" Cut="     5.405818E-03" cType="1"     res="     0.000000E+00" rms="0.0"     purity="0.00000000E+00" nType="0">
                        <Node pos="l" depth="6" NCoef="0"     IVar="11" Cut="     9.372188E-03" cType="1"     res="     0.000000E+00" rms="0.0"     purity="0.00000000E+00" nType="0">
                            <Node pos="l" depth="7" NCoef="0"     IVar="-1" Cut="     0.000000E+00" cType="1"     res="    -2.829757E-01" rms="0.0e-00"     purity="0.00000000E+00" nType="-99">
                            </Node>
                            <Node pos="r" depth="7" NCoef="0"     IVar="-1" Cut="     0.000000E+00" cType="1"     res="     1.447041E-01" rms="0.0e-00"     purity="0.00000000E+00" nType="-99">
                            </Node>
                        </Node>
                        <Node pos="r" depth="6" NCoef="0"     IVar="18" Cut="     3.804727E+01" cType="1"     res="     0.000000E+00" rms="0.0"     purity="0.00000000E+00" nType="0">
                            <Node pos="l" depth="7" NCoef="0"     IVar="-1" Cut="     0.000000E+00" cType="1"     res="     3.934310E-01" rms="0.0e-00"     purity="0.00000000E+00" nType="-99">
                            </Node>
                            <Node pos="r" depth="7" NCoef="0"     IVar="-1" Cut="     0.000000E+00" cType="1"     res="    -3.842002E-01" rms="0.0e-00"     purity="0.00000000E+00" nType="-99">
                            </Node>
                        </Node>
                    </Node>
                </Node>
            </Node>
        </Node>
        <Node pos="r" depth="2" NCoef="0"     IVar="19" Cut="     2.362986E-01" cType="1"     res="     0.000000E+00" rms="0.0"     purity="0.00000000E+00" nType="0">
            <Node pos="l" depth="3" NCoef="0"     IVar="6" Cut="     4.894199E-03" cType="1"     res="     0.000000E+00" rms="0.0"     purity="0.00000000E+00" nType="0">
                <Node pos="l" depth="4" NCoef="0"     IVar="13" Cut="     2.225432E-01" cType="1"     res="     0.000000E+00" rms="0.0"     purity="0.00000000E+00" nType="0">
                    <Node pos="l" depth="5" NCoef="0"     IVar="6" Cut="     4.340215E-03" cType="1"     res="     0.000000E+00" rms="0.0"     purity="0.00000000E+00" nType="0">
                        <Node pos="l" depth="6" NCoef="0"     IVar="2" Cut="     2.000000E+00" cType="1"     res="     0.000000E+00" rms="0.0"     purity="0.00000000E+00" nType="0">
                            <Node pos="l" depth="7" NCoef="0"     IVar="-1" Cut="     0.000000E+00" cType="1"     res="     2.749906E-01" rms="0.0e-00"     purity="0.00000000E+00" nType="-99">
                            </Node>
                            <Node pos="r" depth="7" NCoef="0"     IVar="-1" Cut="     0.000000E+00" cType="1"     res="    -2.604615E-01" rms="0.0e-00"     purity="0.00000000E+00" nType="-99">
                            </Node>
                        </Node>
                        <Node pos="r" depth="6" NCoef="0"     IVar="7" Cut="     2.773241E-02" cType="1"     res="     0.000000E+00" rms="0.0"     purity="0.00000000E+00" nType="0">
                            <Node pos="l" depth="7" NCoef="0"     IVar="-1" Cut="     0.000000E+00" cType="1"     res="    -1.237134E-01" rms="0.0e-00"     purity="0.00000000E+00" nType="-99">
                            </Node>
                            <Node pos="r" depth="7" NCoef="0"     IVar="-1" Cut="     0.000000E+00" cType="1"     res="     1.365383E-01" rms="0.0e-00"     purity="0.00000000E+00" nType="-99">
                            </Node>
                        </Node>
                    </Node>
                    <Node pos="r" depth="5" NCoef="0"     IVar="9" Cut="     1.204273E-02" cType="1"     res="     0.000000E+00" rms="0.0"     purity="0.00000000E+00" nType="0">
                        <Node pos="l" depth="6" NCoef="0"     IVar="0" Cut="     1.100000E+01" cType="1"     res="     0.000000E+00" rms="0.0"     purity="0.00000000E+00" nType="0">
                            <Node pos="l" depth="7" NCoef="0"     IVar="-1" Cut="     0.000000E+00" cType="1"     res="    -3.001468E-01" rms="0.0e-00"     purity="0.00000000E+00" nType="-99">
                            </Node>
                            <Node pos="r" depth="7" NCoef="0"     IVar="-1" Cut="     0.000000E+00" cType="1"     res="     3.219852E-01" rms="0.0e-00"     purity="0.00000000E+00" nType="-99">
                            </Node>
                        </Node>
                        <Node pos="r" depth="6" NCoef="0"     IVar="-1" Cut="     0.000000E+00" cType="1"     res="    -4.174063E-01" rms="0.0e-00"     purity="0.00000000E+00" nType="-99">
                        </Node>
                    </Node>
                </Node>
                <Node pos="r" depth="4" NCoef="0"     IVar="8" Cut="     3.544588E-02" cType="1"     res="     0.000000E+00" rms="0.0"     purity="0.00000000E+00" nType="0">
                    <Node pos="l" depth="5" NCoef="0"     IVar="6" Cut="     5.726399E-03" cType="1"     res="     0.000000E+00" rms="0.0"     purity="0.00000000E+00" nType="0">
                        <Node pos="l" depth="6" NCoef="0"     IVar="13" Cut="     1.973331E-01" cType="1"     res="     0.000000E+00" rms="0.0"     purity="0.00000000E+00" nType="0">
                            <Node pos="l" depth="7" NCoef="0"     IVar="-1" Cut="     0.000000E+00" cType="1"     res="    -9.494889E-02" rms="0.0e-00"     purity="0.00000000E+00" nType="-99">
                            </Node>
                            <Node pos="r" depth="7" NCoef="0"     IVar="-1" Cut="     0.000000E+00" cType="1"     res="    -4.236156E-01" rms="0.0e-00"     purity="0.00000000E+00" nType="-99">
                            </Node>
                        </Node>
                        <Node pos="r" depth="6" NCoef="0"     IVar="18" Cut="     9.396663E+01" cType="1"     res="     0.000000E+00" rms="0.0"     purity="0.00000000E+00" nType="0">
                            <Node pos="l" depth="7" NCoef="0"     IVar="-1" Cut="     0.000000E+00" cType="1"     res="    -3.970413E-01" rms="0.0e-00"     purity="0.00000000E+00" nType="-99">
                            </Node>
                            <Node pos="r" depth="7" NCoef="0"     IVar="-1" Cut="     0.000000E+00" cType="1"     res="     3.431489E-01" rms="0.0e-00"     purity="0.00000000E+00" nType="-99">
                            </Node>
                        </Node>
                    </Node>
                    <Node pos="r" depth="5" NCoef="0"     IVar="0" Cut="     1.850000E+01" cType="1"     res="     0.000000E+00" rms="0.0"     purity="0.00000000E+00" nType="0">
                        <Node pos="l" depth="6" NCoef="0"     IVar="6" Cut="     5.212177E-03" cType="1"     res="     0.000000E+00" rms="0.0"     purity="0.00000000E+00" nType="0">
                            <Node pos="l" depth="7" NCoef="0"     IVar="-1" Cut="     0.000000E+00" cType="1"     res="    -4.477047E-01" rms="0.0e-00"     purity="0.00000000E+00" nType="-99">
                            </Node>
                            <Node pos="r" depth="7" NCoef="0"     IVar="-1" Cut="     0.000000E+00" cType="1"     res="    -4.009980E-01" rms="0.0e-00"     purity="0.00000000E+00" nType="-99">
                            </Node>
                        </Node>
                        <Node pos="r" depth="6" NCoef="0"     IVar="11" Cut="     6.614164E-03" cType="1"     res="     0.000000E+00" rms="0.0"     purity="0.00000000E+00" nType="0">
                            <Node pos="l" depth="7" NCoef="0"     IVar="-1" Cut="     0.000000E+00" cType="1"     res="     4.577870E-01" rms="0.0e-00"     purity="0.00000000E+00" nType="-99">
                            </Node>
                            <Node pos="r" depth="7" NCoef="0"     IVar="-1" Cut="     0.000000E+00" cType="1"     res="    -3.333863E-01" rms="0.0e-00"     purity="0.00000000E+00" nType="-99">
                            </Node>
                        </Node>
                    </Node>
                </Node>
            </Node>
            <Node pos="r" depth="3" NCoef="0"     IVar="19" Cut="     3.224183E-01" cType="1"     res="     0.000000E+00" rms="0.0"     purity="0.00000000E+00" nType="0">
                <Node pos="l" depth="4" NCoef="0"     IVar="6" Cut="     4.646381E-03" cType="1"     res="     0.000000E+00" rms="0.0"     purity="0.00000000E+00" nType="0">
                    <Node pos="l" depth="5" NCoef="0"     IVar="18" Cut="     3.442455E+01" cType="1"     res="     0.000000E+00" rms="0.0"     purity="0.00000000E+00" nType="0">
                        <Node pos="l" depth="6" NCoef="0"     IVar="10" Cut="     3.268927E-02" cType="1"     res="     0.000000E+00" rms="0.0"     purity="0.00000000E+00" nType="0">
                            <Node pos="l" depth="7" NCoef="0"     IVar="-1" Cut="     0.000000E+00" cType="1"     res="    -6.381512E-02" rms="0.0e-00"     purity="0.00000000E+00" nType="-99">
                            </Node>
                            <Node pos="r" depth="7" NCoef="0"     IVar="-1" Cut="     0.000000E+00" cType="1"     res="    -3.783620E-01" rms="0.0e-00"     purity="0.00000000E+00" nType="-99">
                            </Node>
                        </Node>
                        <Node pos="r" depth="6" NCoef="0"     IVar="15" Cut="     5.801357E+00" cType="1"     res="     0.000000E+00" rms="0.0"     purity="0.00000000E+00" nType="0">
                            <Node pos="l" depth="7" NCoef="0"     IVar="-1" Cut="     0.000000E+00" cType="1"     res="     1.570774E-01" rms="0.0e-00"     purity="0.00000000E+00" nType="-99">
                            </Node>
                            <Node pos="r" depth="7" NCoef="0"     IVar="-1" Cut="     0.000000E+00" cType="1"     res="    -2.937632E-01" rms="0.0e-00"     purity="0.00000000E+00" nType="-99">
                            </Node>
                        </Node>
                    </Node>
                    <Node pos="r" depth="5" NCoef="0"     IVar="11" Cut="     4.960069E-03" cType="1"     res="     0.000000E+00" rms="0.0"     purity="0.00000000E+00" nType="0">
                        <Node pos="l" depth="6" NCoef="0"     IVar="18" Cut="     3.267724E+01" cType="1"     res="     0.000000E+00" rms="0.0"     purity="0.00000000E+00" nType="0">
                            <Node pos="l" depth="7" NCoef="0"     IVar="-1" Cut="     0.000000E+00" cType="1"     res="    -3.838424E-01" rms="0.0e-00"     purity="0.00000000E+00" nType="-99">
                            </Node>
                            <Node pos="r" depth="7" NCoef="0"     IVar="-1" Cut="     0.000000E+00" cType="1"     res="     3.760197E-01" rms="0.0e-00"     purity="0.00000000E+00" nType="-99">
                            </Node>
                        </Node>
                        <Node pos="r" depth="6" NCoef="0"     IVar="8" Cut="     3.607702E-02" cType="1"     res="     0.000000E+00" rms="0.0"     purity="0.00000000E+00" nType="0">
                            <Node pos="l" depth="7" NCoef="0"     IVar="-1" Cut="     0.000000E+00" cType="1"     res="    -3.324024E-01" rms="0.0e-00"     purity="0.00000000E+00" nType="-99">
                            </Node>
                            <Node pos="r" depth="7" NCoef="0"     IVar="-1" Cut="     0.000000E+00" cType="1"     res="    -4.010939E-01" rms="0.0e-00"     purity="0.00000000E+00" nType="-99">
                            </Node>
                        </Node>
                    </Node>
                </Node>
                <Node pos="r" depth="4" NCoef="0"     IVar="16" Cut="     8.495890E+00" cType="1"     res="     0.000000E+00" rms="0.0"     purity="0.00000000E+00" nType="0">
                    <Node pos="l" depth="5" NCoef="0"     IVar="6" Cut="     4.079147E-03" cType="1"     res="     0.000000E+00" rms="0.0"     purity="0.00000000E+00" nType="0">
                        <Node pos="l" depth="6" NCoef="0"     IVar="18" Cut="     3.110373E+01" cType="1"     res="     0.000000E+00" rms="0.0"     purity="0.00000000E+00" nType="0">
                            <Node pos="l" depth="7" NCoef="0"     IVar="-1" Cut="     0.000000E+00" cType="1"     res="    -3.793228E-01" rms="0.0e-00"     purity="0.00000000E+00" nType="-99">
                            </Node>
                            <Node pos="r" depth="7" NCoef="0"     IVar="-1" Cut="     0.000000E+00" cType="1"     res="     3.898180E-01" rms="0.0e-00"     purity="0.00000000E+00" nType="-99">
                            </Node>
                        </Node>
                        <Node pos="r" depth="6" NCoef="0"     IVar="16" Cut="     8.495158E+00" cType="1"     res="     0.000000E+00" rms="0.0"     purity="0.00000000E+00" nType="0">
                            <Node pos="l" depth="7" NCoef="0"     IVar="-1" Cut="     0.000000E+00" cType="1"     res="    -3.856842E-01" rms="0.0e-00"     purity="0.00000000E+00" nType="-99">
                            </Node>
                            <Node pos="r" depth="7" NCoef="0"     IVar="-1" Cut="     0.000000E+00" cType="1"     res="     6.607642E-01" rms="0.0e-00"     purity="0.00000000E+00" nType="-99">
                            </Node>
                        </Node>
                    </Node>
                    <Node pos="r" depth="5" NCoef="0"     IVar="0" Cut="     2.850000E+01" cType="1"     res="     0.000000E+00" rms="0.0"     purity="0.00000000E+00" nType="0">
                        <Node pos="l" depth="6" NCoef="0"     IVar="19" Cut="     4.671381E-01" cType="1"     res="     0.000000E+00" rms="0.0"     purity="0.00000000E+00" nType="0">
                            <Node pos="l" depth="7" NCoef="0"     IVar="-1" Cut="     0.000000E+00" cType="1"     res="    -3.873278E-01" rms="0.0e-00"     purity="0.00000000E+00" nType="-99">
                            </Node>
                            <Node pos="r" depth="7" NCoef="0"     IVar="-1" Cut="     0.000000E+00" cType="1"     res="    -4.029210E-01" rms="0.0e-00"     purity="0.00000000E+00" nType="-99">
                            </Node>
                        </Node>
                        <Node pos="r" depth="6" NCoef="0"     IVar="6" Cut="     4.489443E-03" cType="1"     res="     0.000000E+00" rms="0.0"     purity="0.00000000E+00" nType="0">
                            <Node pos="l" depth="7" NCoef="0"     IVar="-1" Cut="     0.000000E+00" cType="1"     res="     2.353766E-01" rms="0.0e-00"     purity="0.00000000E+00" nType="-99">
                            </Node>
                            <Node pos="r" depth="7" NCoef="0"     IVar="-1" Cut="     0.000000E+00" cType="1"     res="    -3.805893E-01" rms="0.0e-00"     purity="0.00000000E+00" nType="-99">
                            </Node>
                        </Node>
                    </Node>
                </Node>
            </Node>
        </Node>
    </Node>
</BinaryTree>
<BinaryTree type="DecisionTree" boostWeight="0.0" itree="3">
    <Node pos="c" depth="1" NCoef="0"     IVar="19" Cut="     1.560235E-01" cType="1"     res="     0.000000E+00" rms="0.0"     purity="0.00000000E+00" nType="0">
        <Node pos="l" depth="2" NCoef="0"     IVar="6" Cut="     4.508254E-03" cType="1"     res="     0.000000E+00" rms="0.0"     purity="0.00000000E+00" nType="0">
            <Node pos="l" depth="3" NCoef="0"     IVar="17" Cut="     3.054969E+00" cType="1"     res="     0.000000E+00" rms="0.0"     purity="0.00000000E+00" nType="0">
                <Node pos="l" depth="4" NCoef="0"     IVar="14" Cut="     1.077549E+00" cType="1"     res="     0.000000E+00" rms="0.0"     purity="0.00000000E+00" nType="0">
                    <Node pos="l" depth="5" NCoef="0"     IVar="8" Cut="     9.838463E-03" cType="1"     res="     0.000000E+00" rms="0.0"     purity="0.00000000E+00" nType="0">
                        <Node pos="l" depth="6" NCoef="0"     IVar="-1" Cut="     0.000000E+00" cType="1"     res="     3.232614E-01" rms="0.0e-00"     purity="0.00000000E+00" nType="-99">
                        </Node>
                        <Node pos="r" depth="6" NCoef="0"     IVar="-1" Cut="     0.000000E+00" cType="1"     res="     4.467592E-02" rms="0.0e-00"     purity="0.00000000E+00" nType="-99">
                        </Node>
                    </Node>
                    <Node pos="r" depth="5" NCoef="0"     IVar="12" Cut="     3.303376E+02" cType="1"     res="     0.000000E+00" rms="0.0"     purity="0.00000000E+00" nType="0">
                        <Node pos="l" depth="6" NCoef="0"     IVar="17" Cut="     2.058244E+00" cType="1"     res="     0.000000E+00" rms="0.0"     purity="0.00000000E+00" nType="0">
                            <Node pos="l" depth="7" NCoef="0"     IVar="-1" Cut="     0.000000E+00" cType="1"     res="    -3.521417E-01" rms="0.0e-00"     purity="0.00000000E+00" nType="-99">
                            </Node>
                            <Node pos="r" depth="7" NCoef="0"     IVar="-1" Cut="     0.000000E+00" cType="1"     res="     2.533035E-01" rms="0.0e-00"     purity="0.00000000E+00" nType="-99">
                            </Node>
                        </Node>
                        <Node pos="r" depth="6" NCoef="0"     IVar="-1" Cut="     0.000000E+00" cType="1"     res="    -3.766915E-01" rms="0.0e-00"     purity="0.00000000E+00" nType="-99">
                        </Node>
                    </Node>
                </Node>
                <Node pos="r" depth="4" NCoef="0"     IVar="6" Cut="     4.120056E-03" cType="1"     res="     0.000000E+00" rms="0.0"     purity="0.00000000E+00" nType="0">
                    <Node pos="l" depth="5" NCoef="0"     IVar="19" Cut="     7.753457E-02" cType="1"     res="     0.000000E+00" rms="0.0"     purity="0.00000000E+00" nType="0">
                        <Node pos="l" depth="6" NCoef="0"     IVar="18" Cut="     3.517344E+01" cType="1"     res="     0.000000E+00" rms="0.0"     purity="0.00000000E+00" nType="0">
                            <Node pos="l" depth="7" NCoef="0"     IVar="-1" Cut="     0.000000E+00" cType="1"     res="     3.412544E-01" rms="0.0e-00"     purity="0.00000000E+00" nType="-99">
                            </Node>
                            <Node pos="r" depth="7" NCoef="0"     IVar="-1" Cut="     0.000000E+00" cType="1"     res="     3.675171E-01" rms="0.0e-00"     purity="0.00000000E+00" nType="-99">
                            </Node>
                        </Node>
                        <Node pos="r" depth="6" NCoef="0"     IVar="18" Cut="     3.729327E+01" cType="1"     res="     0.000000E+00" rms="0.0"     purity="0.00000000E+00" nType="0">
                            <Node pos="l" depth="7" NCoef="0"     IVar="-1" Cut="     0.000000E+00" cType="1"     res="     1.910641E-01" rms="0.0e-00"     purity="0.00000000E+00" nType="-99">
                            </Node>
                            <Node pos="r" depth="7" NCoef="0"     IVar="-1" Cut="     0.000000E+00" cType="1"     res="     3.435098E-01" rms="0.0e-00"     purity="0.00000000E+00" nType="-99">
                            </Node>
                        </Node>
                    </Node>
                    <Node pos="r" depth="5" NCoef="0"     IVar="7" Cut="     2.252646E-02" cType="1"     res="     0.000000E+00" rms="0.0"     purity="0.00000000E+00" nType="0">
                        <Node pos="l" depth="6" NCoef="0"     IVar="19" Cut="     7.933579E-02" cType="1"     res="     0.000000E+00" rms="0.0"     purity="0.00000000E+00" nType="0">
                            <Node pos="l" depth="7" NCoef="0"     IVar="-1" Cut="     0.000000E+00" cType="1"     res="     2.533392E-01" rms="0.0e-00"     purity="0.00000000E+00" nType="-99">
                            </Node>
                            <Node pos="r" depth="7" NCoef="0"     IVar="-1" Cut="     0.000000E+00" cType="1"     res="     1.679563E-03" rms="0.0e-00"     purity="0.00000000E+00" nType="-99">
                            </Node>
                        </Node>
                        <Node pos="r" depth="6" NCoef="0"     IVar="13" Cut="     2.394067E-01" cType="1"     res="     0.000000E+00" rms="0.0"     purity="0.00000000E+00" nType="0">
                            <Node pos="l" depth="7" NCoef="0"     IVar="-1" Cut="     0.000000E+00" cType="1"     res="     3.235781E-01" rms="0.0e-00"     purity="0.00000000E+00" nType="-99">
                            </Node>
                            <Node pos="r" depth="7" NCoef="0"     IVar="-1" Cut="     0.000000E+00" cType="1"     res="    -6.367960E-01" rms="0.0e-00"     purity="0.00000000E+00" nType="-99">
                            </Node>
                        </Node>
                    </Node>
                </Node>
            </Node>
            <Node pos="r" depth="3" NCoef="0"     IVar="6" Cut="     5.392934E-03" cType="1"     res="     0.000000E+00" rms="0.0"     purity="0.00000000E+00" nType="0">
                <Node pos="l" depth="4" NCoef="0"     IVar="0" Cut="     1.150000E+01" cType="1"     res="     0.000000E+00" rms="0.0"     purity="0.00000000E+00" nType="0">
                    <Node pos="l" depth="5" NCoef="0"     IVar="7" Cut="     9.571157E-03" cType="1"     res="     0.000000E+00" rms="0.0"     purity="0.00000000E+00" nType="0">
                        <Node pos="l" depth="6" NCoef="0"     IVar="1" Cut="     2.000000E+01" cType="1"     res="     0.000000E+00" rms="0.0"     purity="0.00000000E+00" nType="0">
                            <Node pos="l" depth="7" NCoef="0"     IVar="-1" Cut="     0.000000E+00" cType="1"     res="     1.033235E-01" rms="0.0e-00"     purity="0.00000000E+00" nType="-99">
                            </Node>
                            <Node pos="r" depth="7" NCoef="0"     IVar="-1" Cut="     0.000000E+00" cType="1"     res="     3.980517E-01" rms="0.0e-00"     purity="0.00000000E+00" nType="-99">
                            </Node>
                        </Node>
                        <Node pos="r" depth="6" NCoef="0"     IVar="0" Cut="     9.500000E+00" cType="1"     res="     0.000000E+00" rms="0.0"     purity="0.00000000E+00" nType="0">
                            <Node pos="l" depth="7" NCoef="0"     IVar="-1" Cut="     0.000000E+00" cType="1"     res="    -4.475944E-01" rms="0.0e-00"     purity="0.00000000E+00" nType="-99">
                            </Node>
                            <Node pos="r" depth="7" NCoef="0"     IVar="-1" Cut="     0.000000E+00" cType="1"     res="    -1.314437E-01" rms="0.0e-00"     purity="0.00000000E+00" nType="-99">
                            </Node>
                        </Node>
                    </Node>
                    <Node pos="r" depth="5" NCoef="0"     IVar="17" Cut="     2.248357E+01" cType="1"     res="     0.000000E+00" rms="0.0"     purity="0.00000000E+00" nType="0">
                        <Node pos="l" depth="6" NCoef="0"     IVar="13" Cut="     2.433335E-01" cType="1"     res="     0.000000E+00" rms="0.0"     purity="0.00000000E+00" nType="0">
                            <Node pos="l" depth="7" NCoef="0"     IVar="-1" Cut="     0.000000E+00" cType="1"     res="     2.022238E-01" rms="0.0e-00"     purity="0.00000000E+00" nType="-99">
                            </Node>
                            <Node pos="r" depth="7" NCoef="0"     IVar="-1" Cut="     0.000000E+00" cType="1"     res="    -4.647583E-01" rms="0.0e-00"     purity="0.00000000E+00" nType="-99">
                            </Node>
                        </Node>
                        <Node pos="r" depth="6" NCoef="0"     IVar="7" Cut="     2.974451E-02" cType="1"     res="     0.000000E+00" rms="0.0"     purity="0.00000000E+00" nType="0">
                            <Node pos="l" depth="7" NCoef="0"     IVar="-1" Cut="     0.000000E+00" cType="1"     res="    -3.769029E-01" rms="0.0e-00"     purity="0.00000000E+00" nType="-99">
                            </Node>
                            <Node pos="r" depth="7" NCoef="0"     IVar="-1" Cut="     0.000000E+00" cType="1"     res="    -4.526288E-02" rms="0.0e-00"     purity="0.00000000E+00" nType="-99">
                            </Node>
                        </Node>
                    </Node>
                </Node>
                <Node pos="r" depth="4" NCoef="0"     IVar="19" Cut="     4.141680E-02" cType="1"     res="     0.000000E+00" rms="0.0"     purity="0.00000000E+00" nType="0">
                    <Node pos="l" depth="5" NCoef="0"     IVar="5" Cut="     4.249782E-03" cType="1"     res="     0.000000E+00" rms="0.0"     purity="0.00000000E+00" nType="0">
                        <Node pos="l" depth="6" NCoef="0"     IVar="4" Cut="     6.452534E+00" cType="1"     res="     0.000000E+00" rms="0.0"     purity="0.00000000E+00" nType="0">
                            <Node pos="l" depth="7" NCoef="0"     IVar="-1" Cut="     0.000000E+00" cType="1"     res="    -3.269616E-01" rms="0.0e-00"     purity="0.00000000E+00" nType="-99">
                            </Node>
                            <Node pos="r" depth="7" NCoef="0"     IVar="-1" Cut="     0.000000E+00" cType="1"     res="     4.064851E-01" rms="0.0e-00"     purity="0.00000000E+00" nType="-99">
                            </Node>
                        </Node>
                        <Node pos="r" depth="6" NCoef="0"     IVar="7" Cut="     3.791459E-02" cType="1"     res="     0.000000E+00" rms="0.0"     purity="0.00000000E+00" nType="0">
                            <Node pos="l" depth="7" NCoef="0"     IVar="-1" Cut="     0.000000E+00" cType="1"     res="    -3.806175E-01" rms="0.0e-00"     purity="0.00000000E+00" nType="-99">
                            </Node>
                            <Node pos="r" depth="7" NCoef="0"     IVar="-1" Cut="     0.000000E+00" cType="1"     res="     1.995999E-01" rms="0.0e-00"     purity="0.00000000E+00" nType="-99">
                            </Node>
                        </Node>
                    </Node>
                    <Node pos="r" depth="5" NCoef="0"     IVar="9" Cut="     2.069635E-01" cType="1"     res="     0.000000E+00" rms="0.0"     purity="0.00000000E+00" nType="0">
                        <Node pos="l" depth="6" NCoef="0"     IVar="17" Cut="     1.480758E+01" cType="1"     res="     0.000000E+00" rms="0.0"     purity="0.00000000E+00" nType="0">
                            <Node pos="l" depth="7" NCoef="0"     IVar="-1" Cut="     0.000000E+00" cType="1"     res="    -2.307439E-01" rms="0.0e-00"     purity="0.00000000E+00" nType="-99">
                            </Node>
                            <Node pos="r" depth="7" NCoef="0"     IVar="-1" Cut="     0.000000E+00" cType="1"     res="    -3.462316E-01" rms="0.0e-00"     purity="0.00000000E+00" nType="-99">
                            </Node>
                        </Node>
                        <Node pos="r" depth="6" NCoef="0"     IVar="-1" Cut="     0.000000E+00" cType="1"     res="     2.759841E-01" rms="0.0e-00"     purity="0.00000000E+00" nType="-99">
                        </Node>
                    </Node>
                </Node>
            </Node>
        </Node>
        <Node pos="r" depth="2" NCoef="0"     IVar="19" Cut="     2.563094E-01" cType="1"     res="     0.000000E+00" rms="0.0"     purity="0.00000000E+00" nType="0">
            <Node pos="l" depth="3" NCoef="0"     IVar="6" Cut="     4.717473E-03" cType="1"     res="     0.000000E+00" rms="0.0"     purity="0.00000000E+00" nType="0">
                <Node pos="l" depth="4" NCoef="0"     IVar="13" Cut="     2.181084E-01" cType="1"     res="     0.000000E+00" rms="0.0"     purity="0.00000000E+00" nType="0">
                    <Node pos="l" depth="5" NCoef="0"     IVar="6" Cut="     3.973011E-03" cType="1"     res="     0.000000E+00" rms="0.0"     purity="0.00000000E+00" nType="0">
                        <Node pos="l" depth="6" NCoef="0"     IVar="14" Cut="     3.519435E+00" cType="1"     res="     0.000000E+00" rms="0.0"     purity="0.00000000E+00" nType="0">
                            <Node pos="l" depth="7" NCoef="0"     IVar="-1" Cut="     0.000000E+00" cType="1"     res="     2.760037E-01" rms="0.0e-00"     purity="0.00000000E+00" nType="-99">
                            </Node>
                            <Node pos="r" depth="7" NCoef="0"     IVar="-1" Cut="     0.000000E+00" cType="1"     res="    -2.865273E-01" rms="0.0e-00"     purity="0.00000000E+00" nType="-99">
                            </Node>
                        </Node>
                        <Node pos="r" depth="6" NCoef="0"     IVar="18" Cut="     4.677227E+01" cType="1"     res="     0.000000E+00" rms="0.0"     purity="0.00000000E+00" nType="0">
                            <Node pos="l" depth="7" NCoef="0"     IVar="-1" Cut="     0.000000E+00" cType="1"     res="    -1.201505E-01" rms="0.0e-00"     purity="0.00000000E+00" nType="-99">
                            </Node>
                            <Node pos="r" depth="7" NCoef="0"     IVar="-1" Cut="     0.000000E+00" cType="1"     res="     1.779141E-01" rms="0.0e-00"     purity="0.00000000E+00" nType="-99">
                            </Node>
                        </Node>
                    </Node>
                    <Node pos="r" depth="5" NCoef="0"     IVar="9" Cut="     1.181496E-02" cType="1"     res="     0.000000E+00" rms="0.0"     purity="0.00000000E+00" nType="0">
                        <Node pos="l" depth="6" NCoef="0"     IVar="0" Cut="     1.150000E+01" cType="1"     res="     0.000000E+00" rms="0.0"     purity="0.00000000E+00" nType="0">
                            <Node pos="l" depth="7" NCoef="0"     IVar="-1" Cut="     0.000000E+00" cType="1"     res="    -3.045490E-01" rms="0.0e-00"     purity="0.00000000E+00" nType="-99">
                            </Node>
                            <Node pos="r" depth="7" NCoef="0"     IVar="-1" Cut="     0.000000E+00" cType="1"     res="     2.746181E-01" rms="0.0e-00"     purity="0.00000000E+00" nType="-99">
                            </Node>
                        </Node>
                        <Node pos="r" depth="6" NCoef="0"     IVar="13" Cut="     2.225432E-01" cType="1"     res="     0.000000E+00" rms="0.0"     purity="0.00000000E+00" nType="0">
                            <Node pos="l" depth="7" NCoef="0"     IVar="-1" Cut="     0.000000E+00" cType="1"     res="    -9.495495E-02" rms="0.0e-00"     purity="0.00000000E+00" nType="-99">
                            </Node>
                            <Node pos="r" depth="7" NCoef="0"     IVar="-1" Cut="     0.000000E+00" cType="1"     res="    -3.783903E-01" rms="0.0e-00"     purity="0.00000000E+00" nType="-99">
                            </Node>
                        </Node>
                    </Node>
                </Node>
                <Node pos="r" depth="4" NCoef="0"     IVar="6" Cut="     5.218973E-03" cType="1"     res="     0.000000E+00" rms="0.0"     purity="0.00000000E+00" nType="0">
                    <Node pos="l" depth="5" NCoef="0"     IVar="8" Cut="     3.530430E-02" cType="1"     res="     0.000000E+00" rms="0.0"     purity="0.00000000E+00" nType="0">
                        <Node pos="l" depth="6" NCoef="0"     IVar="18" Cut="     5.184417E+01" cType="1"     res="     0.000000E+00" rms="0.0"     purity="0.00000000E+00" nType="0">
                            <Node pos="l" depth="7" NCoef="0"     IVar="-1" Cut="     0.000000E+00" cType="1"     res="    -1.675041E-01" rms="0.0e-00"     purity="0.00000000E+00" nType="-99">
                            </Node>
                            <Node pos="r" depth="7" NCoef="0"     IVar="-1" Cut="     0.000000E+00" cType="1"     res="     1.053865E-01" rms="0.0e-00"     purity="0.00000000E+00" nType="-99">
                            </Node>
                        </Node>
                        <Node pos="r" depth="6" NCoef="0"     IVar="6" Cut="     4.894199E-03" cType="1"     res="     0.000000E+00" rms="0.0"     purity="0.00000000E+00" nType="0">
                            <Node pos="l" depth="7" NCoef="0"     IVar="-1" Cut="     0.000000E+00" cType="1"     res="    -1.608297E-01" rms="0.0e-00"     purity="0.00000000E+00" nType="-99">
                            </Node>
                            <Node pos="r" depth="7" NCoef="0"     IVar="-1" Cut="     0.000000E+00" cType="1"     res="    -3.952673E-01" rms="0.0e-00"     purity="0.00000000E+00" nType="-99">
                            </Node>
                        </Node>
                    </Node>
                    <Node pos="r" depth="5" NCoef="0"     IVar="11" Cut="     5.706984E-03" cType="1"     res="     0.000000E+00" rms="0.0"     purity="0.00000000E+00" nType="0">
                        <Node pos="l" depth="6" NCoef="0"     IVar="0" Cut="     1.150000E+01" cType="1"     res="     0.000000E+00" rms="0.0"     purity="0.00000000E+00" nType="0">
                            <Node pos="l" depth="7" NCoef="0"     IVar="-1" Cut="     0.000000E+00" cType="1"     res="    -2.861958E-01" rms="0.0e-00"     purity="0.00000000E+00" nType="-99">
                            </Node>
                            <Node pos="r" depth="7" NCoef="0"     IVar="-1" Cut="     0.000000E+00" cType="1"     res="     2.552578E-01" rms="0.0e-00"     purity="0.00000000E+00" nType="-99">
                            </Node>
                        </Node>
                        <Node pos="r" depth="6" NCoef="0"     IVar="3" Cut="     2.800000E+01" cType="1"     res="     0.000000E+00" rms="0.0"     purity="0.00000000E+00" nType="0">
